1000 32
43.8937 63.3243 85.7978 47.1936 60.9119 91.1125 88.0775 22.3228 63.2285 13.901 70.3103 2.54837 58.3769 46.4509 74.443 63.0978 12.2461 55.9474 43.0837 64.7521 27.75 66.8893 10.5705 67.0272 91.0965 7.61948 96.2607 71.9307 24.2651 83.8626 4.28658 68.1588 4
90.0844 15.3524 8.09887 81.1969 3.4299 30.4217 44.4254 17.3309 0.731979 46.9737 75.7078 47.1829 21.4167 38.8057 59.429 77.3641 81.8893 24.181 5.11416 48.7786 34.7516 72.1414 39.8751 42.371 68.402 11.8059 66.6361 52.2647 16.0924 34.7949 99.4516 6.17682 1
7.55045 87.3737 53.5772 37.9721 31.7991 70.9081 38.7041 78.7728 46.6159 85.887 0.189546 85.4216 45.3159 77.5537 67.3109 69.497 82.6678 16.0895 4.24854 54.8092 55.9647 46.6196 23.2112 67.7705 13.2557 75.4758 83.863 48.0506 74.9274 90.0398 98.198 82.4779 0
51.7752 20.45 9.21257 22.6833 59.1541 87.9854 69.2992 45.0411 88.1749 54.7208 90.3571 65.7286 22.0317 59.8541 48.3964 38.1212 64.1026 3.20559 94.0859 10.7222 26.4168 61.8564 23.9779 1.89263 45.7193 72.0285 76.8201 35.7591 70.2265 59.2979 13.1726 22.0016 3
22.3852 44.6849 38.9021 10.3706 13.9841 83.9432 98.5455 68.7048 74.3003 64.2741 90.7365 34.1544 12.6705 28.8577 98.257 15.8761 22.9436 8.97913 42.2929 84.8 32.957 44.1855 30.5193 4.98553 21.0056 66.2785 75.212 80.3035 79.4511 97.2136 60.0514 1.83628 1
98.9535 12.2069 55.8826 82.8968 10.7524 24.5874 57.1971 75.0265 15.3239 91.3514 87.697 44.1817 89.6084 3.57306 67.1252 98.5875 45.8659 51.9252 31.5445 90.0514 82.4445 36.5301 11.057 48.723 11.7421 91.3605 28.1741 8.95568 51.4119 30.0104 50.8542 50.3654 4
6.73678 33.2622 52.9696 31.3242 90.4593 27.996 46.6481 81.8107 15.693 90.8298 71.4191 19.2661 57.955 70.0066 65.132 9.88022 1.55113 55.1834 92.3248 38.0812 66.2405 41.0478 49.8232 57.6009 69.2218 58.7789 9.01287 99.2322 9.63311 59.3783 41.4494 16.3699 2
94.419 47.6941 83.0998 22.4151 94.3422 64.9105 38.1081 85.172 36.3296 57.3741 43.127 6.33619 22.5061 53.0072 7.88732 77.6896 45.332 45.9685 43.93 86.3797 95.7917 1.53095 55.6015 54.5706 10.5438 54.8338 64.2037 69.9221 96.2832 80.5736 62.5627 90.7022 3
45.6624 13.1173 22.6099 10.5729 51.2253 7.78186 46.9025 8.59942 50.9088 53.2387 31.1055 3.91603 61.126 8.79509 49.248 7.09452 52.7251 35.6277 2.88624 54.2561 91.2292 57.4569 64.7999 46.063 21.6606 34.722 42.3462 2.23425 97.2847 33.0484 30.502 42.9471 0
53.1119 53.52 97.3909 60.8937 0.422569 5.99036 11.8026 53.6613 37.0959 15.7186 14.7873 45.891 64.9666 21.8818 98.6161 0.594276 24.7681 52.8721 91.8235 82.2249 17.672 37.8865 3.88557 52.394 80.2327 6.11982 49.6787 13.2811 36.6218 92.6258 59.4468 89.7336 0
56.8377 50.6274 46.5684 62.8281 62.4299 0.22969 99.924 78.1485 15.017 45.8149 43.1151 36.8988 44.431 43.7094 61.6669 97.3032 35.5329 43.8918 14.9752 73.4194 47.7774 67.3692 53.6521 53.8972 17.0479 66.9333 90.519 9.67367 26.38 80.2526 55.8195 83.2177 1
2.38792 46.0458 93.3099 2.61761 45.9698 71.4584 17.6346 91.7847 14.5735 54.5334 36.2157 58.2829 16.2003 33.5189 93.8158 60.0922 48.4941 67.2352 7.86961 15.8633 20.8873 61.7668 32.9111 87.8206 52.2858 42.5848 14.2006 32.5385 98.4043 97.4183 63.4185 0.792254 0
56.7284 3.40987 89.4339 28.1868 21.0445 81.2186 42.7603 75.5779 17.4343 1.0432 91.7783 50.9532 94.8589 51.8705 99.4473 62.0941 59.7401 15.3105 82.9814 21.5069 48.2217 70.802 73.7927 90.8065 85.0026 6.33122 89.2108 82.421 69.7497 90.0031 25.8851 26.4781 2
15.319 54.6649 14.4574 96.5376 97.4253 90.0354 13.9719 98.4685 81.8136 64.9251 93.3274 33.6841 64.3724 55.4215 93.4241 79.6829 38.403 14.9311 27.9046 9.205 88.7238 18.7112 94.2076 95.055 7.922 76.6286 64.8047 97.9251 2.51372 91.2828 91.3381 17.8327 2
5.79551 14.3703 43.373 95.8309 28.3422 41.8415 77.6445 93.2673 35.1689 11.3286 57.6397 90.5904 4.75274 37.3227 28.9934 19.6838 65.2273 38.1984 8.40758 83.9385 32.406 3.4626 91.8605 9.03462 68.2673 89.7856 11.5483 59.5501 81.1236 29.3811 5.49789 86.9192 1
48.8709 82.75 72.0936 90.7123 60.3945 65.3609 25.8812 71.7231 23.0006 16.4716 76.4758 60.3233 45.4649 96.1596 25.5506 83.6633 4.56721 9.48905 16.0693 8.02981 1.34952 25.1039 76.2971 91.1351 36.6523 35.8473 72.2587 66.0333 41.3452 59.1779 9.78467 90.216 3
81.8782 80.9284 2.32243 47.2391 6.80959 74.0455 70.2397 23.2812 50.5214 30.563 68.7461 46.681 56.1136 52.4094 51.2482 65.6026 68.4787 59.278 66.9521 93.5826 35.5752 58.0872 30.2349 71.4224 30.3459 96.2682 12.7676 89.5238 6.05288 2.98363 31.4517 87.9311 2
33.7742 35.1702 90.7216 7.81969 5.40992 14.0028 58.3411 35.9729 82.7489 5.02211 92.0864 35.1583 56.2703 57.689 3.63702 15.5484 24.6412 97.2197 51.1236 82.7284 27.4545 22.546 13.0743 23.7228 35.3136 2.59813 29.7756 38.2972 34.0499 17.7067 22.2092 67.824 0
12.9308 75.6437 58.2869 26.9336 33.9848 94.2598 9.68251 39.0069 86.3462 44.8408 95.2772 44.0353 48.4778 10.8256 68.6764 45.6975 61.9492 51.4048 73.152 84.4952 64.4791 96.8748 19.8088 67.0772 26.6504 58.106 1.12711 44.3572 80.3153 68.9511 97.2341 93.2461 4
55.521 20.1797 78.5796 49.7807 29.8622 17.5865 36.1269 74.703 12.8637 80.1622 23.1809 23.6893 48.8386 68.8784 85.6385 0.243417 42.0304 70.1338 64.7225 38.9052 89.9426 31.7998 65.5556 48.0486 32.9269 9.91273 28.3639 1.878 7.14684 21.61 46.4728 62.6678 1
25.0524 12.4486 71.6519 42.6389 48.5755 46.355 55.5026 28.7377 69.5359 79.1919 77.5763 38.4142 64.8305 77.8197 80.4446 34.9642 42.5423 19.3498 24.9068 74.342 84.9054 72.9554 7.26894 94.8181 1.31922 9.14694 1.96493 22.9292 55.6197 64.6328 64.7189 80.6721 3
36.3708 23.311 25.6568 82.7258 78.8136 54.3945 52.2617 58.0055 31.9708 90.6759 22.836 9.79051 71.1205 57.8002 52.3328 90.4703 82.707 26.6748 75.3757 55.6623 33.9437 70.1938 56.9815 43.0907 72.1587 79.9107 98.7104 36.7914 44.6296 79.3826 13.8727 81.0005 1
39.5295 63.7263 81.5071 93.924 15.988 39.5126 25.8948 6.66395 62.3486 35.6853 77.7845 20.1488 88.0181 68.2548 2.85577 14.6929 43.6305 58.5181 48.6366 13.8242 15.4996 91.7273 85.9829 95.4104 90.4377 22.7744 40.04 69.8203 36.6471 21.0405 72.5139 76.1767 1
54.021 70.1007 0.754781 93.5336 95.9955 7.41873 55.8823 31.6808 85.2032 76.0311 19.6989 53.458 78.8868 34.3918 97.0885 37.4049 83.0284 10.9127 52.9046 74.7557 96.8957 48.3149 65.1935 19.67 88.3549 35.0138 56.3172 9.3954 7.52763 32.4938 94.1622 61.5486 0
94.917 55.0823 98.59 2.33568 10.9645 30.2708 87.5389 86.9956 49.9697 40.9969 65.8825 84.3615 38.0854 3.2874 67.3899 48.9981 56.192 42.1457 45.8938 4.50693 7.33913 65.5639 92.8619 42.3529 21.881 2.25727 49.8805 54.3748 96.4194 11.4292 56.9693 91.3364 0
55.5593 93.6721 77.476 85.8301 81.211 64.4716 35.7998 22.2079 30.3541 20.1613 60.2933 33.6415 87.5512 9.29143 89.8334 29.6969 55.1852 94.3404 37.036 20.7491 87.2022 79.3889 42.6301 89.4595 29.2695 97.005 85.8789 40.6986 53.9743 77.2153 7.21009 9.53362 1
84.6861 95.3638 52.0984 49.1577 31.1636 74.3063 79.5117 51.3249 34.5995 13.1532 38.8762 43.891 2.98664 68.5731 99.0762 97.327 5.60908 19.8253 84.5292 84.998 62.4554 73.9887 14.2675 59.4604 59.8677 54.9661 13.4347 37.083 62.1762 22.9683 7.97045 46.8623 2
60.0688 96.02 49.4957 34.3751 75.5317 0.820593 68.9746 88.6849 39.6968 12.8656 91.6716 8.2698 11.9418 88.9986 13.8789 31.7672 73.5278 98.8769 94.2226 47.5166 13.1444 53.683 7.38426 68.1105 67.1177 44.4673 30.2867 90.086 52.4377 77.149 8.41811 12.5066 4
57.9138 46.8816 48.7007 58.7344 15.8563 37.3856 98.4311 28.7219 29.0572 6.70093 40.6637 18.0557 20.5798 72.4308 91.5835 19.4567 66.6535 39.1001 32.6011 20.3364 46.4844 0.711542 87.4542 90.9517 30.9982 77.5402 43.3894 8.14723 85.9583 55.896 81.3162 43.8721 4
30.0169 2.60647 18.6339 67.4025 1.0376 47.3558 96.4596 7.73853 88.0195 14.5153 28.3183 60.4503 6.09889 47.775 27.1038 45.199 80.3761 47.4402 91.6834 81.0876 34.8944 82.635 12.0859 12.4345 26.0244 20.2331 98.3928 81.9204 1.5493 42.2649 84.698 31.5662 1
3.33189 98.9686 45.909 50.6876 95.4283 53.6475 38.7071 9.94361 81.9658 99.1574 16.0425 29.7409 26.2612 61.2415 10.1169 73.7014 52.9249 91.2046 8.59572 35.5599 3.29042 21.0303 61.5843 23.5235 19.4231 43.5047 25.0728 61.688 28.2027 56.639 6.55935 31.5346 0
52.4683 82.2222 51.0359 6.11581 20.9293 60.9795 88.0816 20.0867 77.022 17.8225 46.3479 38.2635 27.9394 20.0493 91.1884 19.144 28.645 26.7482 22.4344 49.6753 88.3326 45.9579 69.0983 31.8373 71.0307 30.7863 60.0399 27.6697 37.3457 91.5745 83.2773 89.814 3
34.3132 95.9298 94.7261 95.2928 84.0114 14.8129 72.3148 1.83393 61.1608 10.5783 29.7734 81.2101 1.76664 48.9173 9.85507 28.5149 71.3517 59.5303 16.8474 17.3097 28.6287 48.6847 88.3404 59.415 8.72464 16.0101 96.7606 0.29918 99.2875 86.5746 74.096 33.6007 3
68.8221 28.8935 66.5158 83.6349 1.20822 68.3497 44.7957 11.7865 98.1231 26.0058 13.5531 47.0404 35.8608 42.068 18.3922 95.3912 58.9155 35.7018 24.0198 7.60015 24.0422 83.4348 16.3248 40.0524 80.1954 16.624 39.3398 66.77 90.7199 72.9405 49.2743 59.542 1
15.7901 43.1769 3.0422 84.1399 87.9726 14.8287 82.2629 13.9784 28.3818 29.3033 49.8392 70.4498 47.6955 45.2303 29.3653 83.3974 69.2502 36.9654 7.43959 52.6849 53.2902 47.4919 32.8803 69.9142 86.8318 99.6503 60.6341 59.7723 48.9246 20.1761 61.6063 64.7148 1
64.6485 48.8546 51.3256 79.4771 31.1175 65.304 7.85897 60.4209 15.1432 78.3088 8.11641 60.3735 7.67412 91.5138 29.6237 44.6396 98.9534 82.3086 97.9298 46.4453 15.1889 67.844 33.2771 14.8392 28.4781 93.0494 63.7638 48.6542 54.6556 28.4786 12.0072 19.3041 1
63.3328 98.7812 8.45078 28.6368 6.64019 68.8717 43.7799 84.949 76.9881 4.15344 92.6231 68.5019 33.7771 37.2627 67.4552 16.0857 35.1925 13.9005 31.2746 3.0365 47.1776 46.1138 31.5146 40.227 9.87762 80.1688 94.8826 38.3562 92.1761 14.1866 15.6895 55.5089 0
24.1402 84.1457 19.608 93.0119 27.9256 4.55704 70 32.0791 97.1802 38.5019 65.8561 34.4429 5.95711 81.9418 69.6354 19.8576 13.2164 72.6719 67.0353 59.3302 4.18647 7.26222 69.2078 84.3553 2.14479 7.56402 76.5314 16.3314 23.2535 32.0403 29.2993 47.3937 4
48.9073 40.4057 44.1116 53.4643 10.4057 76.1906 50.6445 48.9076 42.0468 85.0874 54.8647 23.9886 54.7227 74.7223 37.205 27.3946 41.7576 96.5352 31.581 49.0198 65.743 15.9363 51.1646 73.307 92.4677 67.496 96.5605 24.508 96.7953 43.9542 40.694 45.7026 0
84.8055 99.1669 94.7655 60.9961 49.8114 43.6731 3.04291 34.8988 98.5378 27.0315 89.6215 73.2601 64.2365 17.016 15.0176 60.7716 48.5971 64.0374 26.5146 64.5334 15.202 99.8216 57.0011 82.698 96.3821 81.5091 79.4932 40.3363 22.2031 25.1958 24.6961 7.0086 0
19.4617 68.0047 74.1741 63.1347 71.0477 9.07289 61.6725 98.0791 98.6944 34.9326 62.3156 15.7104 49.9502 23.0873 64.3075 13.9876 49.6019 28.8409 29.1896 49.4235 85.842 11.8876 45.8055 67.3511 91.3808 86.1418 89.5542 16.5766 10.8379 96.5628 40.9393 30.2996 3
15.1134 93.4343 35.6152 24.1863 55.1068 33.6944 22.8807 90.0394 96.01 38.5911 39.9896 19.0973 2.89853 53.9772 68.6992 31.7394 83.1668 18.1226 17.5814 95.0543 63.9282 84.9325 86.4351 50.07 74.4867 3.01171 60.9079 71.0496 43.951 91.2075 35.6171 59.0644 1
71.2323 83.2507 39.7487 4.92671 6.1314 29.7881 0.936702 44.7225 69.7776 20.034 47.621 23.7548 88.7331 79.3604 6.92161 6.85578 96.9418 1.97594 70.784 81.8743 88.4111 20.8539 56.3611 91.4228 81.7619 27.4106 35.3738 72.9694 63.0278 94.4382 57.6112 34.2601 1
97.3599 39.1868 83.8203 27.148 40.1235 28.5428 96.9256 60.1575 76.1638 20.6804 48.8906 55.5242 27.6021 55.7464 52.466 29.578 26.5304 34.3403 17.9891 47.3843 90.7014 9.41184 29.1462 18.112 44.7856 2.11557 81.1398 39.2238 59.7268 15.3999 16.9128 57.0867 1
0.733131 84.2347 94.7102 29.2759 81.1603 54.8677 5.43974 1.84073 3.75834 60.9639 29.4428 59.5048 13.4299 59.0208 86.0351 47.7702 77.0098 33.4194 38.4716 86.4217 62.5656 56.5836 31.2073 64.6812 37.7233 70.4312 24.408 53.1232 87.344 81.4947 7.70989 88.0771 4
2.42011 17.353 46.8897 57.2878 22.7928 48.7304 61.0462 83.7567 78.1732 20.5509 97.1866 37.194 6.58605 44.9568 14.2038 40.0055 83.4283 0.625491 2.57113 40.0119 31.8328 67.2523 77.7352 2.26398 91.6603 30.8584 89.6079 73.1551 38.5683 77.685 38.8844 40.9884 0
85.7741 98.2762 17.8308 34.5045 59.3224 1.5875 12.6777 79.8733 98.7741 49.8716 86.4594 43.7309 64.0754 26.4649 27.1592 64.7009 29.036 67.1711 96.5337 96.2883 44.9063 98.7977 87.9487 75.7647 88.4056 61.1037 14.333 66.0907 99.9882 55.3214 61.1287 85.7623 2
78.9595 20.2668 12.92 80.547 32.9445 92.7933 79.3211 82.8161 79.2527 23.052 46.8915 5.71755 50.2112 11.5924 34.7535 17.3822 8.12615 31.0419 62.2885 6.92386 18.9905 38.0532 95.3295 80.0943 52.3862 61.4202 80.0825 7.70765 22.5489 65.8447 61.3053 1.50841 1
74.2253 82.0554 19.056 67.0187 61.3765 1.8721 46.2714 84.4285 48.7636 51.9889 34.6397 60.356 86.7424 52.0219 68.4822 17.7843 14.3105 75.406 36.7748 52.3637 70.7355 16.8691 4.74996 32.1557 96.9516 12.4576 54.7046 62.7963 73.7629 56.213 48.9079 47.9882 2
67.9639 15.0069 99.645 69.836 61.2782 84.0735 18.5996 13.2671 18.7132 78.9556 0.00959258 70.7351 47.4378 17.7939 85.0456 22.8439 54.5687 37.4093 93.5794 71.4378 42.1593 25.7351 68.3894 54.6169 80.4397 31.1857 28.3798 36.6527 80.0935 76.368 74.9212 48.0574 1
74.5661 17.8934 52.6531 58.6397 36.493 65.9203 77.3529 15.4486 65.9299 48.088 62.8864 83.7237 33.1336 85.7302 38.2925 70.543 79.3096 9.7303 12.7022 5.04475 78.1197 67.3191 85.4845 9.30537 95.6989 22.1372 89.3989 72.0669 97.0583 37.4563 63.4418 71.6245 0
16.0949 30.2641 91.8427 82.0152 7.617 7.29125 47.9451 55.705 70.1776 31.6688 88.8386 55.9079 69.9613 59.3816 35.2175 79.6916 72.0838 40.2623 57.8113 39.403 25.7467 67.1166 35.1019 47.8839 56.5155 7.16886 44.9422 93.9719 70.6107 16.5667 49.3216 86.7056 4
41.1642 68.7208 54.4478 48.4555 16.6659 10.1528 18.6331 48.3347 98.9914 74.541 18.296 58.373 9.75853 97.9876 30.4568 50.0208 55.7988 69.8598 75.7675 22.9155 4.9617 23.6514 79.431 12.1306 68.5936 73.4029 82.7412 85.1603 22.7244 69.4469 31.9911 63.8887 3
86.4389 12.3442 54.8336 96.5917 30.9773 3.16829 95.5831 5.51836 21.4643 53.9561 15.2769 19.4518 84.413 65.2977 75.2507 54.2728 41.0652 98.1661 59.2345 64.7166 77.5971 71.365 33.3102 51 54.1063 18.4705 73.7244 23.5531 50.4616 37.6131 61.7208 36.9005 1
16.5544 33.4922 80.9347 19.7227 29.0753 86.453 41.187 83.0315 1.7299 60.6388 67.4445 67.0276 35.8895 21.7172 8.09278 34.0556 80.9517 72.8094 11.6528 52.3167 6.11956 62.6527 6.42298 24.59 36.3772 29.9761 75.0516 73.9903 91.697 11.9521 23.9476 8.25139 3
4.88227 27.9741 74.5196 91.3353 69.1611 57.5511 93.0652 29.8 24.9956 60.0928 65.6895 46.7128 68.1856 99.7451 27.6645 40.9949 11.3979 79.9812 47.1145 74.0506 86.4042 71.7045 10.4278 16.3803 46.7561 84.4181 8.07726 58.7082 8.3657 16.3287 4.15253 13.248 4
78.6722 4.58325 13.4639 36.2233 97.6484 43.2639 61.2189 57.7412 8.95334 7.93173 25.9268 8.69846 35.5962 66.9217 20.0963 15.5774 14.0362 94.1469 1.98163 85.7407 4.57474 18.3619 32.4969 88.9928 26.4392 91.2051 97.3585 42.7678 95.3576 10.6065 87.0706 74.0298 2
0.534513 10.2531 12.8382 43.7984 71.472 70.5794 52.7517 79.4038 96.5061 61.4502 15 63.4279 81.5465 30.5774 77.464 75.6935 32.5591 63.2048 80.2682 50.921 95.7016 69.261 77.3602 86.9067 66.6196 20.128 82.2644 77.226 7.19866 56.2942 92.4158 7.73317 4
5.25395 51.5315 38.0193 75.8333 4.28326 17.4231 72.3395 65.7334 32.423 35.7673 47.28 63.0005 13.2314 22.9734 95.5595 76.4361 3.24162 46.4805 72.1378 72.5027 23.8407 59.0445 39.1222 43.9687 41.3088 16.3482 51.1674 97.603 8.76403 58.9006 64.1503 14.018 3
2.16958 89.8513 14.7154 19.5926 62.1908 80.4488 52.0157 97.9581 27.7288 15.0161 11.1895 50.7022 10.5757 87.6257 53.9438 57.0562 59.7634 26.4465 80.8969 18.8079 65.5687 24.8656 60.1168 81.9169 76.033 57.7198 90.681 34.9336 21.87 4.69893 45.3657 24.0396 3
60.081 43.6322 56.741 40.5299 95.6479 54.6992 68.2586 10.6641 65.8887 18.9608 21.2397 53.5143 72.9046 78.2959 13.2778 99.3511 59.1928 32.0857 64.9198 84.0584 92.2024 46.8367 60.0914 49.9222 37.5176 95.025 71.7922 42.2166 40.3906 95.8318 36.7668 0.471673 3
93.5078 41.0015 35.112 48.207 9.26016 45.7761 14.0957 28.221 67.0158 67.61 1.12559 45.3117 80.8878 0.476682 4.50446 12.9734 65.3964 88.5629 5.17588 12.2331 48.6542 55.0981 49.7508 43.6792 26.8903 91.9673 84.0698 22.7221 28.7341 84.5415 62.1862 22.242 3
97.2982 70.449 34.8032 43.0742 84.5447 63.0242 10.09 52.1547 64.1498 55.4017 33.0425 64.6264 59.9061 46.0159 30.0229 48.469 51.1918 42.256 97.1232 6.28987 92.0068 40.8024 33.1802 83.9741 24.8723 55.9023 12.7082 9.41378 18.0884 34.9502 34.9568 15.3866 3
69.76 58.4608 89.9438 32.7842 68.5508 42.0985 96.9339 23.9525 75.141 61.5604 83.8586 21.1569 91.5832 32.3276 72.3487 33.8392 29.4509 78.6386 25.846 70.2533 11.8187 9.8201 95.1256 67.721 22.5283 4.53939 85.8094 57.4785 39.4962 1.19603 62.8776 9.25621 4
52.8215 42.0404 28.2077 94.92 38.9743 52.1602 70.061 0.534668 36.0188 91.2178 92.1179 68.3465 63.5665 25.9572 97.7973 42.2051 51.8032 68.0507 54.0238 61.6233 63.1763 21.7448 84.1516 67.7157 7.55421 41.6301 7.21186 8.75024 4.50774 16.4681 68.4071 57.3292 0
96.6148 52.2492 97.4827 48.7749 22.3101 98.0174 84.7937 13.528 90.1353 53.1402 77.0945 16.0925 50.9375 19.2996 67.8957 18.9882 73.3235 29.519 82.1645 95.0683 13.6705 49.8801 2.62246 55.3006 57.092 11.3727 59.8084 73.56 79.7798 17.1376 32.0685 76.3945 4
29.5512 25.1694 91.6969 27.5686 9.96317 5.22491 17.704 63.1033 82.3195 33.7965 14.0409 1.61909 1.69212 33.029 74.9426 31.2111 15.1935 70.0108 44.8816 65.0736 72.6333 0.182262 22.1655 84.006 59.9906 95.7256 63.7857 77.1282 27.794 40.1803 46.515 57.3452 1
38.2119 84.9139 75.3129 43.4368 2.61783 38.4162 25.7563 36.4143 52.4571 27.3754 38.1064 85.4861 2.31791 69.3175 0.679615 72.3287 14.1991 65.7532 44.962 14.3814 87.9187 28.9679 74.372 83.6443 92.7537 51.5002 11.4383 32.934 98.0152 68.7836 98.2837 36.2271 3
73.5966 79.6639 56.3153 12.0128 5.42018 92.7296 64.4699 32.7955 30.836 49.956 35.1134 0.153429 50.6357 7.44216 14.3525 16.3888 52.4041 28.7339 4.30759 81.3721 3.10588 87.9519 74.1258 54.6061 99.3902 7.0597 52.6213 68.1738 5.34337 88.8484 21.8712 78.9399 2
78.1865 90.9527 73.9325 70.9161 55.4226 6.72805 1.75201 5.37868 41.8415 1.90544 56.0143 49.2837 16.258 72.4032 1.68779 44.9919 76.7108 83.0599 48.0977 64.6627 57.1856 2.70384 64.0529 64.2453 55.3251 32.2267 69.5887 44.1736 54.0979 48.5286 12.6859 32.2844 0
86.6184 3.20044 94.904 93.3465 4.95245 0.282683 35.188 6.85788 56.297 84.4716 23.1158 28.7002 86.1594 68.1077 5.41096 69.2193 16.2054 70.0736 26.4049 18.9093 34.1265 90.6502 74.2344 66.3531 60.2389 18.408 20.451 8.76752 31.0939 52.7354 48.2489 17.7123 2
43.1529 11.0587 60.8883 43.4356 46.2467 67.7462 99.7326 30.7183 90.862 28.4328 16.8777 58.9697 33.8437 86.097 75.1751 3.91736 12.5019 94.0844 38.0438 3.15208 68.3188 4.39698 63.391 86.7268 24.848 72.1585 17.8207 77.5834 20.4074 35.5329 33.5192 63.5603 0
94.4075 6.99586 92.8384 62.1537 6.72846 23.5567 53.0157 35.1612 40.4345 11.9854 69.005 26.5315 87.1606 72.9224 39.0333 81.245 10.9662 42.1854 49.5638 15.3632 5.5764 36.2906 40.2112 77.7349 54.1112 17.7946 98.1423 89.6442 51.3138 61.7026 36.2359 45.7213 1
29.0743 7.875 75.4269 52.631 60.8907 10.5881 93.0655 72.8761 79.5931 19.5969 60.0366 52.5155 58.6303 41.2816 63.4817 0.815709 90.8454 78.8449 6.39211 27.136 19.056 84.127 81.2472 36.8506 82.2693 70.8914 88.1644 43.9719 7.1273 33.8857 12.6703 36.2016 4
88.0972 88.8326 2.65143 98.6853 81.8981 75.5275 78.2785 1.49504 35.5642 30.794 60.1253 76.8458 94.2757 60.941 67.6912 73.1205 67.3331 94.8271 92.1766 51.4601 76.0744 29.0272 33.7294 46.9658 17.1916 77.7013 54.0931 51.0774 90.3716 90.2947 92.8381 78.4688 4
95.4895 77.1542 61.0254 71.0171 55.4326 62.5204 6.58124 86.2266 22.6458 83.427 80.5023 83.5868 51.1182 53.6228 50.9199 45.9453 45.7994 2.3801 22.0197 74.8266 36.1095 68.9855 92.0183 13.8108 23.0786 43.0956 4.18246 13.3733 35.9338 82.6513 92.5006 31.4233 4
53.526 2.44039 15.2381 16.0465 9.02163 1.46472 38.6922 92.4486 81.967 22.279 43.5668 35.5898 73.199 89.5121 81.3893 75.5791 11.5319 56.2159 11.6886 80.5174 48.2341 25.4995 3.59598 91.3298 29.6819 16.9693 27.2636 12.3332 9.46989 58.6869 72.1387 62.9959 2
87.3767 79.0424 70.1489 88.8415 17.7346 62.5975 70.8085 40.0136 6.16435 6.3983 13.2126 95.6765 87.7876 88.7917 7.20835 44.0034 0.480277 87.7257 92.2376 25.9797 91.3217 83.5674 55.6617 8.29097 10.8309 67.9949 17.7609 69.5178 40.1335 80.7568 30.6451 27.5103 1
0.793982 16.3517 77.5337 63.3915 87.1602 17.5473 69.5559 93.5585 30.7599 65.2324 81.3461 19.5515 72.4407 25.3495 20.0318 60.1664 17.5871 46.0116 51.4881 1.15442 1.67322 59.7791 11.9853 69.6681 77.5399 81.5032 9.80163 58.2967 12.1482 37.3119 18.0958 12.9422 3
95.6295 76.3337 40.8239 13.1768 45.8896 34.3824 43.9367 11.122 15.7284 63.4882 83.5627 41.0779 83.52 43.7291 58.665 29.5316 95.2172 59.8194 31.2048 54.9963 71.8047 0.872893 32.5362 53.3079 10.6745 90.8329 65.4561 47.9864 8.92876 78.3983 1.65009 4.55827 1
42.4739 17.7351 0.621688 76.8563 61.6718 11.7437 92.5847 25.16 95.3063 33.6626 8.67997 39.0354 92.3276 38.2115 34.2527 52.147 69.4163 89.2489 23.9517 70.2892 21.7852 77.2596 80.9637 12.6181 42.7157 28.9502 21.5469 21.1141 30.6003 26.1052 75.8462 73.0742 0
76.4678 49.9305 5.51198 88.2115 42.5153 30.6719 83.5178 76.1779 39.3519 22.5533 68.5055 77.5635 56.8059 20.6525 46.9798 46.0549 44.6042 17.269 67.8401 21.8638 98.2328 80.4582 64.5795 27.1829 2.00506 85.6936 57.7832 28.1102 61.5398 30.8575 71.9504 38.0076 3
77.4624 26.2191 23.3033 8.13435 9.73694 99.4812 47.4863 32.2902 67.9867 25.0497 89.0962 88.6392 72.0295 35.151 33.2435 89.2985 2.9911 55.1073 87.5313 83.4493 19.6868 14.7142 85.4543 5.38044 72.4974 13.5645 66.9202 3.35491 85.515 4.92781 84.1429 62.9774 0
7.44623 71.1118 40.8838 6.92745 18.598 73.1741 74.9142 43.6477 62.2702 63.5534 15.6772 97.4212 96.7969 4.97575 0.412339 51.9042 92.507 83.8616 71.591 7.22122 69.316 76.9714 79.7187 82.8805 43.8916 83.0736 68.3955 48.8194 67.2165 31.3729 79.9664 74.6627 4
20.8502 81.5902 21.0827 94.0243 56.5044 64.7304 56.2945 20.0578 80.4077 53.7157 16.8547 85.3834 54.128 68.7589 77.8904 37.9897 40.3499 85.1116 7.30562 17.3213 64.8303 90.1861 61.213 47.9039 58.5816 10.0324 15.1204 89.9545 89.9988 89.7831 92.4392 10.849 3
13.5218 4.87321 27.8776 78.2523 61.1677 47.9354 58.6599 14.8834 64.7901 44.0433 69.0114 33.549 21.9337 7.0011 73.8988 7.04537 14.3067 91.2202 71.8757 4.49284 52.4331 19.7795 63.0745 62.4655 34.8999 53.029 52.4643 24.683 45.4681 63.3132 96.0562 58.99 4
23.9338 37.2422 29.3541 71.8692 95.9021 44.2375 36.6593 39.9454 13.2489 70.2083 61.8792 20.25 44.1071 68.9245 34.5567 35.3272 40.8002 39.0496 87.7604 60.5797 2.12405 50.2259 95.4796 55.153 2.69013 20.1626 0.621136 66.0033 16.2188 59.6111 34.1898 40.1526 4
63.5439 12.0218 92.7554 7.78139 48.6811 32.7008 21.0303 18.8894 94.58 41.2803 62.9965 63.5046 75.8371 98.3237 4.30477 14.8867 86.0841 64.8845 17.0107 36.3099 60.3641 72.1637 39.0001 80.5267 72.7849 5.00341 96.7455 32.396 39.1932 36.8982 29.2493 2.73709 2
22.0047 10.5185 97.6011 54.7055 31.5488 16.4905 49.2855 72.8291 79.4869 12.7901 48.6662 77.8107 17.0949 63.5529 63.8947 81.9794 80.5636 0.204659 42.3435 52.7274 39.2047 22.8703 25.5122 44.2081 19.6158 57.9082 83.4013 56.514 87.1575 86.1384 5.43394 9.16215 1
3.03503 63.8677 28.2057 19.5255 13.1532 1.03481 99.0125 25.9433 49.701 76.8231 43.0382 13.2539 40.7178 25.0176 93.8176 40.9225 67.3611 46.5449 80.1272 90.2314 72.0572 24.3353 9.84722 29.9654 7.73666 66.3612 17.1229 93.8751 71.7951 26.285 90.5319 74.8301 1
18.7376 94.3557 3.30593 19.7724 93.3681 29.2493 69.4735 70.1912 72.2875 82.7274 10.9091 97.3051 76.545 51.8316 64.6663 23.0899 31.9588 54.8977 95.1471 56.2941 64.7449 25.1125 64.0308 31.1061 42.2354 57.9059 2.90118 68.5204 48.4378 77.7313 58.6731 67.1754 3
61.979 86.9478 65.4551 91.2283 56.4213 35.6463 63.5158 39.1487 46.5554 60.8209 15.6937 98.3869 25.4871 38.7836 30.3457 80.3848 33.9307 86.6399 45.1297 59.0432 50.6707 76.2358 1.27853 8.57654 79.1369 69.7989 57.0144 56.8683 28.472 24.1898 28.9553 90.451 4
94.4103 81.6793 67.5589 30.0566 45.1951 6.70763 76.612 6.01594 22.4013 74.9989 31.5031 61.1849 5.34468 11.8879 95.1156 91.9846 57.0176 54.1587 42.6552 33.2533 55.4373 51.2318 12.3903 25.2362 8.24612 69.2585 53.7082 32.4359 98.2138 44.1592 43.5735 92.6241 3
11.1325 22.6808 71.0335 17.8401 99.2928 77.0494 40.2414 74.2917 8.55251 1.42628 79.6364 20.4404 96.5418 71.621 77.458 50.7006 14.2762 10.7113 6.13784 65.508 23.1015 31.374 73.7541 92.3601 85.0822 6.18997 90.5738 29.2413 49.7635 83.198 55.0798 60.896 4
26.1133 78.7361 5.1715 3.16273 18.9774 79.4632 11.7152 20.4037 59.0996 32.1556 16.9456 30.7206 9.61359 67.6461 44.9968 20.3249 73.784 10.5048 43.4264 5.158 84.2588 35.7864 90.2402 90.4488 26.3603 19.4815 40.2123 9.55824 74.5613 1.10825 15.437 0.674624 3
20.6085 3.83736 98.8218 0.0717015 15.5526 19.2255 59.1713 47.7082 36.171 89.892 57.3218 3.81719 34.8888 77.6467 77.6012 45.3935 21.0731 82.7592 29.6523 56.8595 72.9994 20.1011 83.2198 92.4809 60.3134 92.778 67.0422 61.4217 8.215 67.7169 41.266 28.8235 3
40.0877 28.8952 87.1068 59.3132 88.0665 34.8151 95.4843 77.9585 92.1369 99.3015 12.8472 69.7836 76.9026 58.2408 90.8566 59.6618 87.8931 47.7161 32.6612 7.99422 30.9359 25.1421 68.3076 23.7139 92.1843 29.7293 31.9289 59.9012 70.9953 60.7524 31.4554 11.083 1
18.5622 70.3963 77.7141 53.3772 65.8805 55.6726 45.5141 65.182 68.5198 15.2977 42.0846 26.7606 6.15429 1.74645 14.6537 53.8704 34.4076 22.6479 84.8063 59.5497 90.9555 8.52028 51.734 20.6848 40.4492 11.6351 91.6801 1.20164 43.0905 2.76319 90.8492 61.6527 0
68.5633 15.0299 39.04 24.2359 60.544 4.22201 92.7557 75.8417 46.3066 19.5163 81.996 48.0531 34.17 35.8664 82.4607 56.8179 20.6728 42.0104 47.7734 29.193 93.7444 68.4582 69.6423 5.37953 60.1384 70.8439 48.4701 62.9016 61.6931 10.1228 36.061 30.2565 4
75.101 54.4924 85.6967 79.323 47.2481 61.5385 25.6297 66.7645 43.5345 73.6828 0.93446 79.4009 56.1435 57.7523 0.0736497 98.1539 5.52574 29.2667 91.8983 73.984 98.9089 97.2778 34.1224 69.7528 45.7479 97.024 31.446 55.8706 33.085 61.7024 81.0233 8.18605 2
66.72 87.5091 63.443 28.2585 13.1388 30.2075 71.793 86.8216 31.1419 51.1939 42.9651 88.8943 51.2675 41.119 94.42 80.5342 33.0172 68.404 79.4432 30.295 2.52636 49.196 76.0429 99.5503 80.642 31.9135 32.6353 42.3444 12.9368 40.8214 58.5393 79.6569 3
21.9822 7.91537 41.4693 52.1897 79.7084 28.2909 83.3316 30.9022 71.2559 72.2259 82.1698 12.3749 66.6459 62.704 45.3921 35.0499 42.1471 75.6872 37.5762 91.3431 51.73 37.1265 71.9851 83.6436 69.7619 14.3295 96.5804 10.5833 72.8688 76.2372 38.9138 94.851 2
80.3831 47.0407 63.861 8.67394 30.3723 94.7632 79.9299 2.5982 76.933 92.3048 69.2441 39.637 37.6969 4.29393 81.7841 13.3841 41.8701 73.1273 65.1141 78.9967 45.1124 48.7577 48.7586 59.4419 45.338 59.3419 32.3106 21.5753 98.2556 27.1616 5.72787 78.6387 1
69.5888 87.3126 4.57468 64.3521 67.2425 7.17288 41.285 59.5473 76.417 80.922 97.2442 80.7109 62.7061 10.6283 22.581 35.8334 75.7424 1.57771 80.9458 24.5 50.3363 40.3876 69.8381 9.67814 72.6983 91.4133 7.93378 99.8599 97.1412 86.5725 74.0623 66.73 3
78.6369 31.0821 41.1276 85.8098 72.3671 0.674947 62.2268 53.2891 97.9192 42.9377 15.9953 8.5474 65.5187 51.8287 84.2898 67.0964 32.7744 8.7898 17.4327 73.1621 78.6279 27.1108 45.8603 70.0412 35.0446 45.7203 67.1824 21.6171 19.7825 33.9124 95.5022 98.4195 3
36.6299 84.2293 37.3616 37.3048 46.4561 90.6507 35.2239 89.3937 6.64596 43.7714 54.9124 58.4746 28.0611 22.0088 91.2491 36.8509 39.4415 64.4111 15.4788 66.5523 10.2715 85.52 1.59692 55.9917 52.7023 23.214 75.7742 86.6147 18.7162 74.1937 51.6092 55.3461 0
88.9708 92.6509 4.87903 79.6215 27.8748 94.2727 86.2675 71.6462 49.1851 44.7421 99.7073 71.1939 35.9911 36.5582 10.6354 0.402273 52.037 77.1877 10.6737 37.557 78.7847 66.6655 90.2593 1.99866 42.4397 76.8741 20.7149 16.6334 28.4833 76.061 75.0564 17.4541 4
79.9354 97.0756 96.5866 74.2082 83.343 68.2328 23.3933 28.0851 67.9401 94.5872 64.0763 4.49836 5.22266 64.4785 56.5354 82.4104 75.1523 94.0923 61.195 41.8178 84.3516 63.1937 84.2575 61.2257 83.9086 0.89088 89.709 59.9695 75.9473 7.16305 28.6813 55.8827 0
25.268 30.0909 87.5817 93.5008 53.4842 15.6668 61.441 48.0714 79.743 65.9393 53.2941 44.2216 22.4747 35.7045 19.3739 16.567 96.8995 61.1916 0.918679 60.0932 45.4491 62.1444 44.0018 46.34 51.8534 3.97126 22.2872 59.0164 32.6526 78.1699 63.255 57.9206 0
50.8367 51.4214 61.745 66.5035 12.8624 9.81642 46.2465 78.8017 63.1105 90.4681 1.27638 98.815 9.842 17.8434 95.7145 71.0336 18.7621 55.8077 16.4827 80.9065 99.8094 62.8227 32.7598 3.78068 85.1099 91.7762 36.4333 63.2799 55.0313 94.3539 71.5407 5.86797 0
33.2857 72.3714 58.6376 43.1021 18.618 37.4393 6.21262 9.08609 38.7157 5.02759 18.9281 56.5591 0.742061 89.9617 75.3212 56.5497 6.44444 56.2277 56.3591 69.2671 88.9875 60.1398 54.3771 80.7637 96.5731 17.6569 35.795 90.9269 89.1976 41.663 36.7022 22.4833 1
95.3399 65.5855 32.6524 32.7792 71.7981 41.7385 71.4949 76.8257 60.6666 28.054 77.5677 50.6283 3.3752 34.1175 57.0727 59.6029 90.4766 26.3399 48.5904 50.6164 80.7169 29.3541 47.1895 98.3739 65.1491 38.1164 87.5715 6.81206 74.8187 10.0549 20.8465 70.1585 2
53.4989 2.93772 47.4384 95.2374 74.4326 24.2641 55.9039 2.48661 1.83184 6.53224 5.86181 35.9493 63.605 65.4647 26.4259 89.9448 14.055 77.0423 70.6618 43.4091 24.2318 69.0356 8.55819 62.3482 56.6072 15.3703 37.1669 66.662 36.2167 7.32544 42.3024 89.7156 4
89.7408 84.953 84.6958 14.0049 40.8569 87.1824 15.8368 47.3892 93.0442 51.7861 10.9941 58.5089 78.212 0.938953 72.5639 55.2543 71.6007 15.973 79.486 40.6363 24.5312 41.8343 97.2435 39.9014 79.0012 63.9055 76.1182 86.3266 6.20791 65.8338 96.5898 95.9487 1
81.2856 9.95362 91.6437 68.468 25.7904 39.0328 61.5122 77.5764 50.027 20.021 55.7884 50.9659 92.5849 11.0426 22.5666 8.5579 90.5287 63.203 33.0891 32.363 60.4465 72.9905 11.3642 24.352 49.1087 97.6908 30.5599 14.9425 94.2806 26.5086 65.7293 75.5662 0
57.3729 44.0341 62.2526 96.4058 5.54627 39.8291 46.4328 25.5673 95.6174 97.3987 18.1522 6.66008 19.9653 26.7101 97.1888 83.1683 59.7992 29.5517 43.6148 32.7897 40.9159 67.9668 81.8984 38.6067 98.5267 96.8409 32.8873 25.0353 62.5701 8.45345 61.4976 19.9431 4
23.7502 16.3489 58.0338 63.5793 62.7816 83.6011 59.1967 60.1803 1.75333 65.8568 80.1456 28.4634 63.0456 63.3139 88.2626 92.5973 6.92867 21.0523 33.5132 74.8954 2.95066 72.1199 73.4221 99.7915 5.00721 98.4575 62.3616 13.4607 59.9551 82.3047 65.9482 83.7053 1
23.9821 47.2846 61.4352 7.5832 6.48129 21.6155 9.33653 72.3381 1.76112 37.7999 35.3837 65.075 26.0625 27.981 72.0037 47.1148 61.4942 46.8991 50.0655 33.6141 20.3213 49.857 38.6213 18.7788 12.2186 52.082 78.7338 94.5233 18.0302 62.4391 93.1769 42.0123 1
54.6121 49.5955 16.205 76.2276 58.932 88.5431 77.9887 96.732 23.9268 43.0637 22.7945 51.9078 15.0674 69.9093 13.402 61.9666 19.9748 47.0161 82.2879 69.8318 85.6374 1.06665 82.0504 37.7194 79.8005 76.5738 55.7497 42.2396 69.7507 97.762 51.9633 24.3628 1
68.1683 0.590394 6.28949 56.7114 78.5791 3.02146 80.6381 21.6429 25.816 32.5459 36.7103 95.7253 45.9479 98.6769 15.7001 92.964 80.9648 85.5319 78.6014 82.0314 67.5824 16.3208 61.8319 44.1562 72.0705 4.07153 13.9068 69.8325 56.0348 38.2696 17.1899 24.2031 2
23.4794 80.9145 17.4391 26.5009 61.5526 39.082 52.3168 94.0985 75.7923 48.0422 40.0464 74.4692 63.7423 33.0103 55.434 49.2742 11.6117 37.4654 16.8566 27.9326 99.2973 61.0127 0.00305343 3.36885 74.9196 69.8355 59.4037 13.1892 87.0254 83.6068 52.0492 10.5048 4
69.4884 37.0057 26.0739 8.57037 89.3226 20.1725 84.3627 37.3647 60.2189 58.8319 1.10702 93.2292 14.2658 50.3812 4.84094 51.7312 67.2378 32.7735 51.0286 28.2506 32.7766 54.3974 3.17016 2.61206 13.8011 16.3594 89.6375 97.4079 68.4086 0.142333 61.9292 37.897 0
88.0032 46.4674 26.4706 8.17564 30.83 63.8353 68.3945 89.6619 64.9424 61.6237 3.92774 15.3236 66.4647 55.659 82.5614 99.2381 6.68755 10.812 32.0147 61.085 13.9822 34.6268 74.8861 30.3416 24.2643 72.294 98.7502 24.4066 34.2232 36.6472 61.5546 22.2264 4
88.0252 30.402 13.9446 51.8606 98.7965 3.60646 16.8029 60.4202 7.5342 32.1265 26.8849 63.1932 14.688 26.123 69.8807 25.5 58.1377 30.9657 39.4822 92.7645 5.85176 69.8237 17.0287 78.1457 68.5739 41.4353 12.3689 5.22108 2.98994 34.5953 88.3356 91.0152 0
2.28016 42.8757 63.7938 5.88662 59.6787 24.214 13.4208 91.8052 51.0988 76.614 6.49314 77.2218 46.4948 31.9931 35.3596 77.4604 71.4753 28.124 83.3122 41.299 45.1527 61.4579 9.87296 86.5881 73.8268 15.094 89.578 8.4221 3.42964 80.5932 73.4194 5.70981 1
37.2131 11.5964 83.1476 61.4271 25.0173 74.9527 12.5259 1.63127 81.4459 89.7478 48.126 13.439 25.1073 25.5865 84.9143 53.2314 8.89867 26.2133 98.3841 70.3566 36.0863 84.9722 44.1834 51.1803 74.5501 52.6055 54.61 55.1433 26.0249 60.3198 78.6122 63.238 2
61.7598 24.6651 96.9335 36.7125 37.1911 98.5647 18.1584 26.9389 46.6908 31.5974 52.0462 72.2772 16.5117 5.27761 81.1759 42.725 3.66172 51.5325 78.8113 88.6339 95.7159 29.9916 63.184 48.3215 84.6016 18.3273 74.3464 44.9214 96.9395 37.5844 16.8376 58.6993 0
13.7711 95.4118 99.4407 12.3359 13.5701 26.3796 59.0266 45.1675 78.4258 31.3039 61.6792 83.7034 12.4798 4.40415 87.3651 64.0123 83.2155 75.999 59.7282 13.2071 39.183 8.04967 97.8087 57.5104 82.3961 42.7301 54.4499 19.9805 59.5678 13.1492 82.23 73.3389 3
81.6707 85.6748 22.1311 8.05027 44.7014 67.2986 86.4761 76.0053 28.9778 70.1795 88.485 33.3819 57.5446 52.4973 16.5974 33.5436 12.2255 29.8045 72.7266 20.2751 27.6132 30.2369 2.67119 70.3433 84.6868 22.6517 29.9111 97.836 4.88172 3.25006 6.39696 86.5524 4
28.5281 94.6027 33.6263 95.8267 81.0788 9.63152 24.8045 51.2582 98.1166 58.1864 8.80278 50.6138 74.7838 42.3464 62.8393 4.58824 15.0729 83.1144 32.2014 45.3099 85.7856 2.54479 29.9967 8.43731 32.4559 27.8327 13.319 35.706 34.2297 99.8715 24.6308 62.7577 2
58.2571 58.5844 75.5529 67.8886 83.3889 26.8111 66.0051 41.5753 35.6139 16.619 16.359 77.9603 79.4583 20.9473 93.0332 62.5727 53.1487 38.3431 48.3584 55.6935 68.3398 56.7957 88.1494 96.1725 70.1147 23.8554 30.4021 69.9862 48.4862 93.1598 64.4603 6.74329 0
40.0133 74.6319 35.1331 66.8244 40.637 76.7084 2.43829 57.256 93.0674 80.3985 36.7143 14.0147 73.4317 99.287 67.1634 11.7748 47.6454 22.8569 80.1146 4.44111 11.0063 76.2871 74.5558 34.8617 6.68917 44.542 83.3479 99.849 9.00237 90.0912 51.5933 49.0156 1
86.7264 15.84 5.36011 63.4347 18.2783 62.6161 56.5021 98.6768 99.3304 70.5168 72.1086 98.6174 37.6801 83.8834 46.2628 60.537 63.998 50.704 71.5432 40.2851 25.2598 6.40492 46.9742 69.8018 89.7528 46.8232 78.8042 79.844 98.4165 27.8198 44.5671 85.1428 3
49.9272 48.5776 61.9381 12.5433 5.07966 60.615 11.8737 75.5964 32.7236 10.4911 13.2765 16.607 56.754 73.8135 80.605 7.45794 45.3567 20.8901 32.7177 51.7617 67.8643 2.51956 41.5145 14.6875 81.3238 21.3585 13.104 9.14359 65.9256 98.2468 52.8034 15.8528 4
14.7416 28.3961 51.904 75.3566 40.2698 27.5005 8.08013 50.761 40.777 24.6871 7.51496 14.5905 5.29212 14.9729 59.9472 26.1822 47.6906 11.7089 94.0465 50.2102 53.2234 8.73398 31.534 74.5819 21.838 40.6775 40.5075 20.0848 93.481 56.3603 66.9092 8.22253 4
18.8132 83.5791 25.0262 46.3137 91.6592 75.7872 87.0906 16.3463 83.3021 1.68112 21.6384 98.275 61.6283 47.8206 45.9657 73.3372 41.8671 96.1759 26.5606 50.6011 27.7098 1.14245 72.439 68.3874 41.6499 92.5238 61.8684 98.0102 59.433 70.0909 82.7665 78.2462 0
7.79272 24.5599 45.3292 83.5799 11.6505 61.6755 66.882 13.3316 83.3139 65.1571 74.96 31.1346 11.1227 48.2972 73.0017 7.2986 74.8578 23.6028 35.0084 76.0002 96.0418 3.39582 17.6501 88.5656 65.2642 15.6603 47.9986 35.3551 98.4268 26.2448 89.025 6.21954 3
34.3542 89.7994 62.4552 96.0297 56.6815 75.7868 79.3437 21.8385 50.7468 10.4782 32.9612 99.044 83.4799 40.2598 73.9017 7.08267 75.2683 49.902 3.12447 78.6641 67.5521 91.6901 43.9283 83.2124 39.6887 79.2833 81.6392 65.9336 68.3084 87.8588 16.7383 2.6626 1
79.1935 98.6923 34.3397 54.9802 78.036 56.1782 5.72701 88.5142 89.1394 4.77097 71.9941 29.3992 78.6727 79.0768 4.66751 28.5747 82.2013 83.3316 96.1268 73.8914 27.2599 79.3392 13.5801 6.54323 60.9784 79.5137 74.8516 48.8372 96.252 77.5142 26.4954 75.4454 3
60.8351 30.4257 54.2425 17.0132 36.1527 42.7567 6.15264 40.9236 14.7508 35.5519 19.5964 93.8276 40.2194 48.171 76.0289 23.551 44.2978 49.9203 50.8109 23.6371 63.5004 57.3541 84.6155 43.0141 32.2057 33.4527 39.2661 9.71993 59.9481 14.7115 85.9265 20.7832 3
40.1689 37.7964 81.2898 82.9256 43.949 22.2135 97.6764 79.5009 41.8098 91.5041 19.7203 89.9809 67.5329 43.2713 34.2787 17.4532 94.0822 57.9158 80.9536 51.4363 42.5313 23.9677 83.642 75.984 63.2337 93.3619 35.932 77.9452 79.2884 56.7152 23.0824 19.4573 0
4.37222 2.38294 38.4607 26.5857 0.0593876 17.9616 68.3956 91.5634 37.6819 58.3765 59.0964 80.9532 92.6552 76.5496 75.0354 50.571 57.5031 26.4717 93.1023 81.4708 10.1137 69.0862 44.7046 3.47559 5.01827 22.6498 82.764 61.7335 45.7322 2.22129 56.2451 50.1044 4
94.7057 76.6901 4.66362 12.6673 45.0857 96.2271 50.3492 3.46211 55.3234 31.3024 96.1173 31.873 6.33781 46.6883 89.3762 32.8095 39.7906 70.847 42.9231 8.87678 15.5515 46.3987 13.895 38.2013 29.1627 75.6285 83.9335 31.384 31.8736 34.0378 35.9882 26.5794 4
40.6518 39.2467 55.8136 36.8789 89.5959 59.2757 92.2023 20.8983 55.393 24.0753 27.2362 2.0813 13.4515 60.0456 41.8719 84.2985 2.96878 50.7486 99.85 49.3675 64.6437 38.0513 78.5302 40.2722 21.9847 9.91422 72.1458 56.0226 45.9024 98.7252 66.7505 86.5543 1
22.5641 23.4332 27.5678 81.8398 15.6355 48.4662 37.2328 39.7109 75.7023 39.3141 53.1624 35.748 81.186 37.4608 38.7167 31.9346 37.3108 88.0843 96.5783 75.3621 66.6145 36.8505 97.3469 76.5287 8.99634 53.3694 22.4311 7.72155 20.1199 8.98543 45.6934 42.684 1
73.2613 24.5238 48.0542 21.7274 61.7566 87.765 97.4298 1.07076 40.9274 33.1777 82.2567 78.3882 71.8945 14.1913 15.6991 59.9787 10.7696 91.0612 26.5932 47.6201 88.408 3.12189 56.6165 41.7775 25.553 64.338 61.8974 34.5385 10.0315 4.58143 66.9571 83.2927 3
15.0113 5.02017 90.8619 2.77629 2.44993 91.9327 43.7037 35.6277 74.1894 22.0919 7.52212 88.3807 37.791 67.5008 99.1504 28.8521 94.094 46.7705 17.2602 97.2159 3.38694 59.0376 22.7689 67.725 20.935 57.3074 77.7564 25.5164 24.2645 61.0491 54.6217 39.2758 4
45.4836 42.052 68.5192 37.4163 85.7557 4.1469 11.6057 7.84765 11.669 99.9864 45.6386 79.1699 99.1368 74.4908 73.2639 45.9073 91.751 70.4798 49.2942 50.7886 93.2487 17.0192 71.7236 50.5561 94.7756 97.24 74.8206 55.8247 51.8618 14.0964 21.8941 97.3454 0
90.4133 34.7617 41.9042 94.5602 46.3674 49.7518 6.22923 46.3539 95.3904 85.3991 45.4906 69.8812 58.6629 91.3979 61.6322 29.1427 40.6921 12.4208 22.3914 57.7113 84.1443 72.9476 52.4869 81.3844 47.7682 8.31165 33.2461 61.8646 30.2057 30.5915 18.013 20.619 0
59.9172 15.1792 11.7206 9.66897 21.4084 58.0745 5.05941 6.80753 3.56511 74.9406 65.4705 94.963 36.5728 94.6132 35.6552 48.9936 17.0046 93.3665 33.138 89.9522 45.8534 14.5223 37.7204 54.1651 47.7685 99.585 84.3708 78.36 17.598 4.98978 43.7132 77.5151 1
55.4338 87.1841 41.5775 13.5083 92.2435 48.385 17.0734 67.1841 13.8555 12.0364 3.75698 8.46865 47.6916 52.7506 25.4733 41.0581 85.8885 15.4255 86.9115 0.410858 53.1459 41.0765 48.1793 52.7308 25.4473 26.5393 70.3288 30.4371 70.2525 47.8439 50.6061 25.6863 2
92.1836 39.1945 27.2715 40.5685 56.2679 94.4556 54.424 68.3043 98.2126 62.8926 15.9959 50.9632 88.3659 57.054 36.8517 3.79141 43.9655 37.2626 56.9373 85.042 85.4419 9.66812 10.4893 11.9812 79.9969 40.9264 82.2337 27.8408 91.5325 7.91993 62.8688 83.7161 3
90.1403 24.2846 3.38236 84.596 78.7086 71.6867 82.8086 41.6013 87.6826 33.7718 29.9672 44.7365 70.6236 33.7586 88.702 7.88614 90.6959 73.744 93.328 0.364013 84.2334 5.30924 80.3609 25.1598 87.5429 8.20178 16.6924 95.4628 71.0706 0.408456 42.5773 61.211 0
45.9596 45.8069 3.40172 17.6463 28.6156 45.003 5.32887 62.3874 74.9702 50.0654 33.0109 8.72878 38.7674 40.897 99.4247 12.5115 34.2251 99.7887 96.7449 39.5343 80.1496 21.9047 27.0772 88.3514 38.597 22.5401 59.422 39.0055 65.1174 20.633 63.6986 11.077 0
67.1003 28.7233 95.0555 12.1033 34.0522 57.4428 87.0734 84.1176 90.4538 95.8022 22.885 31.3508 95.2269 35.3965 65.5759 95.0156 32.1414 5.11024 75.1652 54.046 32.1875 63.5166 92.643 54.7275 22.9386 31.6485 19.8449 43.5716 95.3471 30.9219 10.0115 62.4473 4
5.06702 74.5506 93.6974 62.5099 61.6241 77.815 52.9636 57.4263 0.700006 84.3144 52.6532 36.0965 49.8904 47.6688 68.2379 55.0006 22.834 22.2839 87.1881 86.3506 14.9269 41.9156 9.28924 46.5754 61.7605 52.8608 41.9225 92.6824 62.8724 4.36981 52.3276 67.9394 4
46.0249 30.4493 40.5445 23.8399 83.4129 97.9708 24.5399 67.7273 50.624 60.6364 17.6177 98.2928 28.8743 72.6183 21.1268 51.1582 59.8063 7.47742 66.0851 1.72193 16.7667 12.6605 63.4824 69.6275 54.583 56.1648 32.4999 58.9528 8.49237 0.439284 37.8732 54.5173 1
78.4177 78.3572 14.3014 76.3885 2.89713 82.0288 27.0125 63.5336 99.6465 25.3053 92.4079 72.2647 46.4321 43.566 32.0711 53.9095 9.65112 33.793 70.6762 22.3116 97.2754 40.3037 76.8946 53.4402 72.8036 35.8473 61.9326 73.2429 73.7206 16.4499 4.13144 52.1383 0
18.4329 28.5268 97.7042 0.461652 55.5393 61.2378 0.108118 80.8446 53.6457 72.3729 27.2767 97.2117 4.44394 81.1862 6.86281 38.2369 51.8624 29.1744 35.5124 92.1661 6.06899 88.9526 64.9697 41.9163 50.8852 38.2126 15.6369 67.3351 42.3441 67.7751 62.1422 60.7769 3
59.8465 61.2386 51.8411 21.0843 61.3467 32.6857 74.7299 33.7196 59.9624 71.9416 38.1635 41.1486 78.8044 76.4005 93.011 7.97885 11.9128 85.1772 14.0478 0.865456 50.1469 55.9642 51.7507 88.3596 71.6011 19.0858 30.7036 39.3762 81.228 91.4806 35.6781 41.0744 1
87.5192 62.1587 14.0659 20.205 36.8886 47.7855 80.1674 8.83025 85.949 21.316 87.6347 62.3494 14.327 95.6135 74.2623 99.5042 9.66136 75.1277 49.6511 65.6255 26.8784 38.0107 37.2266 45.9642 68.7143 76.6028 27.1922 60.1949 12.2809 68.2666 12.9141 99.8002 2
26.98 20.0051 67.314 74.7654 0.172503 76.1442 60.7144 21.4885 63.7789 23.0638 35.8155 59.3924 97.3261 35.3197 69.0538 72.4539 84.9708 34.6793 99.3323 22.9815 71.9059 45.2965 91.6958 48.5088 72.4886 51.8907 60.7897 40.7552 64.8048 60.5899 71.1805 91.7848 0
38.4945 66.5502 80.7675 14.6387 27.2646 2.25599 78.4176 50.3284 38.0715 37.81 47.6546 73.3912 6.86378 20.1085 58.362 41.5431 19.4407 81.3435 13.449 64.7372 73.0393 61.9578 37.2258 24.93 22.7475 77.981 89.7348 83.3373 49.1616 81.5195 63.9323 87.6561 3
44.6998 2.29478 75.3343 46.9558 80.7124 25.6627 85.0273 18.5224 73.3173 58.4185 25.3862 93.4258 16.7804 66.9293 12.8665 98.1239 80.3783 77.6037 71.1632 42.3361 14.8295 96.0932 65.0835 92.8105 85.8279 48.4208 41.9721 67.3475 12.3532 29.6282 15.4172 57.053 3
90.7515 4.00887 12.6354 16.4142 89.0362 31.1577 89.7315 47.4547 56.5439 83.1572 64.2351 23.4732 96.0237 62.359 3.85144 73.6274 33.5222 46.1875 88.4569 29.6153 11.271 81.2675 15.4433 59.6919 23.2396 82.7907 72.0451 52.8678 98.2079 29.0981 84.7907 88.9594 1
97.4261 5.37359 22.1431 28.5838 95.1051 69.5978 85.1277 78.2623 33.8329 8.60089 74.286 96.1919 12.4523 47.9134 29.7141 58.6398 36.3704 59.3294 69.9109 17.6378 74.7727 29.6027 40.8774 57.5634 1.64779 93.7452 55.7714 30.7459 78.5359 44.7308 63.8528 75.962 3
85.996 4.54586 45.2094 55.5938 89.6736 23.4717 89.4266 98.2745 97.7578 85.6185 10.7268 45.6712 15.3326 69.3667 82.0416 74.662 39.2775 99.6794 49.4347 68.8803 40.5568 6.9981 70.528 34.302 62.7695 1.27392 12.8379 7.50022 65.1267 88.7999 57.6046 51.1227 0
2.81398 6.71647 83.0194 26.2857 96.1431 81.2939 24.0435 81.7616 92.0207 69.7147 97.0942 61.3873 51.7563 71.7562 0.664837 51.4357 21.1909 69.5451 91.9925 28.189 40.0731 26.2944 90.9585 41.3471 39.1323 98.4587 6.4738 27.9323 56.0633 57.5965 21.278 58.8772 3
4.2974 85.1629 60.4561 85.5912 9.20641 42.2177 77.6119 78.9211 39.312 38.9992 30.6774 11.0682 39.6641 82.113 32.2591 9.20916 74.1055 60.4481 49.2823 0.399935 51.4066 90.6293 39.5323 49.8653 97.1031 67.4645 5.92856 54.6997 88.7426 64.8058 19.0127 93.04 2
79.4688 78.6312 59.1751 21.6865 56.2431 38.0962 60.9985 95.2424 68.7736 72.0667 34.9065 50.8866 4.32583 44.1156 24.9921 64.774 93.3979 25.3921 16.1806 84.0273 64.9243 66.0459 81.1304 32.3889 71.9745 35.8301 21.1314 36.7803 54.8427 14.1714 86.749 34.3115 1
45.9241 55.998 49.0458 84.0204 16.9965 44.2882 52.794 89.0632 79.1946 3.68061 93.389 23.3102 28.6727 58.163 16.7082 54.0648 74.3436 0.735415 18.9891 40.3895 81.8658 51.378 12.3639 17.6959 72.5094 49.1442 72.5386 86.6808 35.8932 6.85011 79.4835 81.8173 4
28.5293 65.8377 79.8445 72.8175 18.6317 68.9077 52.0121 22.3123 62.2967 75.3223 50.985 20.4597 92.0305 5.04977 94.8032 92.7659 24.0389 35.1927 74.6317 75.4169 47.5566 92.3277 47.9263 96.7008 64.8663 34.6071 32.5939 71.7164 14.0906 14.4112 34.5645 42.6199 2
14.409 15.4374 98.8806 83.3167 67.4495 21.1928 45.6134 42.7719 72.1778 66.0731 34.8024 77.2276 60.8764 27.5683 1.26645 96.0691 2.20003 76.6833 43.6257 94.5277 24.6096 40.3265 59.394 59.2167 72.9204 31.1103 73.3073 87.3316 65.6748 15.9272 67.5805 80.0838 1
66.4611 63.4005 98.8142 87.6539 9.01395 41.586 59.8317 75.0871 76.3884 37.0593 35.9634 3.95666 38.3257 32.0325 6.15669 15.009 75.6582 0.684368 39.6186 15.9846 60.0783 98.8353 88.905 91.1887 72.1426 76.2366 56.8635 88.0698 43.8171 36.9473 19.4345 10.2782 0
18.2486 97.932 9.36175 59.8347 57.7637 84.4488 36.223 94.823 20.4122 40.1797 33.1487 52.4447 46.3364 48.1577 28.1029 47.0208 87.7762 44.0875 7.09908 86.6115 32.9925 98.2877 58.7541 9.22907 55.1512 46.8239 53.0462 92.0985 66.2584 63.3243 92.4463 84.507 0
1.80802 44.3417 19.0201 86.2568 80.5647 13.8431 6.66908 20.7444 46.9918 59.1138 67.0808 95.1494 87.2167 14.1016 82.9257 31.3042 21.2006 69.5372 64.2966 19.4884 28.2913 73.5257 74.6396 75.1152 26.5719 66.738 41.3736 89.8962 59.1843 25.8806 51.1526 60.9923 4
70.1727 47.2491 50.787 84.0158 53.9182 71.5315 31.0075 13.032 38.6123 26.157 0.248688 52.7138 9.08265 31.5528 73.9144 78.6198 95.8495 93.4028 6.91111 69.3752 68.0424 82.0263 95.947 34.7804 23.3999 85.8433 93.9647 49.2806 36.9959 54.957 19.5029 7.16857 0
70.2899 91.1844 56.1243 41.8214 22.1919 69.1563 80.4337 48.3489 69.405 33.1475 57.4315 0.957862 7.06193 36.0514 96.8073 0.464739 42.9625 66.1825 68.5071 24.9888 62.1295 3.2875 48.3887 47.9728 97.2522 97.6693 84.9687 52.2091 17.1722 92.1372 54.4153 87.4621 4
10.5396 29.2835 5.51351 79.6959 9.71716 53.8624 49.1009 42.8646 11.2939 50.0588 49.9266 47.3453 46.8661 50.3913 90.3077 13.0486 18.8984 15.2965 75.1782 22.1859 63.6852 23.151 19.4381 61.3545 8.11965 71.6472 78.5266 0.256897 26.0625 65.9887 83.5785 36.6021 4
89.092 16.298 4.98939 42.9544 65.3989 47.854 54.2483 15.4577 97.7806 1.59358 62.3238 48.1719 91.9013 75.3724 67.0703 7.19781 50.5506 89.2563 70.883 73.7015 8.69434 32.2375 81.8212 80.3416 10.7641 82.0781 6.40406 76.7528 65.6566 43.0061 72.0251 54.7486 2
77.0145 97.703 24.703 24.8685 51.9513 40.1606 22.6491 53.5449 2.4844 70.821 45.4462 77.8568 37.8914 52.644 28.4074 27.1476 23.527 2.10891 35.8419 55.7645 83.9301 16.1835 66.5287 66.0082 22.5876 43.2815 31.6648 65.5937 15.3066 86.4134 24.8978 92.321 2
49.6007 17.1895 36.0677 89.7614 39.8386 89.6126 92.2458 10.6596 35.0588 70.1026 48.551 87.7028 98.5099 75.6986 11.2299 0.618831 11.5405 66.9944 84.5489 27.724 33.5231 50.5571 50.3116 76.8046 82.2219 15.9053 92.1111 68.6353 40.8031 84.4321 52.7517 90.4038 1
88.8195 80.1652 41.4602 78.4321 72.4109 52.1199 13.4909 42.5135 0.67083 1.19373 41.0234 76.3694 12.4236 41.6422 87.9099 79.418 26.1912 15.634 12.9411 76.7483 65.9456 89.7456 58.9702 81.8509 81.8567 27.6056 22.654 66.2889 80.3573 13.0578 67.9105 69.1767 1
9.37076 47.6088 65.6339 61.4906 61.0997 8.14743 62.1615 62.2934 49.1708 38.5309 74.717 90.8131 26.4408 54.135 17.0043 42.0747 67.0761 93.7526 8.02033 56.8217 52.7228 89.8712 38.6784 80.3284 12.5252 4.96732 60.6857 25.583 72.8778 29.8624 18.806 82.2486 3
84.44 43.7392 38.5709 92.5874 5.90067 0.86437 41.7583 44.4315 75.5814 32.5714 70.8723 29.7164 49.5756 12.9471 96.7926 43.3282 20.9674 53.6143 96.0511 10.8386 92.2927 76.3795 23.3638 97.26 37.0651 48.9469 70.1379 66.9275 67.7529 52.3865 44.3988 52.1929 4
82.9697 44.7803 2.02633 83.8341 86.5386 46.4579 59.4155 19.11 17.3302 89.1319 68.6856 30.2772 85.9245 12.0139 51.2446 39.5387 8.06495 62.0832 31.8315 84.4444 85.4471 29.0915 21.5095 34.394 99.2294 88.4371 2.14691 51.6158 32.8358 54.3398 47.7415 15.8055 4
49.7678 99.6396 85.6588 96.2257 59.0551 4.76879 13.5558 48.187 73.4544 43.8331 34.1115 85.4683 95.0777 73.6502 93.5333 57.1609 5.48169 77.9777 42.608 34.5732 99.4872 77.002 33.8025 87.9243 79.1489 85.4183 20.7601 33.4887 33.1598 36.5656 32.6089 82.9276 0
18.2677 79.1533 95.2603 23.0365 92.7091 43.4473 96.4909 36.5422 77.5588 81.9592 31.6199 51.209 75.4925 88.7808 56.6907 53.4701 31.3888 91.2639 52.9573 8.39072 25.0664 40.8816 87.5396 10.4847 61.6417 21.0283 43.6445 98.2073 53.6372 26.5721 34.4125 71.9048 2
29.6728 94.9413 98.4345 73.1201 91.4322 34.9767 50.6789 73.3914 66.5966 1.88785 48.8839 55.3774 58.5785 2.35404 86.7661 49.8424 55.3114 95.1568 74.9088 96.1929 82.6964 85.3935 57.8346 3.72469 29.038 56.0419 57.3619 55.6102 90.4544 29.2667 61.3356 20.1272 0
59.7702 93.2473 15.6403 94.7469 43.9262 89.0317 61.3435 45.814 37.9156 16.7208 4.39253 40.2697 3.48694 54.2349 95.581 98.6438 29.1437 91.774 81.3402 14.5372 49.6086 85.0649 43.5752 5.65049 42.4267 99.1854 96.1049 71.6934 60.521 16.2321 95.9015 20.2912 1
11.5417 15.038 53.4056 0.57343 76.3815 99.2196 38.4891 93.1023 3.61211 78.7587 96.5893 57.847 74.3398 95.233 86.9907 66.1137 76.5732 1.52789 15.7223 61.6381 45.1031 21.3728 4.06481 44.2885 17.4777 75.7582 4.80949 33.7098 71.6597 25.1006 43.1892 83.2014 4
96.5948 83.7749 16.5202 95.8143 22.2639 9.62253 99.4265 1.02263 6.2118 57.2735 75.3624 1.44484 44.2642 41.4761 78.0181 45.7921 57.1984 39.6561 90.8952 78.5712 43.721 35.1837 96.0489 19.4792 39.9931 29.7587 91.1389 65.0938 72.9479 74.3403 5.23248 69.5427 4
21.7527 65.357 80.3791 31.3752 64.7835 81.4017 37.587 22.057 56.7641 39.0318 66.3211 98.2402 17.0499 12.1132 55.4387 56.706 3.00836 34.0099 0.427 38.192 30.0588 19.9062 78.1852 59.8175 11.0451 43.2789 32.7654 85.3855 48.5114 2.30808 43.5007 70.2641 3
23.8798 1.63929 32.4486 5.2815 39.2263 54.5055 62.0456 78.2581 20.8267 60.2859 95.308 32.9399 15.7245 52.0141 35.9482 49.7344 52.4411 74.1402 79.7932 72.3473 52.3254 39.6107 83.3924 95.6043 72.3761 68.7778 44.1158 74.6841 12.2785 14.3799 42.3492 36.1583 1
74.7978 41.4398 55.2454 29.3034 3.48539 33.5036 50.1301 63.7713 28.8116 83.0699 79.4958 80.8257 19.0182 29.2302 33.2668 93.1584 9.02336 5.61404 45.4838 48.634 89.0064 41.0881 21.0101 57.7843 85.2039 95.6942 70.0628 99.5838 38.0435 6.22105 15.6029 12.8413 0
70.8484 42.1447 51.1462 4.35194 92.2747 14.9175 33.1636 75.3447 94.4133 13.9892 94.3628 23.6434 47.256 87.5212 32.6668 52.87 33.005 81.3008 41.8765 74.0932 2.3109 99.6608 59.2971 98.0051 69.7235 58.8808 36.0486 75.9446 74.4837 48.8899 23.6054 45.3321 2
74.7516 49.684 83.3093 89.6691 82.8476 58.654 84.0824 96.8368 53.0169 7.72579 44.0928 40.5381 40.3926 96.9629 73.5431 21.6934 38.8394 47.6363 24.0043 38.5001 6.93341 22.0094 8.22368 65.8142 58.058 84.1683 40.298 6.94796 7.7737 85.6301 97.9826 82.5253 0
81.2919 72.1944 18.1618 39.9459 56.2768 14.9986 92.9628 64.0026 59.0914 33.5009 4.39517 56.0543 7.04404 26.0886 94.8937 54.6804 50.0929 33.3938 61.6138 72.1023 41.6175 27.428 30.1604 25.7858 67.726 37.1083 33.5595 53.3561 35.0909 16.0848 88.6703 16.3828 4
6.83204 56.3287 44.5561 21.8306 49.2915 8.55866 80.9221 82.7924 12.9538 36.9764 89.8365 39.0424 31.8701 44.5168 89.1353 65.264 6.13059 61.2376 6.88152 33.5586 91.398 32.6673 1.28463 28.5063 66.2268 54.6408 63.5972 82.3117 43.311 79.9799 70.591 50.1431 1
15.147 71.9737 85.6002 23.7057 52.8958 68.3926 36.6595 89.8722 58.2291 75.7019 21.7424 2.74587 64.8372 87.0064 8.87646 26.0748 93.8879 42.4351 17.4728 26.5552 43.7197 45.9791 92.7821 98.3605 9.57625 75.0938 41.6715 89.5562 45.6847 91.8146 25.8649 60.8317 1
11.4651 84.5374 16.6841 79.8577 21.197 6.55634 38.0867 96.8989 28.2987 40.8326 61.7361 15.3051 49.7091 87.811 9.19301 92.1441 5.28377 35.7482 35.8638 51.2629 28.5303 34.2243 60.8391 3.62406 75.8958 50.3953 49.3088 67.7103 76.2602 10.1405 31.4986 87.7252 4
48.1827 67.5829 15.8749 54.7391 5.66964 12.7738 83.0378 46.5022 74.51 98.3429 96.2113 62.3209 7.53593 88.3555 67.6047 43.2842 24.2193 18.8676 71.8145 58.4436 79.7067 75.4385 34.3393 30.102 24.7473 2.04968 6.36215 34.8878 33.5483 94.0874 29.5658 81.731 1
45.4407 36.4701 67.3399 58.2145 19.5079 13.8422 32.7245 17.8509 10.0535 95.0455 25.3868 98.409 62.6502 68.671 22.6282 81.5178 40.4854 81.0718 61.2244 15.9239 15.4111 91.3264 40.6712 17.4608 97.6886 75.559 51.0091 91.7759 5.1248 32.7402 53.4462 50.5655 4
20.7862 8.78003 88.7182 34.6284 41.5045 6.56912 44.6819 36.55 31.9559 43.0908 99.2002 0.62686 65.719 80.7179 41.1123 46.7908 41.9424 57.0362 62.202 33.2688 97.7074 79.6628 30.9573 73.2665 30.6719 22.7333 78.3913 63.4121 76.1795 28.9568 32.6224 96.9657 0
21.3406 31.594 79.2413 27.9097 76.2759 15.7913 59.8656 19.3667 14.9915 60.4925 85.0857 95.7095 1.60478 31.8766 37.6518 58.641 94.0786 70.9206 56.3484 73.7413 1.87792 29.6149 4.41323 24.6112 8.00615 67.8253 0.790655 36.9629 0.447659 97.7563 74.6997 21.7883 1
53.941 49.698 5.6262 69.7323 9.56365 24.9929 84.7239 70.0561 10.0786 80.4333 71.6609 41.9552 18.0852 30.3019 36.0338 89.0058 86.6503 9.77514 90.8837 16.2652 14.1884 15.4949 24.2714 82.0137 16.2855 61.2343 82.4613 14.0418 35.934 4.24959 43.3921 89.875 3
49.0183 59.6073 63.5112 74.0112 44.3312 33.5674 84.0899 24.7645 5.22832 26.0451 42.8497 35.5302 62.0789 31.8554 22.1806 71.8541 22.7391 38.4458 86.0424 38.234 62.7171 68.0561 54.5195 23.9514 50.5174 68.5613 59.8854 54.767 11.9534 49.7603 8.7146 60.9718 3
72.2258 34.983 53.6988 5.79324 19.0729 78.4633 11.0216 45.118 21.313 46.5518 7.19694 53.1684 68.7323 79.051 75.9076 7.17812 65.0934 14.1415 69.8953 33.1495 68.661 93.8467 83.6669 37.2223 53.732 38.4339 49.1758 3.49239 47.1485 10.1476 12.86 19.3743 1
66.5589 25.1676 64.2035 45.0222 36.1891 9.32151 66.3352 82.7409 16.5184 19.5037 51.4732 95.5694 95.4112 58.6514 60.6629 9.55273 28.5466 93.8124 78.2137 22.3933 77.4793 15.4361 76.1254 15.9132 64.6118 79.6178 63.0616 74.7594 92.4778 82.436 19.89 59.0367 3
84.0934 4.05887 43.7927 93.415 70.3941 26.5336 9.9334 89.8977 78.0068 5.50285 85.3089 36.6582 66.1657 94.8617 65.2048 59.9781 73.0754 87.5981 37.4573 88.5115 63.7235 53.3705 53.1233 43.3413 16.4321 27.8827 35.819 98.8681 47.7727 94.8557 6.47165 31.8661 3
50.2643 25.2811 69.3086 76.7979 35.2145 59.2064 54.8047 40.7173 44.5153 91.4629 6.88304 39.377 56.6678 66.8611 12.4524 44.2659 4.31845 0.963896 7.9894 57.6889 54.0872 51.3307 74.1211 81.9699 87.1497 72.9892 29.7426 82.0054 79.4608 61.6087 80.92 29.7251 2
50.2286 6.52306 22.1042 9.435 61.3278 62.8216 53.9503 52.7907 69.7046 93.3273 9.4585 36.5657 5.77972 53.7244 40.8841 6.74362 61.7138 98.5731 60.8308 13.0444 72.6941 42.8007 0.19413 45.6833 72.5433 82.1995 25.1441 34.152 63.1195 54.8693 21.0418 13.3481 0
43.146 22.7831 22.7201 5.96757 76.7334 75.5109 75.6722 70.0607 84.9694 12.2379 75.8405 38.6938 53.122 82.5841 0.407562 51.6951 43.4149 13.452 24.3892 86.2157 13.6461 70.0725 58.759 95.8457 95.2167 92.911 58.9651 50.0859 13.9528 72.3132 11.4783 57.0988 2
34.1984 63.0664 71.8298 9.7093 38.7385 41.8905 94.6787 50.9764 17.731 33.3724 4.0984 0.31505 33.78 55.7935 43.73 47.232 80.1827 29.9456 60.8781 50.2552 88.7046 56.7238 45.4719 81.6156 15.6889 95.5578 95.5684 88.0022 7.03613 52.6672 83.0985 41.2346 1
54.9283 50.9439 54.4721 96.8189 45.6225 5.44845 14.5498 78.995 9.54685 14.8649 12.775 65.3403 58.5948 60.007 45.523 88.5404 20.8851 95.7783 77.245 77.6089 41.2502 58.8606 93.2979 36.808 54.429 81.3001 43.8441 7.09612 64.3986 85.0787 22.8297 19.3269 0
77.3017 16.1458 81.6451 82.7502 30.6956 60.64 92.297 45.5605 73.415 57.6374 4.15533 33.422 3.16038 92.6958 54.3072 98.9387 69.9408 31.9161 40.1888 28.8014 25.214 76.9968 83.2303 6.51402 20.841 90.3264 70.9126 5.91965 13.1561 90.2396 41.9422 90.4578 3
23.5873 73.208 37.081 84.2273 65.505 82.6415 57.6423 23.1424 86.7968 91.0644 26.3028 79.4926 45.3715 25.2414 49.4333 77.2876 65.4302 78.2347 2.50159 42.4271 61.465 9.01561 63.268 51.7915 79.9282 69.1877 64.9476 70.1678 11.1299 55.4054 76.5532 34.7171 2
13.6342 18.9444 94.1184 96.2756 76.5868 17.2608 83.0725 67.6511 43.5636 62.565 13.0227 68.805 11.9984 90.3103 34.2352 90.2331 92.8119 76.6623 51.6982 1.8275 39.9303 3.48964 81.7557 9.11795 68.4372 51.9236 20.2478 23.8426 28.4767 54.9649 52.456 42.1109 2
46.5745 38.3865 50.4961 63.8353 21.459 18.1473 7.39883 84.024 31.17 76.2038 96.0224 21.4803 10.439 86.2555 14.2922 87.1013 37.9537 16.1197 27.0316 41.4433 97.8754 36.1495 9.88056 49.7989 56.3973 33.7232 78.2757 11.3622 86.1792 20.3866 85.2716 32.7537 2
35.7678 96.589 80.2321 53.9151 3.9878 64.2562 85.085 80.1916 60.2786 6.56529 90.6306 46.5341 20.8574 77.7319 84.4878 36.9771 4.76346 25.9312 34.8525 40.913 35.8117 84.6514 97.3103 69.5349 62.9271 8.67252 55.7141 83.3137 93.9441 88.4678 42.0868 29.7119 3
22.3189 83.627 89.0446 86.5751 68.712 69.2362 46.8536 75.2773 59.8668 93.3878 96.1347 37.5987 77.8756 33.1118 42.3622 3.80674 67.9643 83.2751 39.6184 52.6157 80.5854 9.15334 15.5428 89.2579 64.8675 98.8565 83.2021 53.3353 40.9432 12.914 38.3921 63.2621 4
27.4367 49.8372 65.2529 96.6729 96.6908 40.5302 56.5397 90.0786 36.6649 94.1384 67.9542 69.7766 36.5006 71.7609 37.7409 19.7757 11.3794 90.3566 0.361153 20.5327 5.89941 89.6191 85.4002 4.75587 72.8212 38.7355 45.6991 85.7351 77.1275 8.96127 82.2761 4.56421 2
47.529 1.23707 55.4893 88.0591 57.7768 45.5679 24.724 51.9152 13.5222 94.5006 88.4158 85.2831 32.2416 8.19152 96.6625 22.5982 8.55267 17.1952 28.4976 98.1718 2.59541 33.2535 70.9929 41.3309 78.9526 56.7281 18.4584 87.9139 39.0041 23.0226 46.7123 86.5331 4
2.20167 74.5922 82.0365 47.7696 99.3162 33.9517 61.2918 93.8169 22.3674 46.5749 26.0585 30.559 43.2374 48.6566 39.1116 60.4326 77.1542 37.2834 63.028 10.4077 8.2763 4.35889 89.3603 65.0044 22.8173 77.2741 4.0085 45.84 23.9865 90.5416 70.0997 26.1881 0
52.1362 73.9577 64.4501 86.0878 35.2495 58.267 8.45525 81.8244 84.3255 39.0142 25.0618 32.9821 78.1258 85.4944 10.1363 15.4092 48.5224 20.544 23.6855 52.8813 9.90426 88.6899 75.6986 87.1784 92.6984 21.5385 11.1649 83.24 91.6382 37.353 48.3738 43.7744 3
12.824 29.8622 46.5603 71.091 38.3174 28.3847 55.4164 77.3316 53.4464 88.3985 55.4574 38.9408 98.5348 70.8666 87.4632 19.0788 94.5521 40.3444 28.9831 83.242 16.043 16.1615 75.9404 37.5816 27.3263 59.1803 29.2198 64.6793 7.55419 72.9941 75.9901 20.3781 1
22.5503 91.4691 41.1737 50.935 46.8855 18.5054 4.3814 35.284 73.9628 43.3222 33.8189 44.8294 30.7854 52.8977 39.3816 71.1298 81.8808 22.6236 87.1728 98.0423 98.564 24.7544 25.3686 57.7443 53.9742 90.0479 65.2985 26.9683 66.038 85.6767 29.8246 88.5883 2
70.9983 39.5233 24.0313 89.5037 43.9046 59.3153 63.4665 87.2269 93.1342 8.29594 18.0122 46.0319 47.6775 89.1421 27.9127 70.3011 76.3149 25.955 68.8651 1.06928 51.3236 26.6094 55.0434 41.3715 91.9079 82.0117 7.40953 77.5846 11.8363 95.9978 54.7303 82.8346 3
78.7616 72.3383 79.4257 38.0769 35.8048 66.6526 31.2112 44.1007 84.6648 77.2431 91.7783 73.8068 5.15579 62.0794 50.1217 31.1108 30.9445 51.191 82.4344 57.5539 6.23444 23.806 49.4618 88.2462 31.2155 27.0463 0.0824606 27.2133 81.7766 82.9171 62.7344 60.5383 2
42.1601 98.6152 91.0602 8.81265 29.8264 35.161 93.4774 7.06943 26.9392 67.2843 12.2252 89.0186 17.406 43.336 19.9631 68.597 25.7704 77.5169 74.8315 49.5764 26.9787 63.0776 80.7918 54.025 63.1601 8.00514 35.8017 46.0772 70.7395 96.3399 1.3326 12.8996 4
92.3928 21.7122 24.7815 27.5538 15.1897 31.8509 54.493 82.474 44.0761 43.5116 99.88 87.4121 63.4746 68.477 13.1825 40.9916 43.3085 62.7589 67.9703 6.38616 43.5507 21.9953 69.5462 51.5559 57.797 15.6234 22.2954 54.1369 16.956 35.195 49.092 9.34885 4
73.8735 36.9026 72.0969 5.72442 91.3956 54.5708 49.8005 34.9072 54.4508 37.2127 98.3818 22.9279 50.3952 39.3734 66.2364 13.1541 7.34367 72.6226 56.7049 29.339 42.1688 8.26077 87.1359 57.7923 30.5562 41.2728 74.7483 65.7511 90.3648 84.0971 22.6583 64.2383 2
94.7552 69.9628 12.3953 49.326 19.7633 47.3025 3.77686 56.976 45.6843 26.7048 7.37123 85.0577 92.9412 20.5254 92.4014 65.5637 77.2303 21.7404 7.73255 85.491 8.8763 65.5248 16.0472 50.1491 40.2731 81.7983 40.514 24.3702 4.4566 4.7523 45.37 99.2118 2
57.7654 48.5378 94.4784 5.06788 52.3147 51.4544 50.7522 79.0194 58.8256 35.81 71.9606 79.351 28.2114 37.5243 56.5812 49.9518 45.2568 42.0722 58.8281 10.7816 58.1194 8.97719 51.0547 39.9177 49.4911 75.425 44.3743 54.2434 20.795 43.5861 28.9585 78.5603 1
23.4369 83.6282 44.4385 74.8912 34.3804 23.4579 33.7168 70.1904 95.4185 13.0678 98.4018 32.9428 69.649 48.3536 78.1996 11.7212 7.18165 88.9812 69.8406 16.1588 40.036 9.75831 65.65 15.461 54.1326 19.8934 36.256 97.7187 48.8519 14.8163 89.8425 72.2888 3
34.281 47.18 32.825 57.739 80.8968 3.01537 53.1574 93.9646 1.41718 86.1002 63.6135 49.7708 64.2998 75.3347 56.9524 53.2811 45.1753 73.1112 93.317 54.9336 38.7612 8.77803 9.06624 58.6547 45.034 6.7849 7.50659 59.8503 96.6274 79.7954 58.2948 30.9085 1
91.1198 88.6474 7.8722 94.1352 41.8049 1.83675 95.5523 27.9051 65.4503 45.3231 92.2049 40.785 2.27548 45.4859 85.9603 75.3867 38.803 40.894 14.1479 47.581 49.9602 72.8026 92.615 56.7451 80.3092 52.4653 53.3725 60.1046 10.7601 84.281 87.08 1.87991 2
94.9522 96.0151 14.7333 96.7889 91.5674 42.6384 62.2392 36.8905 34.8432 3.0242 39.166 80.3292 88.9845 14.5527 19.1322 29.8785 28.7006 66.7132 79.8387 1.50326 59.3282 36.5838 81.8125 11.7935 89.9563 41.917 22.5536 74.2373 28.997 24.4335 47.1658 23.9492 0
61.8991 20.7381 12.016 4.53742 82.9773 48.9065 39.3807 86.0015 88.0725 19.7099 74.986 2.62518 38.842 4.86453 31.3258 5.55521 84.7032 32.8291 64.8834 21.287 14.6415 76.6769 11.2433 56.5586 99.2305 85.4806 85.5556 23.6641 32.6464 9.5048 44.1127 94.5454 0
56.1287 99.0828 13.2202 5.03519 38.4635 99.2218 93.1077 58.1734 74.2078 95.7328 97.0154 79.0723 27.0587 2.5706 63.7755 59.8877 67.454 85.0625 74.5293 44.1309 96.3058 31.0879 43.3614 81.7864 16.6435 67.0255 14.4328 26.1482 11.1381 8.9782 56.3912 67.2668 1
69.6114 72.302 46.5246 68.8332 65.4097 4.69793 43.041 61.1425 1.71332 22.1133 88.2012 4.28392 85.8888 48.0889 71.7379 70.9513 22.6182 15.8688 67.2571 53.7061 59.2302 49.0436 70.3495 26.2557 63.4763 96.4978 37.3938 72.4545 52.8889 4.66065 80.5156 22.5003 0
27.0402 91.3335 42.3724 31.7381 34.3745 3.5149 33.4514 56.4878 91.7161 37.7353 42.3766 39.805 9.47323 13.3279 62.4233 25.342 80.5851 16.1293 84.5722 29.6286 86.4789 10.8279 93.105 82.9766 48.2217 65.5595 35.8656 52.8824 46.0751 58.3659 29.845 73.1153 4
72.2174 4.85336 84.0739 75.7323 38.3048 40.5617 67.4484 76.0401 82.9382 7.25346 85.5133 96.2662 69.6767 10.8553 76.8512 85.8061 95.4276 6.47989 72.2849 6.25547 99.5849 55.2616 54.4772 65.1444 91.1272 7.35957 11.2195 49.4931 37.2046 84.3348 99.1925 9.42203 2
83.2664 85.1543 27.4929 23.828 52.6027 3.53303 6.7663 59.8562 89.0463 3.03248 29.5329 99.9017 79.8837 15.339 95.3292 86.3636 87.6239 1.58471 85.9485 42.8855 56.0619 51.0929 34.0127 63.4215 62.3124 83.5057 0.626102 46.6472 82.6982 10.0481 35.8354 65.9646 4
63.3283 89.7927 47.8052 66.8614 96.559 7.66143 55.9077 99.5914 37.1944 55.8094 79.4752 52.5334 51.1386 65.8388 40.1573 52.7233 51.7873 83.0429 8.78524 2.88014 17.0555 72.2067 65.1926 0.561266 72.8328 11.8398 83.2595 82.881 47.6752 49.2241 78.0834 11.0035 1
25.8886 77.8649 35.5758 33.5501 33.7726 35.1672 70.7445 89.582 14.6424 23.2778 40.7206 80.4811 63.4352 93.4439 32.2684 46.478 2.22917 35.1486 63.5336 74.4359 0.341105 64.0948 47.2687 12.1809 47.3543 30.1497 59.8561 96.5784 8.23309 70.8596 35.5952 34.1217 4
71.171 67.6718 82.4971 6.33818 38.4163 72.079 20.9806 61.6941 12.7996 1.4617 25.1293 6.24357 33.7301 71.6073 8.47274 68.8787 35.1409 82.9086 69.2198 99.2357 30.1773 81.4007 46.5901 60.327 41.2567 43.1685 68.5601 12.1163 78.7637 2.68183 60.8408 49.9347 0
43.3378 56.2729 8.76989 15.4169 77.2535 70.464 28.2165 78.7152 95.5933 34.4601 12.4453 67.2006 42.9328 81.3239 2.34149 25.8415 50.5437 1.57722 56.0188 31.9444 48.1673 16.3458 73.2011 91.3358 84.9059 85.3174 70.0995 87.5877 46.1581 20.0343 57.9414 89.4959 1
66.7113 4.91281 53.5606 37.1752 33.1293 32.2758 32.7685 67.5894 44.7211 99.9691 10.5222 26.045 2.31062 36.3637 76.5888 3.88784 92.3825 8.53312 52.0551 8.7283 81.7342 43.3909 93.6342 67.0515 13.4905 81.2219 13.2097 33.5247 39.1633 2.70559 9.8319 5.87454 0
63.3926 43.0498 40.7477 95.6684 75.8183 8.33715 40.3895 75.7874 18.8594 66.4345 78.098 55.2231 43.0233 81.9859 47.6056 51.5564 34.041 56.3339 33.2906 77.4319 49.9681 0.34211 90.9224 31.19 13.5518 24.4471 70.3533 16.2574 34.279 76.2278 23.8758 97.6715 2
64.6235 93.3399 95.0959 72.9606 33.7294 70.8834 91.82 0.163894 48.9814 47.0431 43.1872 30.9673 94.6487 94.7435 65.0083 50.9826 28.0341 42.4402 0.950698 28.3762 33.3626 32.1407 41.928 57.8097 2.49402 58.1853 92.0887 78.7219 82.0611 89.7602 97.9995 46.6846 4
93.0954 19.6452 16.8295 63.9788 11.4653 16.9934 12.9602 58.5084 60.1806 43.9274 53.1571 54.9241 8.93572 4.13971 82.9582 51.3759 5.0904 11.3344 84.7385 37.2311 53.2624 42.5482 39.7251 11.4477 34.6368 18.447 93.5088 24.3971 16.4465 40.1934 7.49723 9.5419 0
24.3268 73.5207 71.3039 41.3202 86.4808 29.8123 1.50078 30.4083 82.9694 56.4249 39.344 87.1091 39.3831 90.7199 92.1995 50.7175 75.4584 29.4306 3.97994 18.0066 69.1558 15.4277 52.6434 87.6028 8.93651 77.0405 4.04926 49.1299 84.5378 13.5912 8.96858 8.86451 0
80.2725 50.1847 73.5927 10.0848 51.6855 4.00094 93.0542 8.1104 43.3449 80.1633 47.4935 34.0648 72.3628 98.2111 9.52326 1.7934 2.19101 27.5299 70.9492 17.6187 80.1733 58.5519 26.5552 57.2138 62.6012 75.6851 41.7516 76.1924 84.6537 50.6161 63.3042 64.9262 4
36.8969 75.011 52.4863 40.8978 68.0651 60.5967 84.2427 48.2284 8.09023 18.3076 20.5912 6.30129 27.8309 22.3846 8.49231 55.3607 93.3338 26.111 35.534 51.8857 52.6662 92.7479 14.4869 28.3513 34.4994 90.6793 13.005 85.1155 53.9835 77.9312 85.9163 90.8804 3
38.4026 31.7782 21.0073 98.9994 16.0209 69.2357 7.08958 34.3285 89.8269 13.3909 62.1594 12.2115 21.8832 17.5201 5.54527 47.9942 53.0541 57.431 0.660372 45.802 71.9179 29.0117 80.3014 62.5972 42.0167 65.4169 16.5807 19.9479 51.3333 7.46108 72.8901 89.7359 3
93.8974 88.7353 55.2602 63.1332 95.8248 89.5887 52.9601 9.21571 51.7481 65.1716 31.0989 69.2682 70.7169 79.0931 22.3223 28.1478 79.7534 68.1242 0.0657394 8.76514 48.4256 62.6629 50.7819 13.8426 79.2436 70.7298 65.1758 86.7047 43.6199 54.9117 25.944 37.5173 3
81.2042 0.650476 39.4718 70.7929 53.6105 48.6875 22.541 18.7821 79.7864 91.8092 89.499 58.8795 14.1315 17.6468 38.6329 82.2557 17.7125 47.3981 30.6814 80.3755 98.1799 44.5239 59.6191 68.9097 9.69975 46.3238 12.5296 64.6115 72.2678 50.0469 8.25848 53.472 3
47.7303 24.2649 4.30796 96.4178 46.8059 23.0901 76.2043 38.6151 12.5891 35.0838 52.7466 30.2359 73.7167 35.0023 47.9484 21.1148 65.6837 28.3239 19.2948 10.2076 87.943 88.2045 19.9074 34.2668 0.734097 84.5189 6.53465 50.781 92.7773 60.0066 1.47846 40.5076 3
5.78642 36.9255 31.0774 28.8765 13.1298 69.6925 41.4656 48.2136 22.4391 71.7014 21.9303 57.4414 19.6499 43.0451 23.1251 47.9738 62.3399 33.3327 35.9168 50.5443 53.2401 70.1836 51.2784 37.7589 76.7183 2.05947 30.5363 36.7249 3.53793 71.0439 20.9965 9.32435 4
52.0739 38.2009 21.0991 21.7664 79.6664 69.3127 44.2055 51.3679 91.243 1.64694 71.0177 34.2881 24.772 18.9915 96.6279 58.1047 54.9083 47.1723 11.3448 25.0919 98.4507 49.1037 1.81019 0.510153 79.64 38.5351 4.04808 50.6839 59.5316 13.3724 58.6533 11.6054 1
79.7524 33.3719 31.2397 49.0651 77.5774 82.6075 40.308 79.2243 53.6253 74.5961 3.99635 72.6167 71.224 62.1011 27.525 18.3963 73.4459 52.6169 16.847 22.5497 54.4271 17.3571 2.18966 92.9622 21.4052 52.8735 52.4938 34.7776 11.5268 64.0992 86.3509 91.2792 0
17.5906 40.3443 75.0484 0.198133 80.6523 54.2727 53.8234 55.2484 58.2691 26.4401 26.4724 20.3702 53.9651 44.8687 93.8161 6.58203 61.7157 16.3658 61.0091 79.0728 18.5554 53.9713 0.477976 71.429 6.46509 35.2556 82.9558 70.5643 21.6065 74.235 68.0353 39.1971 3
43.0838 39.3952 95.2315 97.3565 93.2186 50.4799 55.6256 19.6587 76.9524 75.9958 73.6239 21.8211 69.8119 80.2059 83.5367 86.1777 41.215 62.6095 4.73308 95.1863 63.0875 76.162 1.65143 98.3431 59.1178 72.2157 19.9496 33.3528 40.2511 59.1466 47.932 83.3348 3
43.1636 80.6914 91.7605 93.6435 36.317 11.4192 70.5958 12.3128 85.043 92.4169 82.1247 65.2489 75.9536 68.3023 6.46393 38.5632 73.0354 1.65027 1.65065 49.1975 3.3017 99.9937 8.31529 75.5174 19.9433 41.6681 15.7685 79.09 89.6001 99.1033 77.6318 32.7636 4
69.3923 26.4071 16.1116 80.8115 97.003 28.4244 65.8545 89.4199 10.5491 31.1034 65.3735 78.8514 37.5673 3.93668 51.8868 39.2176 5.58733 1.08426 42.5193 5.58106 9.39955 18.0367 25.5244 51.0676 33.8052 4.61432 40.6677 32.9085 82.2461 73.4314 12.7032 51.6384 3
28.8148 32.4499 96.8415 57.2392 98.3044 86.2614 67.7882 29.4078 51.6349 46.6396 66.9751 55.5716 98.5264 6.19274 61.1589 99.6107 48.7121 66.7399 9.01022 66.7488 92.2643 60.0779 0.554003 96.8786 0.745575 33.4625 79.1248 74.1769 46.1657 30.7632 74.0154 74.9805 2
70.8569 32.2197 61.5174 57.1183 0.0079276 90.9251 8.75316 46.6475 57.9003 64.3247 45.174 64.093 25.4836 44.7846 12.8051 92.2235 53.7949 79.5538 84.4879 13.8727 80.1078 81.3665 14.6183 13.5704 60.4913 88.7952 59.7361 91.2544 62.8107 34.7166 54.4675 33.6676 4
15.9848 90.7859 66.9442 6.90998 99.539 13.5917 64.8102 63.8638 58.7657 28.9032 89.3474 3.55032 41.7083 81.5709 57.3452 21.2621 66.0588 71.2179 1.36997 47.4253 85.8362 14.9403 7.91651 74.6314 74.6764 99.1709 37.4421 9.39296 53.6384 71.1097 76.3292 69.6232 4
43.2734 76.5332 61.4346 56.8651 41.3434 25.2983 15.6308 70.2467 14.6457 19.1811 11.9549 96.2166 76.5263 33.2171 62.2754 47.7442 34.587 9.70063 33.5804 49.5274 17.6171 8.21176 24.2038 16.7881 45.6538 33.5967 70.4265 16.7635 9.92592 40.0497 78.6591 53.1993 4
40.0936 10.0644 57.9263 65.392 25.6952 28.173 80.0377 44.8764 40.1279 76.2543 21.4027 73.345 38.5296 69.1469 7.932 48.2303 2.72723 57.4594 65.8474 10.939 81.6631 82.6355 56.5928 15.2598 53.062 73.3563 25.1857 93.1117 52.0154 78.385 9.69458 92.109 2
67.6209 57.501 14.1447 95.7939 37.5387 59.0211 35.9218 13.793 80.4237 9.2668 52.3226 49.5706 17.1988 0.552889 52.2978 74.6582 66.4003 63.2368 56.3213 49.0358 19.8297 71.5811 2.09779 93.186 96.7668 95.2095 45.2014 75.1519 4.90405 37.3104 63.6013 72.525 2
77.746 68.3189 32.3501 36.7671 4.24069 46.1431 17.1909 13.5075 98.4657 66.7615 30.7063 99.0186 19.0593 5.36445 65.4189 82.2962 61.6857 14.4547 2.12582 33.2668 16.5525 95.3118 30.0336 11.7619 40.5132 5.18545 16.666 77.8236 68.7868 89.191 72.635 46.5328 4
4.98513 83.3 61.7505 51.1282 0.490831 75.258 49.5939 67.2523 5.96431 48.6124 86.3116 11.3288 14.0313 68.6078 73.0145 28.486 70.7336 6.28126 45.0385 66.0454 36.3148 56.8004 6.55861 41.5003 73.4664 84.3822 10.2871 62.6574 57.0172 56.8199 20.1672 62.0024 2
81.9177 13.1306 40.6107 57.1757 62.7244 7.86304 63.14 11.3369 94.1747 74.4688 25.3682 62.7824 47.4832 53.8542 33.516 53.7645 98.8927 99.5615 90.0793 55.6931 6.12006 31.5796 29.1595 90.5023 41.8667 91.8169 47.5195 98.6867 11.9841 9.52187 38.8066 93.9017 4
79.4173 51.0774 85.3769 87.2804 14.2175 96.7137 81.455 88.6862 22.0819 44.2375 36.1695 75.9361 77.7535 89.934 74.8288 77.315 80.0133 30.5219 83.435 11.593 59.6814 73.9373 53.4597 51.4982 21.4568 52.1464 63.4823 30.9787 90.953 57.384 53.6311 70.3703 4
39.008 57.6506 22.6789 35.7217 39.1056 11.3651 57.8036 83.3431 47.5346 33.7397 61.0966 37.4686 8.5685 38.4116 17.4819 39.0904 21.8466 29.0749 98.7717 95.7839 82.5346 50.27 17.2407 34.6809 13.7522 48.2194 25.6339 71.1362 1.85048 96.0042 79.5977 40.8584 1
2.27664 76.5801 92.7605 13.6418 34.3838 76.1036 61.1764 68.1235 37.2002 98.645 76.692 75.6118 16.1269 15.7824 97.4584 45.2017 14.5541 93.2423 27.7363 64.824 10.483 62.4172 78.5763 58.7023 88.0511 49.7125 60.5528 84.0553 29.3102 1.41126 37.7101 31.5869 2
30.4705 45.2286 12.3752 6.57411 6.40505 80.4987 43.7743 5.05003 57.1907 19.3861 21.1769 72.9731 16.8444 66.3786 87.5271 10.0867 94.1149 52.3512 20.5697 56.5321 30.9274 79.272 44.5832 80.6399 39.8248 28.6385 9.95017 41.2361 66.3486 41.537 19.2275 96.8192 2
31.6026 3.39327 93.1707 12.1013 47.1676 98.2208 69.292 66.5536 19.3977 42.2651 83.398 85.7763 29.7922 93.4847 79.8912 82.1434 14.0544 36.4233 13.0708 93.3264 81.0066 93.7108 33.1512 9.64509 3.66095 74.3872 75.9937 45.198 93.6147 72.8129 31.9637 25.2174 1
25.1344 37.3187 23.3737 23.3551 6.61073 89.9273 42.7528 48.8758 73.3254 28.5291 78.668 66.8101 8.42028 60.8115 80.8645 44.8436 73.8823 74.1909 25.8502 67.5931 7.34211 35.4953 71.254 81.7294 11.489 16.452 75.3441 84.3018 48.4157 0.561441 60.508 73.5501 1
83.8817 96.9052 44.4909 73.809 39.658 93.3667 47.1344 68.1871 72.0347 13.9445 76.6074 32.8462 94.8091 21.451 6.72849 69 47.3011 74.3216 76.3421 82.7964 45.5756 58.0715 94.2854 62.0276 33.4155 78.5872 10.4433 33.977 39.0952 83.9934 71.8571 22.9769 1
16.348 96.7859 20.5566 9.71467 43.9203 88.7436 81.7494 57.8649 65.351 14.5956 52.6739 86.802 21.3241 21.6739 34.1031 95.6457 98.016 16.8995 41.2213 56.0874 11.1849 3.24892 89.503 89.7721 13.6922 23.4799 28.8674 97.6856 95.337 51.8443 78.5842 11.685 3
99.1407 21.3997 92.5506 87.8844 3.14909 50.4154 53.2354 17.7447 3.08935 40.0373 39.0688 24.7632 74.1404 34.7144 22.7792 91.0399 75.9357 78.8666 2.22481 79.1846 68.3696 91.9969 92.8769 91.8495 20.8643 90.5625 87.1866 72.7086 69.1466 98.8716 21.3388 68.2874 2
13.8893 56.1717 23.4204 64.3048 9.40709 41.1651 67.3941 49.4444 80.2338 92.1574 23.5848 14.9483 14.9366 14.6248 90.884 93.8032 16.8496 70.0686 62.1728 8.84649 62.9455 54.0224 29.7108 53.508 41.2089 2.41933 22.6546 40.0805 23.7581 90.9419 60.3518 37.6474 0
83.7722 1.95222 56.5208 24.9372 69.3463 5.96517 5.17107 61.5037 29.55 20.1193 76.4403 44.1748 11.0033 70.2435 61.0243 81.0719 32.4163 69.8708 44.0174 86.4387 99.5816 97.5254 27.6477 2.0009 20.18 67.7282 25.759 11.1219 28.08 63.4064 58.2356 11.8522 3
14.7564 36.7894 34.705 20.7215 41.9605 96.2087 50.2715 62.0799 72.649 94.4463 73.0832 42.8925 55.4706 54.1551 75.3088 25.3414 98.1726 61.7475 24.923 95.698 89.3952 26.9239 15.878 57.1234 52.6829 26.9999 85.2034 16.0893 85.2355 97.0556 81.448 99.9918 0
16.153 20.7134 75.8055 12.3617 70.9849 37.8854 85.0107 65.4312 10.9686 27.9031 20.9018 65.1237 3.21193 46.2432 63.2963 64.9594 71.1662 58.9943 54.3546 98.09 74.8722 11.478 50.7729 1.87209 96.6814 66.8623 87.1076 93.7369 48.3102 87.0994 27.5819 64.4632 2
3.38748 76.8249 78.7977 41.2729 61.8356 44.2289 52.2415 89.7387 65.1307 17.3652 92.9507 11.3739 80.6615 57.9101 82.5401 39.6557 12.2647 80.6301 14.5279 23.7427 31.4031 16.4 20.424 98.2653 3.50758 14.161 46.5755 90.607 41.7429 11.0388 98.4198 45.1304 2
77.2175 86.4033 49.6993 21.4464 38.6447 39.438 86.5772 56.0099 32.3887 97.9511 36.6713 90.2988 80.4912 76.327 2.56351 61.1213 90.855 26.3062 92.5244 7.25497 46.7302 90.7897 10.7626 60.8912 37.3652 1.36955 2.63405 48.404 99.7894 47.7644 36.2677 77.0069 4
85.967 98.4533 72.8124 25.4051 85.0305 28.8222 57.7938 82.9815 65.4936 48.0926 63.4727 41.8206 50.6561 24.594 32.6756 76.9623 17.1184 39.9305 23.6925 7.90802 50.6931 84.5836 45.2732 52.0626 87.2177 93.6772 51.852 34.9821 29.9449 28.8589 69.1498 15.9119 1
41.9622 41.317 12.3426 70.7844 99.1108 95.3241 36.278 47.2033 58.7968 78.0986 97.8594 83.3908 10.7742 74.8216 0.509196 50.7047 98.5141 8.41721 1.3978 83.0977 53.6904 53.4604 70.3154 47.3676 5.31243 5.29752 77.3125 34.1713 74.4473 93.2245 61.4834 16.4095 0
73.826 87.1939 33.6522 69.1502 23.4719 80.8555 27.947 1.57049 78.7149 11.3379 12.3447 53.5366 11.8471 63.0494 52.0507 20.2643 64.4472 35.1484 73.9547 17.9076 5.46381 21.3223 23.22 10.7613 98.6348 57.3913 85.2086 91.8593 18.8748 1.61812 26.4007 92.7008 3
60.0529 61.851 12.2839 40.9085 89.798 13.8544 19.6234 1.13589 26.1991 73.1599 12.9829 89.2484 25.2106 33.2472 53.6956 60.359 7.2019 71.6032 65.8228 28.5242 94.8233 76.5841 27.1591 52.2146 61.7928 19.0184 71.0894 63.4109 45.4191 63.7902 52.2229 5.47207 0
64.5068 46.3805 15.4392 78.3612 66.0039 16.5751 4.56029 39.1638 29.558 93.8087 64.3744 62.8053 47.5043 24.7334 70.0071 19.1075 90.5562 98.5314 13.9308 67.1403 25.6904 66.1454 28.9331 44.7088 37.2348 92.344 90.1279 1.02495 44.5669 95.6 26.6661 9.07377 4
42.1054 87.435 7.98444 58.6805 91.9953 47.1483 88.2385 85.804 11.5227 51.0438 33.3083 36.2561 21.0509 52.4159 26.8123 19.5823 66.3467 93.9527 45.2727 32.4921 22.8858 89.9815 69.7269 15.2298 80.1095 70.7518 59.7967 75.7095 97.418 68.8705 17.69 39.5233 1
25.6744 98.2038 48.3008 72.8227 86.4423 34.1048 84.3454 37.4861 67.4132 20.6015 58.537 19.829 47.4138 78.1193 86.1757 41.3665 23.392 18.6678 64.2523 13.3736 88.3947 79.4821 93.483 59.1465 39.2788 69.1925 56.5644 8.14929 86.8825 96.0878 64.4548 12.5569 4
12.7556 85.3796 80.7339 46.8604 69.725 18.22 14.2735 90.3265 76.757 34.1026 37.7404 54.8764 20.2783 79.1069 78.2684 38.9461 43.3592 91.642 27.3408 22.8412 85.125 86.4873 62.12 54.3175 43.0517 70.2693 41.2 39.1395 34.7241 53.757 33.4311 47.4796 3
14.165 94.34 8.86163 32.385 8.61353 99.1882 9.14205 42.7161 36.9285 64.0184 62.9944 16.0354 42.2868 1.94049 59.3946 33.9288 29.2813 82.2358 19.0539 15.7686 44.3558 73.3714 58.8203 14.6251 14.5715 97.9598 49.3492 68.3284 31.3909 96.8289 7.46503 45.5558 2
16.3267 77.9408 99.7824 15.5148 87.0829 42.4985 52.4434 51.1013 5.49286 68.4788 93.3882 7.43335 27.8734 27.317 36.7146 10.1092 46.3709 52.4832 54.465 19.7423 11.3035 69.0901 34.3137 9.26327 18.4393 2.64217 40.6541 15.2682 10.1072 86.21 6.43706 26.4339 3
6.21945 41.9487 51.2337 48.7179 94.3921 2.33505 54.2108 62.8709 95.7232 61.6441 90.7442 23.0402 98.3588 0.853426 69.411 50.842 55.3184 89.1533 62.1455 24.4086 23.4671 71.4087 42.8479 26.1092 12.0629 58.1161 36.2164 98.2728 64.5531 62.6503 62.4237 70.7726 3
13.6574 19.4905 98.991 15.9924 73.7013 61.8619 11.7156 35.3455 52.6062 34.7558 33.7042 53.4596 4.16687 84.5462 8.77801 93.3202 46.6917 33.1866 16.7872 18.1004 76.0344 42.8965 30.1633 34.1505 79.1129 28.4361 98.7037 41.7632 90.8598 69.4762 46.3621 4.51719 2
45.3532 20.5096 62.6681 7.21508 32.2253 98.0135 59.8212 66.9811 31.7177 13.2808 71.148 16.264 22.0588 64.4682 62.9557 55.2454 81.2554 81.0561 31.2798 24.1519 11.2194 65.4304 3.26473 39.6555 64.134 45.0279 30.5153 33.6103 91.39 35.0325 22.577 36.7432 2
85.2451 43.9583 87.7674 83.2586 3.77951 54.7485 14.9764 17.0603 25.8965 31.2403 39.1192 90.3646 94.196 94.3646 71.62 75.2521 25.6444 95.7719 86.4715 91.0748 99.0366 26.127 55.2088 44.0645 56.6423 88.8191 35.4545 91.6749 11.3961 72.1977 47.2171 96.6412 0
34.9845 79.8998 19.9355 89.733 94.8762 36.9958 15.6295 26.1165 76.115 5.99409 20.3125 70.4796 77.6141 95.5645 96.124 73.386 82.036 87.1988 72.4226 8.16298 42.4077 16.4871 64.8053 31.2268 51.9416 56.4802 42.6229 24.1394 3.69726 39.2641 40.2953 38.6817 4
60.2308 28.4147 14.0401 97.2267 44.0442 40.1566 73.3417 50.0383 60.469 43.8213 27.6524 56.0336 39.9454 1.03841 38.0695 27.1442 73.461 46.2325 69.5519 89.9481 11.0378 0.778664 41.8898 67.5181 43.4016 66.0292 71.2153 82.6657 6.32449 9.89705 1.82959 66.5553 2
15.8697 63.782 82.356 56.0263 37.1237 32.3943 16.4953 80.9451 60.0467 72.5289 20.8904 61.0851 10.5984 48.0347 34.5461 56.8309 17.5866 24.4942 67.8688 18.3652 66.384 35.3868 61.7668 32.4132 6.60213 44.4324 38.7377 16.4992 46.262 5.29301 54.811 62.1317 2
37.167 18.158 6.19878 69.5612 34.6533 87.1439 29.6079 7.18213 8.0343 90.693 17.7805 56.069 25.2391 74.6115 73.6555 49.7334 42.4802 92.0207 16.1174 77.867 53.7875 48.5306 84.4692 98.2199 87.2683 0.968363 44.482 92.5613 55.7793 6.61368 61.6363 92.9463 4
67.8351 62.5075 59.4249 54.9789 92.1155 66.6071 63.0132 82.8085 84.3876 19.0822 8.04759 58.9991 92.7377 57.781 1.47929 84.7584 73.8984 79.3463 38.5459 22.4289 63.8155 36.7659 9.69721 64.7839 81.2478 2.25849 20.5632 87.8615 63.8948 13.5095 12.6332 31.7299 1
72.0581 86.7088 68.1325 38.6652 49.7221 50.941 23.0528 68.8043 58.9885 82.0518 61.542 16.7695 83.5311 46.3004 90.6679 62.8774 84.8463 13.0968 26.693 21.6122 22.794 91.4768 2.86001 25.0525 12.04 90.7215 88.9473 25.5495 3.35468 20.6772 1.56658 75.4128 3
69.6991 14.0779 57.1081 20.64 37.1307 25.9124 79.6286 19.1825 87.4543 96.3981 2.71361 33.7547 87.0659 65.5911 18.601 0.162735 92.284 40.2132 22.9568 83.7608 43.0732 48.0093 95.8009 33.7947 36.9566 21.3504 37.1494 57.6338 22.917 12.5622 65.0198 92.6161 2
22.1279 13.2561 63.7708 48.0402 92.8847 82.9533 35.4946 89.2827 85.6669 69.2493 76.3487 51.258 87.8504 76.5114 43.542 28.0636 99.4682 27.3028 71.1368 47.4774 23.1037 4.93156 84.434 44.4541 42.081 42.0677 67.3711 54.6432 7.08753 59.9872 81.2833 29.2154 4
45.0541 77.2557 66.128 28.0075 12.7502 55.4107 13.6744 81.9995 31.7594 64.9324 69.8499 8.27075 8.4744 97.9135 7.73891 35.7772 69.0503 55.2163 58.8809 73.9818 39.6503 3.33505 16.0628 81.718 70.7062 70.706 88.8056 30.6933 51.9893 18.021 3.93662 97.0435 3
70.0646 25.0509 8.02688 25.4753 38.7253 90.0264 57.2346 3.65775 59.8763 65.5054 12.1321 57.7898 73.2443 47.9094 26.8401 28.4606 6.79031 0.821969 68.1109 10.1254 16.8848 49.829 80.8315 87.5908 38.6345 11.5248 39.5802 56.6555 15.4615 36.6236 51.9322 85.526 2
59.9591 11.0013 0.399942 49.9855 68.2359 4.05769 9.86182 33.7412 16.1898 67.6516 6.9855 64.0992 94.4918 35.4461 70.8895 95.3137 3.55699 81.0149 12.1985 53.3859 61.8464 99.7894 92.0205 73.3712 39.3695 48.676 88.8327 75.9932 0.608166 74.3587 37.6678 60.5672 4
38.0677 10.5527 53.5959 42.1254 20.4145 87.3371 58.3152 88.0662 94.3226 22.4144 82.5579 29.7687 93.304 77.8716 33.3257 74.3188 90.0702 86.7116 36.1652 89.8595 78.7321 9.53643 29.229 27.4081 98.3691 5.22219 28.0163 72.7278 42.8899 88.5835 58.0878 80.9576 0
11.6837 23.083 19.5507 99.0208 81.3983 7.61686 93.3435 3.81271 90.1748 23.1122 97.1167 68.0464 56.4379 71.4355 58.1166 43.1495 7.60069 47.9761 21.8816 17.1371 77.2051 49.2897 15.5062 82.4273 77.3059 88.2341 25.3172 65.8894 46.3219 6.27487 65.0256 58.0056 2
84.5763 57.0265 10.7562 92.1932 50.3699 14.5689 82.368 73.4821 11.6855 50.4144 29.9199 83.121 8.53091 73.0694 90.7217 56.507 94.951 7.85884 33.712 44.2407 23.3651 16.1393 21.5466 11.5992 41.4565 87.4361 57.9211 47.7314 52.4617 15.9268 77.0893 37.038 1
87.8455 29.2312 23.3232 2.41438 11.5992 96.8053 14.0999 62.0135 26.7252 97.221 70.5444 99.7946 87.9427 27.0514 94.7457 95.8015 60.7634 38.9863 19.1666 76.9027 60.533 30.7658 18.3593 47.969 88.6869 66.0907 0.43073 4.61361 43.18 37.4687 77.5668 31.0255 1
0.89003 33.4398 78.2991 97.6953 47.5398 40.3127 24.4205 44.7607 10.8571 24.2152 32.7034 37.9085 18.9608 28.5049 98.6719 57.9472 47.6715 75.5746 18.4801 78.4372 93.9339 66.4492 67.1241 60.0246 66.8799 71.7377 3.20454 4.34866 49.3046 34.23 71.0486 50.1946 2
49.3477 47.8899 15.2096 89.6604 72.3104 59.9703 0.517486 96.5256 92.6737 38.426 15.4864 21.1786 37.0979 73.4336 68.8501 12.6725 91.9137 47.2873 6.60645 58.3629 14.4114 66.631 25.2428 86.1491 69.8356 29.5915 35.4537 4.06556 0.640089 85.6483 71.7354 49.9878 3
86.945 39.6482 5.84861 46.9153 40.1657 2.3742 39.589 78.5917 17.8606 60.7676 15.6896 91.2942 29.6177 28.3621 83.2079 76.905 34.9686 41.5708 91.3164 1.59959 66.8136 77.4655 71.4352 96.4051 12.9192 75.5007 97.0452 98.5675 47.2361 47.033 32.1057 34.1811 0
37.9543 81.0964 26.8469 40.3285 20.6855 5.43859 58.1891 81.4531 21.1282 49.4833 11.0708 49.4903 32.6911 87.9757 84.4588 74.2619 79.2921 86.0584 41.0755 56.7577 57.4936 37.4806 69.6769 32.9943 34.5257 68.2444 80.2304 81.5587 0.350039 14.4115 68.2399 38.3043 4
95.0868 78.6328 16.1934 0.525361 36.8219 97.6465 21.6535 86.3052 8.71724 71.1438 18.9963 96.693 55.6026 93.2582 75.9851 41.661 34.3337 32.7428 99.1546 71.8143 2.41964 32.1489 6.33997 70.664 12.3793 87.8987 71.014 26.7908 56.1385 9.31836 22.2987 51.2253 4
38.4921 51.7507 24.7731 36.1386 73.4042 11.0783 44.8558 44.548 30.0746 41.5488 0.150586 23.3328 17.5339 41.8116 57.6666 50.2767 40.9662 29.4808 52.6964 73.1151 35.8208 23.3603 85.4944 23.7195 94.3744 12.2852 79.858 3.69274 34.5839 31.0833 91.6439 73.076 0
16.417 9.21459 56.2381 27.4953 54.0704 0.786068 57.5699 95.6192 0.936654 80.9028 13.1532 42.7483 38.5693 63.4299 83.7145 68.0502 16.1263 56.8296 3.87099 39.4866 42.324 27.5904 33.861 54.6092 7.44842 37.5537 89.1931 38.5317 29.1977 62.2691 21.3656 45.6147 2
77.6037 73.11 25.5541 78.3898 30.68 21.1733 79.3265 11.5828 34.3265 22.0747 50.1521 97.7564 5.78926 18.2023 13.8827 62.6189 22.0733 53.3693 4.94293 49.6637 87.2303 59.5521 57.1121 24.784 48.7452 95.6438 53.9817 11.0142 17.0095 99.5964 82.4979 94.6132 1
8.05193 73.003 3.3864 29.2252 52.3294 14.9692 63.5517 74.4042 65.1213 61.3081 80.1934 83.3236 75.1908 42.8123 5.39684 28.5601 47.7553 55.0606 15.7903 7.30737 12.1727 40.5743 56.0526 7.81653 94.556 67.0668 24.826 94.1524 49.5647 19.4392 66.8588 57.6166 4
70.2452 86.8418 44.7716 85.2143 50.3935 19.1758 50.3356 11.7016 99.3692 33.6592 86.8924 42.1815 39.056 15.4525 89.9368 94.1166 31.2428 97.2441 6.28925 71.8171 53.2967 14.1058 66.3731 20.3635 38.9318 60.5254 69.9281 58.3709 27.3842 27.5447 50.8131 97.6294 0
95.5847 82.8437 64.7801 14.7605 33.1793 76.4817 14.1296 66.8385 63.3741 56.3112 5.89449 78.8266 46.2479 0.0110461 10.0694 43.4921 6.3003 81.8865 96.7887 20.4061 48.2596 17.1522 59.3378 8.78506 87.0804 17.7088 36.1693 14.6251 68.5219 33.7987 29.0116 64.1066 0
93.7917 78.867 49.8217 70.2734 92.9967 16.6602 33.6475 49.3078 22.5547 12.4741 95.5557 22.5657 22.5435 39.0478 28.866 4.43003 35.8365 49.2721 52.6896 52.9888 8.60995 61.4747 40.0691 26.3187 97.644 54.6942 94.8406 31.4426 83.7058 58.9472 48.085 77.4975 3
97.9067 47.7709 30.8109 14.5669 81.4184 80.1187 37.1216 93.8925 75.6744 59.6874 16.4361 14.7222 88.5534 20.8661 50.5588 37.8255 73.5557 3.54754 46.4355 35.0304 43.6167 72.7542 32.6744 98.3109 67.5948 64.117 82.0168 26.542 12.2021 59.5143 64.3562 10.1088 1
95.1671 24.6757 88.7036 75.2858 61.7973 82.5961 50.9603 21.4847 99.0322 65.6825 10.0381 19.8983 16.2413 47.8636 93.454 19.7888 94.2991 28.4844 63.4055 67.0533 61.1588 61.7164 34.6481 25.2758 43.7332 61.1901 37.4779 3.24743 25.5463 47.5866 10.5326 20.7134 4
99.2362 95.9992 34.0597 81.8323 46.9595 55.5444 80.8645 12.642 65.5825 0.76274 28.8832 13.4461 94.2167 48.672 7.7452 22.7011 12.0775 74.7985 83.8599 73.7939 9.44653 9.13568 17.5271 70.6366 46.6135 20.7745 96.1829 94.2002 31.3071 16.8963 66.4625 30.5433 4
0.522236 12.3756 59.8549 56.0667 93.2401 72.4969 21.6492 94.0029 1.38012 35.0953 88.2196 50.0522 42.8405 10.9207 62.1297 17.639 94.7806 35.9236 27.0855 3.91624 53.4507 97.7221 50.5298 74.2252 93.905 44.73 5.53235 10.8013 11.1925 36.0757 23.6968 11.7147 3
83.5517 67.7814 41.6914 56.0486 89.4305 35.6943 57.4287 24.5258 23.9139 7.48088 67.3663 34.8346 69.6106 85.0053 29.6151 5.53418 12.0908 33.5314 58.9849 9.81285 84.0612 33.2101 3.71782 28.7911 38.7425 14.5191 39.9836 74.8181 38.2158 51.6983 23.2694 21.7675 3
64.9609 77.8162 8.91025 0.655184 35.2449 33.4361 24.5691 42.7258 0.802404 59.4036 12.3363 85.8077 89.0188 17.8705 97.8984 22.5501 76.8554 7.71129 6.6113 10.0655 11.4291 35.4024 48.808 25.9482 75.386 23.6261 64.164 27.0843 46.8955 85.9316 46.5641 11.8564 1
55.4743 12.5116 98.9926 88.9104 37.0807 41.7184 89.7128 96.4843 54.0547 75.5205 85.5031 71.9252 73.4189 8.0532 48.7806 81.1302 14.6645 58.8461 92.5593 50.0669 7.65407 18.5075 25.4529 31.2802 82.6715 52.5373 78.1757 68.6031 99.1013 90.0321 32.3509 54.5756 2
31.3435 43.486 39.6243 73.0619 33.1988 36.1086 27.1166 8.71925 21.6116 99.0418 82.1382 29.6648 47.8224 63.2683 44.3293 6.66855 55.8276 94.3962 14.3226 74.3351 19.8492 45.6028 57.0067 72.3864 23.7784 25.6098 71.4878 13.8105 57.9607 26.0634 16.3541 89.3041 4
55.9784 62.366 2.74816 92.087 89.4826 11.4674 13.6987 88.5244 93.6056 43.3635 36.3468 56.8739 87.6928 43.0154 12.7015 82.089 57.338 87.0367 1.9382 2.9408 44.0433 74.3246 26.7192 69.6531 45.8124 40.5297 27.6138 71.8758 56.8839 16.9179 41.4251 12.8623 3
44.1733 4.94935 68.7665 55.6407 18.648 57.291 49.2463 62.0115 93.6378 6.12017 49.7043 36.6532 18.8217 31.7933 93.9912 5.85837 33.7315 96.932 49.9017 8.05618 23.6513 19.5548 53.8686 64.181 47.1686 25.7443 21.0649 64.0866 67.1695 33.9272 43.3705 11.3428 3
12.1371 66.9835 57.5246 69.428 16.2298 19.5361 63.0658 22.3499 69.2404 99.719 41.1716 1.03372 93.7102 47.03 34.7653 90.6422 96.9317 42.8215 14.2935 16.4866 96.69 78.4745 63.6552 22.4344 99.5394 27.7418 89.6038 33.4666 71.1123 0.94661 72.3432 83.2493 0
29.8677 52.6773 84.1599 49.4038 15.7431 6.5098 18.6442 15.4621 47.6814 19.6779 9.17234 94.7114 54.4432 99.8146 91.6432 97.2646 14.1081 8.12973 93.9546 92.5825 71.7849 16.389 92.1219 99.5267 5.99284 25.5885 70.639 6.93945 97.9316 53.8883 74.8696 27.7994 4
59.0294 77.2032 22.3087 65.5392 95.8473 37.7709 13.2206 15.5252 46.9432 7.9321 69.9684 46.7578 99.5753 67.233 60.8658 7.705 61.1877 53.4484 79.4899 77.5767 45.5703 79.0166 83.5695 71.1588 49.6556 90.5089 69.0904 3.54387 65.3785 96.8898 10.1095 24.4079 0
32.4182 89.9471 69.9402 70.1891 3.16776 85.4655 17.1323 11.0999 55.4339 63.8901 10.6751 22.6669 24.756 18.3801 83.8545 78.2044 97.8701 61.4312 23.7746 76.8867 45.0007 94.9334 26.5423 35.5096 64.0238 30.0861 0.888084 60.9136 40.1956 25.296 35.0065 72.6139 3
4.94674 42.803 18.4108 90.4122 59.9353 29.5107 45.8461 23.8254 40.1858 68.5129 48.5814 58.5659 52.3674 26.7858 56.436 13.7986 50.5604 33.3227 58.7993 45.4938 59.865 94.3089 9.51765 89.9511 95.197 70.4312 30.1467 20.4929 5.43773 2.7606 35.736 10.3845 1
54.1469 0.79668 5.49889 83.6576 46.6427 29.3243 23.8434 15.1557 77.9057 82.4093 67.5231 4.6915 38.8453 81.3217 55.2519 72.168 40.121 0.745746 32.033 34.4299 10.2634 21.9841 29.6268 80.6946 52.1308 50.1198 86.1324 54.8914 85.8558 96.5168 0.45497 40.0027 1
5.95386 23.6602 43.9562 35.2782 47.5036 59.1119 13.1839 29.9129 26.635 17.8754 68.7583 7.95677 73.1273 40.9263 48.0778 73.8731 72.9592 82.5077 84.1365 94.9433 12.1345 64.8311 47.0741 62.2543 50.9634 1.96545 48.1101 47.4803 2.42042 88.1128 44.7938 8.37428 1
88.75 43.6525 59.2766 47.8619 56.8364 89.1896 74.497 74.7118 57.9478 82.4537 47.8391 98.8741 30.5315 21.7122 71.8333 13.0392 5.84866 66.7766 25.1737 70.6798 13.8507 87.428 21.6432 15.8161 35.5381 69.1235 18.2365 23.6508 13.9172 26.6108 35.4238 2.66723 1
94.7005 50.5292 27.0997 83.89 25.0261 1.81147 41.8379 7.47987 49.6506 40.712 38.0114 71.3628 12.5453 51.0505 77.2114 79.3219 76.2242 47.8912 93.1726 63.6522 69.5344 8.98868 99.1902 38.6579 27.2252 22.8411 52.5751 53.836 58.2649 55.2423 24.0993 52.9654 1
51.199 36.8554 30.7976 53.0105 78.6933 38.2775 2.66106 19.4053 76.2888 74.0238 31.9506 27.3394 51.2353 11.2725 3.5636 99.1265 4.44503 67.2158 68.6609 13.4337 66.406 7.31876 40.6589 89.2471 59.8938 94.495 47.512 15.1361 18.5943 0.477341 20.9076 69.7933 0
51.7052 22.8037 16.0261 89.9827 25.4648 35.4313 66.2716 99.4886 67.3819 93.6109 50.7239 78.6544 97.1745 49.8504 83.0994 64.3903 18.5113 96.5331 30.7963 25.8301 37.192 20.0434 85.7239 31.687 67.5553 0.860068 50.2812 68.0327 21.7677 20.0745 5.36545 73.4729 1
21.3915 63.4556 68.343 56.8228 29.7272 67.8317 24.2047 23.3381 18.5556 2.85907 20.5127 68.406 85.9585 84.903 86.9174 82.4915 15.6993 12.7475 19.6835 35.7427 98.4714 51.3705 3.29803 99.3314 1.65176 71.3307 21.0991 21.7263 76.6962 94.5721 64.6045 98.0877 4
32.9476 54.9105 87.7549 0.77924 79.1152 11.093 19.3349 81.9743 31.6057 87.7409 67.9327 16.5087 74.6583 50.4243 32.208 87.4057 70.1078 67.9507 85.8771 21.4783 71.2487 85.2085 23.1301 42.5794 6.30766 44.8564 19.2756 0.879717 9.46091 17.3632 58.9074 42.4085 2
46.6623 43.1877 51.389 57.7553 62.5226 33.3632 89.361 50.2635 1.29598 5.86962 24.9217 51.7203 38.0776 12.3274 21.8281 6.02827 98.2045 43.3064 77.277 83.413 66.4366 19.8564 89.7207 11.2929 39.132 90.6004 20.7539 56.4952 49.5078 63.1623 28.769 96.1701 2
80.1579 53.9254 68.8726 13.5211 43.2863 19.1361 14.8171 49.156 44.0578 66.5374 87.2336 56.3852 88.3655 93.2618 54.5898 31.6719 70.5388 38.0028 98.1085 90.3952 27.7235 9.40141 29.5272 18.3239 30.1553 86.0224 67.8318 93.3176 14.7913 64.0019 99.6676 94.9493 4
68.5403 8.4704 61.2136 87.6763 23.2875 10.3696 31.7341 89.8249 97.6032 88.1194 78.1904 90.865 42.7091 9.86232 61.4038 80.712 7.97079 51.799 8.43548 17.3722 81.3262 26.7594 47.5275 67.3486 94.5912 40.8451 82.14 58.5931 40.5127 77.0892 76.5203 9.05299 2
37.734 96.7293 8.84714 48.1035 28.4635 98.6721 45.7067 16.5829 76.8625 36.5717 59.292 86.7248 97.9755 40.004 94.6956 49.7745 48.4395 12.0678 31.1007 75.1989 59.5953 98.4493 69.7901 0.440325 80.5893 28.3831 40.953 57.6785 4.90348 50.006 43.2381 42.6374 1
52.0853 90.741 75.1989 50.7573 36.4477 91.7817 27.6198 73.0194 51.0738 14.3446 70.9949 91.0777 9.04013 20.7694 39.5172 21.1079 51.8702 14.7161 80.7031 50.3195 84.5061 81.1435 30.9088 12.8893 22.0965 88.5873 17.7928 72.1026 31.8254 60.4302 18.8379 83.9107 3
94.0368 34.668 87.6189 85.8186 62.2878 60.6382 36.8923 76.6323 31.6331 27.97 85.6725 52.4025 67.4872 6.78036 4.2727 82.2033 87.4835 54.5922 66.7095 68.627 85.501 79.5987 90.7235 74.0883 97.3915 62.8261 5.91374 57.8217 81.664 89.8244 8.9929 75.7008 3
96.6117 61.5194 86.7802 57.25 98.4117 63.4125 88.8831 26.3817 49.085 41.2856 93.869 55.8653 45.5583 76.0723 43.3489 0.150524 42.7818 11.9758 85.6515 22.3805 2.69936 59.7399 19.772 65.5254 65.6536 77.5938 47.1895 55.478 86.5867 22.8903 79.9704 83.1984 2
66.7506 40.4484 82.8214 30.1632 29.3315 9.20316 79.2482 70.6171 3.07215 35.1135 16.1754 79.1445 78.4624 16.326 21.9262 90.4382 1.97748 44.3068 93.1376 61.7173 64.0788 58.663 27.3709 41.6726 5.85251 82.8489 28.2592 28.7428 62.8194 11.4577 13.1525 29.57 2
95.974 59.7332 81.2375 5.17712 38.9814 51.8546 8.24927 74.0949 68.0301 87.3937 52.5573 84.356 9.31998 42.9955 86.3335 53.6268 36.1331 48.0508 17.7056 94.7961 75.4218 59.3782 0.648637 58.2707 87.6374 29.3915 21.0901 99.0951 42.544 50.6601 51.0011 38.518 4
32.2386 43.6951 49.3747 84.0933 51.9443 23.4696 52.1233 39.3381 76.0269 36.4794 48.6581 19.0224 22.8129 2.28483 55.1555 70.8637 19.9904 49.9516 46.2854 79.3686 50.6003 4.55616 67.006 79.9917 25.6463 66.1011 22.5357 76.3064 17.1022 61.0537 86.6997 49.3409 4
36.0745 33.4341 56.6931 59.5441 85.5575 96.0312 35.571 22.0368 44.6893 54.5934 44.8497 46.9741 9.74889 15.7134 66.9645 59.7005 61.9988 46.3331 10.3008 66.555 13.3391 90.2925 92.2012 79.4402 12.8283 68.5076 96.5424 73.882 55.2073 45.8833 78.6307 91.2818 3
35.3238 50.8259 64.8749 31.355 86.3969 86.9117 76.0443 40.9902 31.7614 23.0183 50.7391 47.4748 89.9828 10.4397 9.47359 36.3159 20.7404 76.0286 49.655 11.033 68.2298 29.0952 23.8612 36.7374 25.6377 97.7432 91.9447 71.521 76.3739 83.2265 50.8384 11.6977 3
15.7133 43.0527 20.4493 2.62504 19.097 61.4395 34.3865 42.1153 12.1786 81.8612 32.0981 22.6183 91.3348 68.414 43.3587 67.3634 18.0691 54.3917 35.5931 47.1643 78.2529 72.3305 72.802 75.9961 64.2753 44.323 52.37 47.5018 95.1614 64.0677 81.5542 10.8747 3
2.00342 13.4997 26.2174 63.4429 47.8862 68.3327 75.6215 29.7474 0.430776 98.2398 21.0822 68.8448 41.5985 88.4456 86.9139 95.9902 24.0387 34.0782 74.2431 96.3692 6.88017 50.2392 60.6445 51.2031 2.60922 8.14624 46.3645 66.6769 89.7004 57.2392 73.7973 91.7038 4
0.0146914 55.1467 18.625 68.3474 30.7683 48.3724 68.7781 29.0081 69.4546 37.6229 70.6066 57.9002 24.5368 66.5969 81.9389 58.615 40.84 78.3081 65.4952 91.0792 38.9525 16.6983 93.6885 47.0988 63.0628 60.3654 36.7992 20.302 34.1627 28.503 91.0408 34.1774 2
9.66587 2.52474 14.418 58.0383 71.3029 43.4261 27.4929 8.9258 14.0328 85.3931 33.4626 80.6296 67.3319 92.0776 21.4696 45.64 57.5728 12.5489 84.5925 74.2711 6.23732 31.6913 37.3339 66.6027 68.4904 57.6358 0.765389 96.9935 48.6767 34.9428 80.6432 58.3426 1
95.0613 16.3808 8.77038 38.4874 43.8737 17.6962 52.5202 29.2668 51.1588 33.1498 96.5987 43.2364 54.6195 42.2386 0.809177 67.1683 26.8311 75.0803 73.4057 58.5224 12.4141 40.0084 27.0129 70.05 40.7737 24.0063 18.7267 75.7165 4.64954 77.0692 13.184 99.7108 1
21.9544 38.1982 37.3238 39.6506 90.7184 66.5906 90.8094 23.8683 63.1892 34.0458 78.4877 5.42787 34.8549 45.6561 32.259 9.93521 19.0617 90.7814 22.3494 59.0701 17.7943 92.3993 99.8438 41.8006 11.126 75.5604 46.4501 88.1952 88.7444 46.1609 81.6453 10.6988 2
18.9691 50.3494 75.0776 85.5596 41.1587 98.9459 48.7489 75.2045 77.4336 54.1767 10.0595 23.0897 86.4357 19.9947 42.1515 77.2171 42.344 1.22157 95.0114 34.7434 1.06541 36.812 45.8694 76.6258 83.2621 34.0646 65.3701 29.423 15.7099 76.0689 13.7822 34.679 0
88.8598 20.2386 67.5771 87.8057 68.9875 42.7816 65.2394 23.1642 52.841 88.3291 9.59996 72.8357 30.4806 86.8171 15.1798 31.7021 81.8285 49.9231 32.7675 18.6405 95.7925 9.3933 1.90257 29.8571 74.7635 31.3256 45.567 50.8324 45.1078 80.246 77.2507 33.9676 4
44.8278 21.7734 69.4721 87.6094 87.0127 92.6364 40.4504 75.3418 2.23632 13.2861 5.82238 89.0534 28.4659 37.5245 70.8819 78.389 70.292 89.5224 74.1815 79.6853 91.425 4.03866 54.4488 22.7506 49.6057 5.28118 67.8584 29.8517 82.5319 1.82605 30.3363 27.3597 0
99.8085 14.969 10.6121 92.4448 55.4194 85.954 94.6812 68.7056 91.7763 83.7346 97.1714 29.3008 54.6165 75.5605 99.5929 44.1389 49.742 79.2782 35.5639 53.7807 33.727 58.3145 3.38636 39.0082 26.1729 33.2381 21.5401 27.9989 63.5744 48.8997 51.5984 63.3829 3
62.2105 55.8277 19.2882 48.1645 50.5089 87.9937 39.9408 34.2434 85.1652 69.2416 88.8599 60.7256 68.8345 32.9988 10.4677 48.1127 68.5627 64.2483 81.8397 26.8772 67.6347 20.8479 53.0501 0.872742 42.388 81.049 64.4471 91.2877 32.6474 27.83 55.1565 94.8579 1
74.4447 43.0223 34.1666 62.4384 82.9631 68.41 47.6036 52.2047 57.2699 8.3292 21.0392 90.2688 18.7969 69.152 58.8315 83.0452 50.9917 85.7087 50.6799 71.8396 38.7588 51.5526 14.2276 19.8079 15.9998 5.51537 52.4553 43.8298 60.6719 47.3132 27.4875 35.1165 0
61.6541 97.5549 73.2986 30.0641 45.1585 25.5034 87.3341 53.4877 46.5426 77.6029 72.2845 15.6946 36.4344 55.3297 66.6863 22.1431 6.00956 38.5259 60.9019 57.5622 52.7535 80.7098 73.5619 58.2689 33.1651 17.3917 18.9408 80.4783 44.8792 54.0573 70.8138 6.53332 0
44.1124 36.5974 96.7707 69.6158 23.9315 50.2583 16.1584 1.53437 22.5428 31.853 37.9687 77.8725 98.5393 60.1119 83.8821 37.0652 21.0138 41.4443 89.8187 1.72363 15.0062 48.0876 34.8887 32.3979 67.0284 15.367 77.2771 21.0857 86.1808 83.8104 72.6979 30.2932 2
69.4686 99.9089 44.3394 19.7269 16.0673 45.8737 42.2697 47.9203 83.8425 20.1423 46.4596 43.9543 4.02436 83.5247 64.9681 45.4686 73.3435 66.6917 60.4748 21.4311 1.58048 92.8727 88.4595 16.9475 70.1498 9.5452 3.12824 53.9602 82.2431 33.4214 74.368 51.7117 3
18.7074 71.4385 49.3977 64.5811 13.7083 97.318 48.4236 33.8505 43.7775 92.3779 37.8749 27.3023 57.346 83.3435 0.645752 24.0378 43.8183 22.0768 25.6182 36.691 10.5363 42.5657 6.84077 20.0815 45.694 60.8009 2.32464 79.1154 35.1689 54.0363 12.4457 53.8763 1
61.8434 18.4574 39.1831 59.1613 66.881 73.0336 2.93886 59.2589 10.9085 30.2411 16.6049 94.252 30.8869 40.6426 38.0703 52.9638 66.2609 74.7614 63.5001 8.82658 81.6021 83.5816 54.5205 42.4031 85.9063 33.6359 77.572 39.9426 46.0816 31.4483 65.4174 7.92494 4
4.60054 67.0863 16.7867 77.6342 70.0251 76.0455 88.5427 0.266283 92.6504 82.7947 31.1532 33.293 20.865 84.1169 99.5539 95.6264 47.617 8.38045 77.2285 31.1987 62.901 19.6316 17.105 96.5369 97.2036 57.0475 42.6185 28.6519 22.465 50.5434 78.5576 27.0655 4
95.3443 4.69969 87.6548 71.3898 93.2424 87.9211 64.0402 76.0371 19.0743 97.3332 96.9021 3.19121 96.8871 92.5285 50.8082 5.26751 69.757 82.0069 68.1685 89.3886 99.1119 64.7054 86.5922 56.1594 7.32382 15.2441 78.6244 57.8672 93.8017 5.68992 75.4969 89.1459 1
63.1517 60.5357 3.63198 51.0728 24.5759 79.6691 70.1471 21.9091 76.5712 73.3383 18.7961 69.0997 24.1465 24.0636 38.8567 6.15342 92.2321 28.2453 5.26529 56.9375 14.8375 61.4247 64.2613 30.0816 40.0491 22.1285 23.8832 45.739 97.6254 13.0291 56.1286 60.7771 1
59.7606 11.8499 98.1407 39.4297 81.997 20.0498 16.0009 55.3353 38.8459 85.1006 79.4818 62.9096 23.9573 85.6352 55.1417 52.2027 90.9005 12.0792 67.0402 52.3252 76.3405 97.1218 92.3743 98.4691 21.005 38.1133 96.0945 34.0341 94.2419 56.8716 7.59898 54.0026 0
5.73971 93.4322 50.7185 25.7895 9.4331 6.05377 64.6355 94.5337 85.5355 27.545 18.491 71.1707 82.6868 70.6937 62.0712 94.766 37.7339 14.3964 71.1065 34.8556 6.77069 69.5755 55.8606 44.884 65.67 89.8947 39.1259 22.5416 97.4937 93.1285 91.2632 3.23344 3
41.9817 29.023 95.9938 48.0354 93.6584 90.5275 33.571 21.2035 9.01847 4.74171 3.89024 79.7121 66.8129 98.6562 17.446 81.2093 69.7627 52.3016 87.98 39.3383 8.16223 32.864 5.00829 98.057 71.9899 27.5499 95.5507 65.1184 18.8131 98.7841 51.6791 60.7947 0
47.673 8.83015 21.4655 38.2004 42.4011 42.669 47.2189 47.1428 46.5592 26.931 13.9558 45.2155 44.377 95.1651 14.9782 96.6786 83.1451 54.3164 4.84087 16.0091 59.3247 2.89784 87.9991 86.8746 98.4485 53.1175 5.68771 97.2327 4.79666 66.4824 25.0398 52.4696 2
46.5053 90.6701 17.7137 89.1744 37.889 64.8565 35.7336 64.82 78.8123 80.9491 9.19704 73.9774 95.9272 5.87568 57.1225 50.2437 10.7165 73.1317 9.5684 13.6144 61.1308 96.443 12.0629 14.2483 2.13074 9.29564 19.045 68.6132 34.3354 71.5146 43.9258 80.8408 4
61.6395 70.0152 0.0736039 26.496 5.74876 64.8936 5.30831 86.6978 74.0907 79.2857 82.6251 79.9663 36.4083 32.8687 90.6829 9.53996 42.4371 4.29727 70.6707 38.8802 16.3602 84.9191 41.0109 25.6559 3.96402 9.62409 59.9913 75.4786 53.5498 40.8321 37.6632 15.1893 1
