10000 32
1.36305e+09 1.35321e+07 1.78809e+09 1.88489e+09 2.21848e+08 1.18205e+09 1.52926e+09 1.94571e+09 1.82724e+09 5.19333e+08 1.89736e+09 1.94673e+09 1.16657e+09 1.19806e+09 1.99883e+09 5.0964e+08 1.13007e+09 1.73091e+09 1.52042e+09 1.92254e+09 3.83813e+08 4.71419e+08 1.6e+09 1.66144e+09 7.05239e+08 8.00313e+08 4.19077e+08 1.91906e+09 6.19717e+07 2.13704e+09 1.27582e+09 1.42502e+09 2
9.16423e+08 1.16242e+09 2.24939e+08 2.09847e+09 5.44198e+08 2.31664e+07 1.77823e+09 1.06353e+09 1.92052e+09 1.57747e+09 8.26218e+07 9.71097e+08 1.42882e+09 5.92262e+08 2.10117e+09 1.01225e+09 2.11269e+09 1.87622e+09 1.39606e+09 4.36621e+08 1.32874e+09 9.1002e+08 1.14186e+09 2.12905e+09 1.3291e+09 9.13442e+08 4.3537e+07 1.31866e+09 4.17797e+07 1.46856e+09 1.32175e+09 9.58203e+08 2
1.54668e+09 9.09192e+08 1.0277e+09 1.56985e+09 5.3994e+08 2.09123e+09 1.34289e+09 2.11741e+09 2.63674e+07 1.66504e+08 1.39875e+09 6.18629e+08 1.20189e+08 2.63508e+08 5.83831e+08 1.99641e+09 1.65957e+09 1.02045e+09 1.17766e+09 4.22104e+08 1.48298e+07 1.15923e+09 1.7512e+09 9.28271e+08 1.20276e+09 9.22372e+08 9.70051e+08 5.23837e+08 9.66346e+07 1.92825e+09 1.00734e+09 1.64332e+09 3
2.03503e+09 1.06569e+09 1.2299e+09 1.97878e+09 2.61093e+08 1.19983e+09 2.00515e+09 4.27597e+08 4.51092e+08 4.76292e+08 5.47786e+08 7.146e+08 1.06012e+09 3.96711e+08 2.26684e+08 2.08058e+09 1.57437e+09 6.48788e+08 2.09541e+09 5.86114e+08 2.52505e+08 8.76194e+08 1.78888e+09 1.17488e+09 1.84625e+09 1.65231e+08 1.27151e+09 1.62702e+09 1.17257e+09 7.67348e+08 1.69495e+08 1.06012e+09 3
1.3994e+09 8.91413e+08 2.09413e+09 4.51744e+08 7.49076e+08 3.74241e+08 9.02837e+08 1.22537e+09 9.22027e+08 1.61744e+09 1.38008e+08 1.31874e+09 1.84412e+09 7.11005e+07 7.45625e+08 3.45426e+08 1.9023e+07 1.33174e+09 5.97931e+08 8.95217e+08 9.73132e+08 1.77281e+09 5.93978e+08 1.13836e+09 8.96837e+08 7.35104e+07 1.63446e+08 1.66419e+09 2.43005e+08 1.22356e+09 1.34974e+09 1.6424e+09 0
1.29638e+09 2.09415e+09 7.16568e+08 1.67062e+09 8.49499e+08 1.94194e+09 4.45164e+08 3.19453e+08 2.07994e+09 1.7639e+09 1.60908e+07 3.5605e+06 3.62043e+08 3.61517e+08 2.25835e+07 1.69378e+09 9.59448e+08 9.178e+08 5.19431e+08 5.84773e+08 1.51178e+09 1.65779e+09 1.48161e+09 1.58529e+09 1.82124e+09 9.98311e+08 1.82829e+09 8.9732e+08 2.00563e+08 1.32321e+09 8.64812e+08 1.49694e+09 3
1.58138e+09 1.02008e+09 2.11937e+09 1.37583e+09 1.46524e+09 2.91344e+08 1.30829e+09 1.08166e+09 3.07434e+08 1.31185e+09 1.4437e+09 6.68951e+08 1.33444e+09 9.90002e+08 1.6284e+09 1.04753e+08 1.50943e+09 6.56877e+07 1.61653e+09 1.01974e+09 1.5473e+09 1.05434e+09 6.935e+08 3.98126e+08 7.35147e+08 1.59082e+09 5.98689e+08 2.05836e+09 3.08148e+08 2.09563e+09 1.18075e+09 1.88953e+09 1
1.15264e+09 1.11788e+09 2.85988e+08 1.44398e+09 2.78685e+08 1.36765e+09 1.75142e+09 1.59054e+09 6.63868e+08 2.72887e+08 7.7749e+08 1.65387e+09 1.90129e+09 8.82243e+08 1.01582e+09 1.96697e+09 3.51291e+08 2.03556e+09 1.36679e+09 1.40563e+09 5.81578e+08 1.76491e+09 2.14077e+09 2.49139e+07 2.16118e+08 2.05165e+09 3.33062e+08 1.64266e+08 1.08492e+09 7.51056e+07 1.13249e+09 9.00756e+07 3
1.41848e+09 1.53406e+09 1.47167e+09 6.38647e+08 1.138e+09 9.1472e+08 1.30252e+09 1.41088e+09 1.69221e+09 8.08902e+08 1.16468e+09 4.26969e+08 1.82472e+09 9.84174e+08 7.7826e+08 1.7128e+09 2.03477e+08 3.64037e+07 1.46895e+08 1.96839e+09 2.96949e+07 1.71809e+08 3.70244e+07 2.08135e+09 5.0487e+08 2.01291e+08 1.01878e+09 5.79976e+08 1.33379e+09 1.10886e+09 1.77296e+09 6.04784e+08 3
1.09714e+09 1.24343e+09 1.63343e+09 2.01186e+09 3.98463e+08 8.96828e+08 1.55659e+09 1.20737e+09 2.06151e+09 1.98356e+09 8.84603e+08 8.98202e+08 6.14333e+08 4.4992e+08 1.10168e+09 6.50736e+08 5.96815e+08 9.22586e+08 6.80431e+08 7.68624e+08 9.5961e+08 6.14293e+08 1.27349e+09 1.1609e+09 1.63307e+09 1.85347e+09 3.47203e+08 5.94445e+08 1.47894e+09 9.51987e+08 1.08988e+09 4.28601e+08 0
5.75822e+08 2.92979e+08 4.46398e+08 1.47265e+09 1.84957e+09 1.65376e+09 1.38668e+09 1.68564e+09 3.90883e+08 1.37397e+08 1.52488e+08 8.40803e+08 1.23908e+09 8.03224e+08 1.43762e+09 1.41789e+07 1.48366e+09 5.87572e+07 9.73789e+08 2.09795e+09 1.33225e+09 2.13469e+09 1.58354e+09 1.03824e+09 3.34409e+08 3.04993e+07 3.69698e+08 1.2864e+09 1.12038e+09 7.983e+08 1.33433e+09 1.6962e+09 1
1.78073e+09 1.02137e+09 7.93361e+08 1.28701e+09 2.60561e+08 3.31516e+08 1.67789e+09 3.97958e+08 4.84003e+08 3.71209e+08 1.63704e+09 1.28723e+09 1.80883e+09 1.65121e+09 6.23399e+08 1.86758e+09 4.7752e+08 5.73864e+08 1.05235e+09 4.64726e+08 9.91792e+06 2.09059e+09 7.99135e+08 4.04172e+07 3.12803e+08 2.08553e+09 1.16079e+09 1.1111e+09 1.27238e+09 7.0951e+08 5.48977e+07 9.05621e+08 2
8.48258e+08 4.51445e+07 1.99144e+09 1.17977e+09 1.72303e+09 2.41911e+08 1.66378e+09 2.09424e+09 1.87895e+09 8.0352e+08 1.75559e+09 1.38268e+09 1.42692e+09 1.47569e+09 1.8602e+09 2.00078e+09 3.80552e+08 1.77439e+08 2.0107e+09 3.23657e+08 9.76574e+08 2.05112e+09 6.3646e+08 9.14621e+08 1.06443e+09 1.74756e+09 3.95141e+07 1.77394e+09 1.80246e+09 9.45135e+08 1.35733e+09 5.03236e+08 1
1.20128e+09 1.68301e+09 5.6583e+08 1.44319e+09 1.1993e+09 5.1259e+08 1.17466e+09 2.00282e+09 1.20691e+08 4.0985e+08 1.28226e+09 1.59638e+09 1.22563e+08 1.13556e+09 1.97693e+09 3.00002e+08 9.98774e+08 1.53102e+08 1.27658e+09 9.02409e+08 7.89563e+08 4.37129e+07 1.96684e+09 3.89642e+08 8.3227e+07 1.59329e+09 4.46199e+07 1.02836e+09 8.03137e+08 5.47856e+08 2.01864e+09 2.00442e+09 3
4.36988e+08 1.30013e+09 1.28268e+09 9.49578e+08 3.27301e+08 1.13802e+09 1.07027e+09 7.37151e+08 2.72799e+08 5.19162e+08 8.59714e+08 1.40836e+09 3.48607e+08 1.15972e+09 2.59647e+08 5.01709e+08 2.88808e+08 1.16206e+09 1.29127e+09 3.32521e+08 9.81408e+08 1.68091e+09 4.15748e+08 4.27216e+08 1.72553e+09 1.44411e+09 1.23035e+09 1.25906e+08 1.31527e+09 1.08729e+09 2.09288e+08 1.75226e+09 0
1.49197e+09 5.54351e+08 5.67234e+08 4.82512e+08 1.62462e+09 1.30438e+09 7.55311e+08 2.14378e+09 1.66145e+07 1.61834e+07 3.44906e+08 1.17633e+09 2.7583e+08 8.46616e+08 1.46514e+09 1.43789e+09 2.13789e+09 1.79766e+09 2.71811e+08 1.67132e+09 6.59224e+07 6.99026e+08 1.24937e+09 1.51003e+09 1.92938e+09 1.37527e+09 6.77817e+08 8.69182e+08 1.58456e+09 2.82589e+08 1.10911e+09 9.29051e+08 1
1.67635e+09 1.41156e+09 3.14077e+08 8.33249e+08 1.93907e+07 3.10376e+08 8.49863e+08 3.55741e+07 6.55283e+08 2.02619e+09 3.11404e+08 1.5019e+09 1.34385e+09 1.74929e+09 1.4923e+09 9.94022e+08 2.0211e+09 1.01614e+09 1.05994e+09 5.72643e+08 1.18021e+08 4.22493e+08 3.54538e+08 1.4933e+09 1.10031e+09 1.22372e+09 9.30375e+08 1.3829e+09 1.85351e+08 1.85943e+09 7.23561e+07 1.8617e+09 3
3.86433e+08 5.47464e+08 1.1429e+09 6.9681e+08 1.39733e+09 1.17847e+09 1.35209e+09 1.27604e+09 1.48987e+09 7.06506e+08 4.72401e+08 1.09168e+09 5.13247e+07 1.46642e+09 9.65298e+08 1.06746e+09 3.78884e+08 1.53794e+09 1.18548e+09 8.01378e+08 1.89248e+09 5.31294e+08 1.90169e+09 9.68716e+08 1.46167e+09 1.1371e+09 1.15407e+09 1.17361e+09 1.20946e+09 8.68282e+08 1.49634e+08 1.59589e+09 1
1.29253e+09 1.45219e+08 6.65589e+08 3.23517e+08 1.49731e+09 1.94163e+09 1.81339e+09 5.63335e+07 2.66542e+08 7.5759e+08 1.07658e+08 1.73297e+09 1.72289e+09 1.17512e+09 2.11185e+09 1.11335e+09 2.13117e+08 7.65744e+08 8.58342e+08 7.44412e+08 5.19948e+08 1.82706e+09 5.85975e+07 1.65705e+09 8.33641e+08 1.23221e+09 7.19027e+08 1.70192e+09 1.38184e+09 1.67436e+08 9.70184e+08 5.26889e+08 1
1.63577e+09 8.50407e+08 1.80997e+09 1.42991e+09 5.16315e+08 1.8663e+09 1.69646e+09 1.27391e+09 1.97396e+09 1.28194e+09 8.4931e+08 1.00159e+09 1.24631e+09 1.96266e+09 1.21471e+09 2.01205e+09 6.73515e+08 1.95912e+09 3.84514e+08 3.5309e+08 2.01772e+09 2.04156e+09 1.18673e+09 1.10244e+09 6.13108e+08 7.4117e+08 3.36804e+08 7.80544e+08 1.71135e+09 8.63693e+08 1.0932e+09 1.19964e+09 0
7.5568e+08 4.82075e+08 8.29312e+07 4.74496e+08 3.10481e+07 1.35684e+09 3.00969e+08 1.31299e+09 5.86625e+07 1.30256e+09 4.11809e+08 2.02132e+09 3.69787e+08 2.76375e+08 5.4735e+08 1.81425e+08 6.60888e+08 9.0044e+08 5.16603e+07 5.5497e+08 2.08717e+09 1.1541e+09 1.16808e+09 6.80856e+08 1.49091e+09 1.94862e+09 2.44727e+08 2.07118e+08 8.94337e+08 1.44437e+09 1.92122e+09 1.65002e+09 1
2.00415e+09 2.12451e+09 1.95749e+09 1.2135e+09 2.77999e+08 1.123e+09 1.27216e+09 1.58056e+09 1.53481e+09 1.146e+09 1.95035e+09 1.81118e+09 1.69335e+09 2.13177e+09 3.24585e+08 4.46305e+08 3.59482e+07 8.79555e+08 3.85992e+08 1.19005e+09 2.04763e+09 1.06685e+09 5.33478e+08 1.84877e+09 1.31157e+09 7.40596e+08 5.95625e+08 6.08461e+08 5.1433e+08 9.81594e+07 3.87422e+08 3.70995e+08 3
1.9743e+08 1.5845e+09 3.53188e+08 1.32043e+09 7.09177e+08 1.93375e+09 7.07748e+08 1.85518e+09 1.73661e+09 3.71445e+08 1.40104e+09 1.7209e+09 6.9603e+08 1.84735e+09 1.75685e+09 1.57558e+09 8.58556e+07 7.99416e+08 1.47573e+09 1.1527e+09 1.33289e+09 1.17702e+09 3.16795e+08 2.07349e+09 1.77265e+09 9.25256e+08 4.40336e+08 1.87081e+09 1.31268e+09 8.11331e+08 1.94599e+09 1.51011e+09 2
1.51699e+08 6.83051e+08 9.57521e+08 2.08545e+09 1.3908e+09 6.65214e+08 1.67457e+09 1.76224e+09 2.06626e+09 1.24799e+09 3.10791e+08 1.76612e+09 8.5735e+08 1.88638e+09 1.85197e+09 1.65677e+09 1.21463e+09 8.57195e+08 8.42176e+08 2.44163e+08 1.17399e+09 7.68182e+08 2.01681e+09 2.09925e+09 1.20852e+09 1.74013e+09 1.26444e+09 2.01985e+09 1.53864e+09 6.27064e+08 1.2071e+08 1.69034e+09 2
1.07823e+09 1.6283e+09 5.53431e+08 1.74344e+09 1.15539e+09 1.68191e+08 1.66222e+09 2.55897e+08 4.78982e+08 1.28085e+09 1.11325e+09 2.17874e+08 9.85344e+08 6.2253e+08 1.4325e+09 1.84254e+09 1.46471e+09 1.67666e+09 8.69045e+08 8.54046e+07 1.54599e+09 8.20807e+08 1.29392e+09 1.13863e+09 2.08525e+09 1.16629e+09 5.29793e+08 5.64827e+08 1.287e+09 7.26508e+07 1.87494e+09 2.17745e+08 0
2.80889e+08 1.96119e+09 7.08864e+08 4.49081e+08 1.47592e+09 9.64761e+08 9.28063e+08 6.09292e+08 2.07801e+09 1.14594e+09 1.59464e+09 5.53055e+08 4.30953e+08 1.28969e+09 2.01776e+09 2.10761e+09 1.12523e+07 2.10317e+09 1.50612e+09 8.3206e+08 1.2496e+09 4.9727e+08 7.69823e+08 2.68409e+08 1.02706e+09 1.33465e+09 1.55541e+09 1.09971e+09 1.06211e+09 1.77315e+09 6.53185e+08 1.343e+09 1
1.36205e+09 1.79208e+09 9.15299e+08 1.79327e+08 5.72657e+08 1.52459e+09 1.09852e+08 1.71859e+09 9.71743e+08 6.62906e+08 2.06314e+06 1.1395e+08 5.33184e+08 2.10968e+09 1.25203e+08 4.88865e+08 1.46831e+09 9.57262e+08 1.73847e+09 1.96558e+09 1.72709e+09 2.00688e+09 8.45163e+08 9.14251e+08 1.4148e+09 1.94488e+09 1.97636e+09 1.04047e+09 4.50579e+08 1.17187e+09 4.79847e+08 1.81263e+09 3
1.39515e+09 1.99196e+09 1.38913e+09 7.72253e+08 2.10181e+09 9.60236e+08 1.744e+09 6.1723e+08 9.62299e+08 1.85795e+09 1.15041e+09 9.24493e+08 1.98315e+09 1.63928e+09 2.45323e+08 7.92927e+08 1.23026e+09 6.34225e+07 3.72529e+08 1.08966e+09 9.08586e+08 1.28678e+09 3.56978e+08 7.05979e+08 1.11566e+09 1.39745e+09 1.15656e+09 1.40046e+08 1.8773e+09 8.21703e+08 9.56514e+08 1.12496e+09 2
1.98156e+08 1.89721e+09 6.20498e+08 1.15839e+09 1.49372e+09 1.23773e+09 2.12069e+09 1.20418e+09 2.40658e+08 8.97701e+08 1.03985e+09 1.87994e+09 1.14302e+09 1.83278e+09 9.62717e+08 1.20645e+09 5.78222e+07 2.05238e+09 2.11503e+09 1.3446e+09 2.6187e+08 6.73528e+08 3.12775e+08 1.65932e+09 1.83009e+09 4.52821e+08 1.38913e+09 5.04305e+08 1.40934e+09 3.66605e+08 1.17048e+09 1.60749e+09 3
1.79098e+09 6.184e+08 1.61005e+09 8.81223e+08 5.91607e+08 6.66754e+08 1.12188e+09 1.48931e+09 1.7066e+09 8.54333e+08 4.84848e+08 1.3919e+09 1.81705e+09 1.69129e+09 1.44972e+09 1.72194e+09 1.65884e+09 6.46839e+08 1.98381e+09 1.84886e+08 9.59614e+08 1.49565e+09 2.01497e+09 1.41243e+09 7.37296e+08 3.71793e+08 6.74287e+08 1.1039e+09 1.54227e+09 1.34294e+08 1.22023e+09 1.18577e+09 2
6.82801e+08 2.06699e+09 1.3443e+09 1.34956e+09 1.04139e+09 6.86125e+08 9.08677e+08 1.89572e+09 1.17097e+09 1.53091e+08 1.56529e+09 7.14783e+08 1.60281e+09 1.13975e+09 2.26141e+08 1.02166e+08 9.76074e+08 4.11026e+08 1.06178e+09 3.24238e+08 2.78514e+08 3.26731e+08 1.06153e+09 6.50308e+08 1.00102e+09 1.79509e+07 4.50978e+07 1.13531e+09 1.23818e+09 1.23087e+09 1.88801e+09 1.92098e+09 1
1.08482e+09 1.12306e+09 4.42784e+07 1.77095e+09 2.03173e+09 1.94e+09 7.94437e+08 3.734e+07 1.3578e+09 1.50922e+09 1.64015e+09 3.50063e+08 1.73536e+09 1.74232e+09 1.32614e+09 2.14639e+09 6.56612e+08 1.65038e+09 2.77417e+08 9.83343e+08 5.64426e+08 9.27725e+08 1.98436e+09 5.82377e+08 9.72823e+08 9.72188e+08 1.82056e+09 5.62056e+07 7.12711e+08 1.59406e+09 1.20658e+09 1.79753e+09 2
1.25086e+09 1.421e+09 4.53882e+08 1.04337e+09 6.7952e+07 4.91222e+08 2.53692e+08 1.57717e+09 2.13137e+09 6.03755e+08 1.16505e+09 1.72621e+09 1.92989e+09 1.16395e+09 2.35334e+08 1.43278e+09 1.44137e+09 1.21868e+09 1.99721e+09 2.2161e+08 1.05555e+09 4.32104e+08 1.19443e+09 2.02774e+09 1.0518e+08 1.25064e+09 5.92969e+08 1.69924e+09 3.09735e+08 2.4302e+08 1.2139e+08 1.56059e+09 0
5.75272e+08 4.56483e+08 1.73197e+09 1.06649e+09 7.10175e+08 1.16166e+09 1.05038e+09 1.31393e+09 1.79223e+08 6.29106e+08 1.09634e+09 1.34317e+09 8.6444e+08 3.81641e+08 6.37059e+08 2.08312e+09 2.31368e+08 8.58669e+08 9.91188e+08 6.63472e+08 2.0531e+09 8.71446e+08 7.68653e+08 1.15626e+09 1.46442e+09 3.2041e+08 1.46599e+09 1.70744e+09 4.418e+08 8.79101e+08 1.22397e+09 1.01707e+09 3
8.08456e+08 2.08357e+09 2.04576e+09 1.97011e+09 9.86466e+08 1.21221e+09 1.85312e+06 1.61557e+09 1.61061e+08 1.34503e+09 3.32529e+08 5.42702e+08 1.98209e+09 2.68162e+08 7.7407e+08 6.93272e+08 1.25935e+09 1.43754e+09 5.98891e+08 2.1308e+09 5.87115e+07 1.75515e+09 1.44773e+09 3.79121e+08 1.07366e+09 1.00768e+09 8.20921e+08 1.95276e+09 8.41656e+07 1.83799e+09 1.14086e+09 8.92622e+08 2
1.03913e+09 7.15252e+08 6.13058e+08 1.03854e+08 7.17105e+08 8.11459e+07 2.64915e+08 2.06213e+09 4.13675e+08 8.07617e+08 1.89674e+09 6.81837e+08 1.58169e+09 4.42523e+08 1.94119e+09 8.71745e+08 1.04141e+09 1.9245e+09 9.30456e+08 6.49078e+08 1.22474e+09 1.30958e+09 1.72273e+09 8.49401e+07 2.1305e+09 1.52801e+09 1.69106e+08 1.82101e+09 5.21381e+08 1.06173e+09 1.4476e+09 1.56051e+09 3
2.06066e+09 1.66437e+09 3.466e+08 2.1418e+09 1.92928e+09 2.61249e+08 4.07993e+08 5.89414e+08 1.05005e+07 1.08983e+09 2.36168e+07 4.53024e+08 8.83533e+08 8.95362e+08 1.49444e+09 6.60549e+08 1.82582e+09 2.14352e+09 1.88529e+09 9.87912e+08 1.71877e+09 1.97023e+09 9.70927e+08 1.09929e+09 2.13934e+09 6.44451e+08 1.62067e+09 1.05358e+09 2.09205e+09 1.0337e+09 6.83078e+08 2.00522e+09 0
1.02968e+09 1.99954e+09 3.32381e+08 1.29093e+09 2.60051e+08 9.21795e+08 1.30143e+09 1.34988e+09 9.45412e+08 1.75445e+09 8.59311e+07 1.84077e+09 1.10141e+09 7.4648e+08 1.51911e+09 1.09744e+09 4.8429e+08 3.59537e+08 6.68722e+08 3.0704e+08 1.33046e+09 1.76801e+09 2.98895e+08 1.97491e+09 1.2412e+09 1.35248e+09 1.91948e+09 1.27417e+08 2.03556e+09 1.77722e+09 6.78e+08 9.17751e+08 2
1.01038e+09 6.11952e+07 1.88933e+09 1.93218e+09 1.36262e+09 1.09173e+09 7.30104e+08 9.69592e+08 1.17766e+09 4.23394e+08 2.071e+09 1.92414e+09 1.9425e+09 1.02095e+09 2.60945e+08 1.54555e+08 1.68968e+09 5.67984e+08 1.48502e+09 1.31021e+09 8.6688e+08 1.31245e+09 4.03922e+08 7.1874e+07 1.08445e+09 5.31339e+08 2.10743e+09 7.14183e+08 1.20934e+09 8.77697e+08 1.95978e+08 7.22358e+07 2
2.08531e+09 2.00441e+09 1.54032e+08 1.02955e+09 5.87032e+08 1.12362e+09 5.97244e+07 1.01043e+09 1.04714e+09 1.98386e+09 8.05444e+08 2.06809e+09 9.73238e+07 9.59998e+08 1.61029e+09 6.65308e+08 2.97533e+08 7.73009e+08 1.53219e+09 1.60998e+09 1.17693e+09 1.60406e+09 5.46945e+08 1.70827e+09 1.56401e+09 1.26113e+09 7.70125e+08 2.94222e+08 1.45711e+09 8.4236e+08 1.23311e+09 1.39493e+09 1
1.38715e+09 2.76995e+08 1.28632e+09 3.63288e+08 3.3672e+08 1.49262e+08 1.41043e+09 1.73099e+08 9.54705e+08 1.33104e+09 2.70423e+08 1.9147e+09 7.93842e+08 9.35731e+08 6.47528e+07 1.56685e+09 3.20435e+08 1.67473e+09 5.96298e+08 1.9245e+09 7.41964e+07 1.57084e+08 1.34102e+09 1.33532e+09 9.27209e+08 1.63524e+09 6.44947e+08 1.76957e+09 7.20876e+08 2.03988e+09 3.21374e+08 2.10802e+09 0
1.60769e+09 3.23828e+08 5.06107e+08 1.75696e+09 1.73426e+09 6.79206e+08 5.64178e+08 9.17811e+08 9.49629e+08 3.31398e+08 1.71165e+09 1.88536e+09 3.9615e+08 1.13102e+09 5.83114e+07 2.07089e+09 1.72732e+09 1.98281e+09 2.14508e+09 1.8844e+09 1.17635e+09 1.33292e+09 6.64129e+08 6.64108e+08 1.97787e+09 2.86215e+08 1.38498e+09 1.87026e+09 6.07589e+08 1.34552e+09 2.03965e+09 6.77992e+07 0
3.98273e+08 1.82476e+09 1.25612e+09 1.07748e+09 2.41449e+08 2.64514e+07 2.02711e+09 5.72847e+08 1.7381e+09 1.76498e+09 9.68997e+08 7.21642e+08 1.8233e+09 8.92399e+08 3.01477e+08 1.65862e+09 8.89997e+08 3.83974e+07 6.87485e+08 7.54361e+07 7.02526e+08 1.35159e+09 2.05331e+09 9.88741e+08 5.89093e+08 1.77608e+09 1.59633e+09 1.93462e+09 1.66825e+09 1.66413e+09 1.45648e+09 2.06652e+09 2
5.65124e+08 9.96519e+08 1.58285e+09 5.91575e+08 8.76144e+08 8.2128e+06 1.82196e+08 4.93645e+08 9.7721e+08 9.03838e+08 1.69457e+08 1.86961e+09 1.20532e+09 1.82808e+09 6.12122e+08 1.24371e+09 3.68079e+08 6.87558e+08 1.94624e+09 1.71967e+09 5.9338e+08 7.87497e+08 1.61281e+08 2.21981e+08 2.36343e+08 2.0959e+09 1.89023e+09 1.90047e+09 1.4049e+09 1.80927e+09 1.09439e+09 1.97002e+09 0
5.29755e+08 4.14111e+08 1.53445e+09 5.37968e+08 5.96307e+08 2.0281e+09 1.51518e+09 1.50015e+09 5.0069e+07 1.2373e+09 5.57977e+08 1.87815e+09 1.84942e+09 1.80169e+09 9.8743e+07 3.89499e+08 1.60045e+09 1.81841e+09 9.8288e+08 2.40459e+08 1.9797e+09 1.20486e+09 4.76802e+08 1.92811e+09 9.47608e+08 2.2979e+08 1.18552e+09 6.09395e+08 1.32418e+09 1.00806e+09 1.2677e+09 1.85393e+09 2
6.54668e+08 2.44418e+08 2.01848e+09 5.3528e+08 1.7596e+09 1.37114e+09 5.85349e+08 8.49415e+08 1.92911e+09 3.16013e+08 5.51356e+08 1.58332e+09 4.14756e+08 9.40855e+08 1.03628e+09 8.56868e+07 1.92373e+09 1.27674e+09 2.06538e+09 9.81112e+08 1.75354e+09 1.84601e+09 1.92872e+09 1.98333e+09 8.84044e+08 3.90632e+08 1.16003e+09 1.8921e+09 1.65833e+09 8.66478e+08 1.16678e+09 1.65518e+08 1
1.03778e+09 7.00798e+08 7.23008e+08 2.6143e+08 1.28615e+09 1.57242e+09 4.30601e+07 1.60216e+09 2.12378e+09 1.62638e+09 2.01691e+09 9.1715e+08 5.1518e+08 2.1026e+09 6.93401e+08 1.79192e+09 2.0205e+09 1.67451e+09 1.39798e+09 1.71902e+09 1.45575e+09 1.23383e+09 4.55583e+08 1.84638e+09 2.46375e+08 2.002e+08 1.35723e+09 1.11285e+09 1.36699e+09 1.52275e+09 7.62654e+07 2.57278e+08 2
7.99273e+08 5.18708e+08 1.36221e+09 2.24212e+08 5.61768e+08 8.16884e+08 2.00507e+08 4.06647e+07 6.86315e+08 1.11766e+09 5.55844e+08 6.41433e+08 1.81106e+09 2.00282e+08 5.1445e+08 1.33809e+09 1.59826e+09 8.59897e+07 6.46353e+08 6.84608e+08 5.41573e+08 3.4525e+08 9.30983e+08 7.41774e+08 1.70248e+09 2.04384e+09 2.10876e+09 1.07775e+09 2.1201e+09 2.18553e+08 1.15381e+09 7.71891e+08 2
3.68532e+08 9.96103e+08 1.29903e+09 1.18542e+09 1.19661e+09 1.33969e+09 1.87173e+09 1.66782e+08 1.89554e+09 3.65681e+08 1.97784e+09 2.09582e+09 8.80131e+08 1.16844e+09 1.5466e+09 9.6612e+08 1.8148e+09 8.37224e+07 1.50769e+09 1.25622e+07 1.01471e+09 1.01983e+08 1.71504e+09 9.11057e+08 6.32585e+07 6.45304e+08 8.83675e+08 2.81812e+08 1.79911e+09 1.65557e+09 1.01907e+09 2.01593e+07 2
1.70618e+08 1.20558e+09 1.70079e+09 1.51031e+09 9.29822e+08 1.86758e+09 1.25837e+09 1.2955e+09 1.69793e+09 1.2067e+09 2.81498e+07 7.18893e+08 6.05816e+08 9.9427e+08 3.86205e+08 6.89538e+08 3.5448e+08 3.98767e+08 1.70424e+09 4.56463e+08 2.11381e+09 4.67817e+08 5.19722e+08 6.1163e+08 1.35149e+09 8.01533e+08 2.63258e+08 8.59574e+08 1.82061e+09 2.83417e+08 1.36376e+09 1.99122e+09 1
9.1707e+08 1.35405e+09 2.71331e+08 6.37164e+08 4.64934e+08 1.56683e+09 1.87614e+08 1.67164e+09 1.59498e+09 9.06506e+08 1.29968e+08 4.4177e+08 1.29271e+09 8.19506e+08 7.9625e+08 1.69148e+09 3.76265e+08 1.25271e+09 1.6578e+09 8.44082e+08 1.77243e+09 1.21952e+08 4.80898e+07 4.26484e+08 3.8521e+08 9.07664e+08 9.96069e+07 6.68627e+08 1.23939e+08 2.09083e+09 1.01354e+07 1.04101e+09 1
2.81466e+08 1.67817e+09 1.76233e+09 1.8483e+09 1.86579e+09 1.28649e+09 1.2958e+09 6.24809e+08 1.41645e+09 1.73757e+09 1.91752e+09 8.84756e+07 3.86336e+08 1.46151e+09 4.64741e+08 1.63905e+09 9.71836e+08 1.30882e+09 1.264e+09 1.09379e+09 1.35691e+09 1.69048e+09 1.479e+09 1.17092e+08 1.79009e+09 140165 2.41031e+08 1.73344e+09 1.02756e+07 1.28204e+09 8.83355e+08 2.91742e+08 2
4.98205e+08 2.14004e+09 5.31032e+08 1.78469e+09 1.28836e+09 1.15584e+09 1.05366e+09 8.78445e+08 9.25877e+08 1.14214e+09 1.26478e+09 2.39908e+08 1.60688e+09 7.56347e+08 1.21174e+09 7.68216e+08 2.02035e+09 1.58048e+08 2.12513e+09 1.56335e+09 1.63705e+09 9.47371e+07 1.20596e+09 1.63719e+09 3.35768e+08 7.91911e+08 1.64746e+09 1.61781e+09 1.67527e+09 1.9392e+09 2.83054e+08 2.59874e+07 0
8.14085e+08 1.81068e+09 1.07264e+09 1.96993e+09 7.16856e+08 1.95108e+09 7.48319e+08 1.85899e+09 1.06838e+09 9.88227e+08 1.31839e+09 1.82473e+09 5.24881e+07 2.0866e+09 1.69759e+09 2.10536e+08 2.06425e+09 1.11346e+09 1.84758e+09 1.15003e+07 1.71929e+08 1.33728e+09 3.47269e+08 9.6384e+08 8.3726e+08 1.96508e+09 4.91623e+08 6.2898e+08 1.00647e+08 5.1761e+08 4.13258e+08 9.14733e+08 1
1.48589e+09 7.37175e+08 8.97661e+08 1.28949e+09 1.48549e+09 6.09169e+08 2.10389e+08 3.26238e+08 1.92756e+09 2.03512e+09 3.78726e+08 1.86667e+09 1.58522e+09 5.89262e+08 1.78344e+09 5.51198e+08 2.8936e+08 1.79494e+09 7.23127e+08 1.62664e+09 2.14221e+09 1.68697e+09 3.1642e+08 1.9598e+09 3.11064e+07 9.454e+08 2.06045e+09 5.48717e+08 1.35866e+09 8.27695e+08 7.29522e+08 6.97068e+08 1
1.62718e+09 1.98656e+09 9.0288e+08 8.88681e+07 4.94668e+07 1.22912e+09 2.01642e+09 2.08458e+09 1.60784e+09 1.73561e+09 1.52233e+09 4.96221e+07 1.37157e+09 2.07352e+09 3.38982e+08 1.01902e+09 6.49166e+08 1.96563e+09 1.01374e+09 1.8865e+08 1.34561e+08 8.26056e+08 2.19756e+08 1.07996e+09 7.39019e+08 7.68473e+08 2.91135e+08 1.56671e+09 1.49799e+09 9.88203e+08 9.841e+08 9.77693e+08 2
1.88698e+09 1.06656e+09 8.76748e+08 9.68614e+08 9.35501e+08 8.13848e+08 4.28974e+08 5.2363e+08 1.88689e+08 4.78596e+08 1.8952e+09 1.14728e+08 8.17578e+08 7.66732e+08 7.63895e+08 6.35719e+08 1.78047e+09 9.52544e+08 7.70281e+08 4.59046e+08 1.1723e+09 1.85024e+09 1.19806e+09 1.94077e+09 2.14138e+09 6.17295e+08 1.29128e+09 9.82096e+08 1.60139e+09 1.21494e+08 1.80938e+09 1.34089e+09 2
5.38641e+08 1.62021e+08 2.12356e+09 1.35249e+09 5.90995e+08 4.99703e+08 1.54118e+09 1.06959e+09 2.47415e+08 1.65591e+09 1.88717e+09 1.01415e+09 2.72317e+08 3.75405e+08 6.47137e+08 1.22486e+09 1.14569e+09 1.10618e+09 2.49678e+08 8.48444e+08 1.56763e+08 4.29677e+07 8.42337e+08 7.74058e+08 1.33425e+09 1.82443e+09 2.27969e+08 1.45575e+09 1.48633e+09 1.56886e+09 4.96317e+08 2.02497e+09 2
4.72389e+08 1.22997e+09 1.74392e+08 9.72092e+08 6.23667e+08 1.24398e+09 1.21951e+09 1.3209e+08 9.83668e+08 8.61711e+07 4.04407e+08 1.35907e+09 7.33308e+08 1.62927e+09 3.57275e+08 1.83949e+09 1.87895e+09 1.20572e+09 1.99625e+09 1.92191e+09 2.04806e+09 6.22828e+08 1.10868e+09 1.72501e+09 8.50797e+08 4.16944e+08 1.06385e+09 2.72172e+08 9.13261e+08 9.41334e+08 2.00305e+09 1.38565e+09 2
2.99609e+07 2.10259e+08 6.4749e+08 1.27394e+09 1.42977e+09 7.7958e+08 1.10129e+08 1.51594e+09 1.18399e+09 1.4692e+09 1.01761e+08 6.65771e+08 1.82648e+09 1.94125e+09 3.97234e+08 8.84713e+08 1.79002e+09 1.71664e+08 7.85285e+08 2.65366e+08 1.28035e+09 3.62808e+08 1.11616e+09 1.69729e+09 1.42666e+09 1.38833e+09 4.63068e+08 2.20508e+08 1.2439e+09 1.84872e+09 2.44331e+08 1.27386e+09 3
8.91821e+08 4.00325e+08 1.34126e+09 1.6714e+09 5.10453e+08 7.09712e+08 7.07903e+08 1.97966e+09 8.11474e+08 1.37367e+09 1.65865e+09 6.05241e+08 1.77091e+09 3.95878e+08 2.47779e+08 1.94257e+09 1.18116e+09 5.13145e+08 1.07544e+09 1.54397e+09 1.62931e+09 6.25242e+08 8.23145e+08 8.70159e+08 1.08831e+09 1.04365e+09 2.11406e+09 7.89544e+08 1.28798e+09 1.24044e+09 7.01037e+08 3.23201e+07 1
2.0423e+09 1.70372e+09 3.73836e+06 6.04524e+08 2.6414e+08 1.98339e+09 1.416e+09 1.63781e+09 1.49456e+09 2.02124e+09 1.26124e+09 1.89044e+09 1.21535e+08 1.05633e+09 9.24116e+08 6.34681e+08 2.13176e+09 3.20604e+08 1.16505e+08 6.09521e+08 1.14375e+09 9.86664e+08 1.69783e+09 3.99181e+07 9.53242e+08 3.39891e+08 1.3279e+09 4.62025e+07 1.04093e+09 1.36022e+09 1.68697e+09 9.3574e+08 3
1.69071e+09 1.54026e+09 1.1806e+09 1.52662e+09 8.08779e+08 6.70928e+08 8.73695e+08 6.82535e+08 1.93217e+09 6.16648e+08 8.0407e+08 8.41011e+08 1.54076e+09 1.43875e+09 8.25289e+08 1.86137e+09 1.55526e+09 1.43481e+09 8.57634e+08 3.94435e+08 9.85157e+08 8.97552e+08 1.34768e+09 1.32505e+09 7.79695e+07 1.39388e+09 2.18493e+08 1.43819e+09 9.33368e+08 1.15423e+09 2.07165e+08 4.76593e+08 1
1.38776e+09 2.00321e+09 1.35579e+09 2.05869e+09 7.29424e+08 2.03833e+09 1.84337e+09 1.34607e+09 6.94914e+08 5.36902e+08 7.39352e+08 2.13367e+09 1.36219e+09 4.53237e+08 1.54144e+09 6.49518e+08 1.31087e+09 1.93587e+09 1.63467e+09 6.09386e+07 1.13607e+09 8.1224e+08 1.38908e+08 3.82463e+08 1.03073e+09 1.5771e+09 1.31583e+09 3.74811e+07 1.78426e+09 1.79242e+09 5.84495e+08 1.02454e+09 1
1.94029e+09 9.35751e+08 2.30094e+08 1.83113e+09 6.31643e+08 1.57617e+09 3.78562e+08 1.16854e+09 1.68034e+08 3.64744e+08 3.83252e+08 6.21271e+08 1.90618e+09 1.03277e+09 1.93214e+09 1.69457e+09 5.1996e+08 1.99308e+09 6.83152e+08 1.3322e+09 2.13199e+09 1.06562e+09 2.15448e+08 1.5616e+09 2.33964e+08 2.5293e+08 1.19838e+09 2.02639e+09 8.37424e+08 7.54439e+07 1.52706e+09 6.30228e+08 0
1.75715e+09 3.13876e+08 1.64284e+09 1.18583e+09 6.92439e+08 6.63898e+08 1.35387e+09 1.05718e+09 1.04715e+09 1.97514e+09 8.15879e+08 2.07992e+09 1.7598e+09 3.62965e+08 4.52396e+08 1.60539e+09 1.04612e+09 1.7846e+09 1.5899e+09 2.11173e+09 2.00004e+09 1.00402e+09 1.98213e+08 1.0549e+08 5.4918e+07 7.71177e+07 9.42915e+08 1.30362e+08 1.60418e+09 1.57314e+09 1.14156e+09 1.21385e+09 3
6.36911e+08 2.52196e+08 4.31974e+08 1.30081e+09 1.60607e+09 1.48916e+09 2.00476e+08 1.43372e+09 1.57552e+08 1.32911e+08 1.04604e+09 5.20517e+08 5.85307e+08 5.03945e+08 1.56663e+09 2.2242e+08 2.09384e+09 1.53088e+09 7.49804e+07 9.50377e+08 1.7291e+09 1.80471e+08 1.0053e+09 1.80621e+09 1.12339e+09 1.13566e+09 1.26291e+09 5.49045e+08 1.29731e+08 3.29268e+08 2.88581e+08 7.66642e+08 3
7.20555e+08 2.06745e+09 4.00461e+07 6.22282e+07 1.20444e+08 1.47377e+09 2.1978e+08 2.53355e+08 3.72319e+08 7.40297e+08 8.38663e+08 8.76264e+08 1.59447e+08 1.06108e+09 8.22623e+08 1.69033e+09 1.13606e+09 1.773e+09 1.27194e+09 1.31653e+09 6.30812e+08 9.30674e+08 2.92435e+08 1.76647e+09 4.60976e+07 8.4148e+08 1.8962e+09 3.75366e+08 1.13006e+09 5.15358e+08 9.56831e+08 1.85062e+09 0
9.96877e+08 1.91284e+09 5.5577e+08 3.2316e+08 2.13262e+09 8.09125e+08 6.95479e+08 7.25438e+08 1.64779e+09 1.57174e+09 8.84885e+08 5.61387e+08 2.46883e+08 4.27732e+08 1.69745e+09 2.01988e+09 1.69968e+09 8.66499e+08 5.03212e+08 4.82867e+08 1.15893e+09 1.22197e+08 5.28964e+08 2.00041e+09 2.0184e+09 9.0433e+08 9.82991e+08 3.86272e+08 1.86116e+09 6.86124e+08 8.21598e+08 7.10554e+08 1
1.37737e+09 1.03371e+09 4.36625e+08 3.90101e+07 1.72919e+09 1.16206e+09 1.6868e+09 1.15345e+09 2.04695e+09 1.00701e+08 1.40034e+09 3.27196e+08 1.79815e+09 1.27273e+09 2.02687e+09 5.17166e+08 1.77595e+09 3.62255e+08 1.6761e+09 1.89814e+09 8.9122e+08 1.52903e+09 1.76906e+09 1.79555e+09 3.64538e+08 7.84582e+06 1.50923e+09 1.05066e+09 8.29444e+08 7.22973e+07 1.50215e+09 5.93285e+07 0
1.93877e+09 9.83386e+07 6.87721e+08 9.53351e+08 1.78514e+09 1.84117e+09 8.52815e+08 1.88584e+09 1.09403e+09 1.18001e+09 1.5365e+09 2.19277e+08 1.0594e+09 2.05367e+09 1.99522e+09 1.42166e+09 1.58229e+09 1.74588e+09 1.65392e+08 9.63833e+08 1.36746e+09 1.96094e+09 1.32837e+09 1.3753e+09 1.32269e+09 2.31549e+08 5.72635e+07 1.39498e+09 1.73369e+09 1.16592e+08 3.5351e+08 1.52498e+09 0
1.04123e+09 3.3085e+08 2.00007e+09 7.34922e+08 1.18366e+09 1.73842e+09 1.82895e+09 2.16193e+08 1.12744e+09 2.04822e+09 1.27559e+09 1.03363e+09 1.89596e+09 5.49765e+08 4.68433e+08 1.49436e+09 7.15157e+08 1.43227e+09 7.14337e+08 5.28615e+08 6.13154e+08 2.08964e+09 1.8513e+09 8.44703e+08 2.1469e+09 1.0988e+09 4.30914e+08 1.16012e+08 1.45231e+09 1.9559e+09 3.30943e+08 3.46057e+08 3
1.83527e+08 1.08098e+09 1.32293e+09 1.92195e+09 7.62443e+08 1.53912e+09 9.01908e+08 6.63183e+08 6.6723e+08 1.93554e+09 4.11663e+08 1.21699e+09 2.56488e+08 1.90603e+09 1.93215e+09 1.68875e+09 4.72879e+08 3.13283e+08 1.54425e+08 4.15035e+08 1.71001e+07 9.99128e+08 4.14455e+08 1.1159e+09 1.43004e+09 5.30467e+08 4.20725e+08 1.23846e+09 8.6141e+08 7.66783e+08 1.37772e+09 1.04494e+09 0
5.53163e+08 8.19401e+08 4.62721e+08 2.09228e+09 1.72131e+09 1.1259e+09 6.12029e+08 1.50936e+09 1.53757e+09 1.82902e+09 1.76585e+09 1.29611e+09 1.61369e+09 1.30712e+09 1.76899e+09 1.92698e+09 1.46155e+09 3.65393e+07 1.94408e+09 3.13193e+08 4.50995e+08 9.12492e+08 1.74323e+09 9.81462e+08 1.33322e+09 8.34207e+08 1.84287e+09 2.1e+09 6.44419e+07 7.40325e+08 1.80028e+09 6.17604e+08 1
1.15515e+08 5.62404e+08 1.13355e+09 1.24142e+09 1.17443e+09 4.95432e+08 6.31502e+08 8.55973e+08 1.138e+08 1.92761e+09 3.22182e+08 1.42092e+09 1.54911e+09 1.01674e+08 7.34988e+08 1.58565e+09 2.04575e+09 1.04818e+09 2.03665e+09 8.10758e+08 6.43931e+08 8.70627e+08 2.14397e+09 1.47814e+09 5.66015e+08 2.09649e+09 1.54258e+09 1.30634e+09 1.74928e+09 1.27011e+07 7.18582e+08 1.8648e+09 0
1.85213e+09 9.58735e+08 1.74954e+09 2.00082e+08 1.59024e+09 4.58027e+08 3.13882e+08 1.37036e+09 7.80209e+08 1.73481e+09 7.71996e+08 8.81884e+08 3.22309e+08 2.10167e+08 7.8015e+08 1.37049e+09 9.93318e+07 1.59091e+09 2.01442e+09 9.69959e+08 1.5874e+09 1.34508e+09 1.53597e+09 1.53641e+09 7.40172e+08 6.9483e+08 1.13821e+09 7.52873e+08 1.41341e+09 8.55523e+08 1.32798e+09 1.11806e+09 3
9.30032e+08 1.31814e+09 1.25701e+09 1.38806e+09 1.63203e+09 4.79893e+08 2.07848e+07 1.21935e+09 1.25189e+09 9.02668e+08 1.54166e+09 1.46206e+09 1.68282e+09 7.64662e+08 1.56139e+09 1.12624e+09 6.31599e+08 3.83863e+08 5.66159e+08 1.97667e+09 1.91984e+09 2.10257e+09 5.69362e+08 4.67184e+08 1.09329e+09 1.32224e+09 1.8806e+09 1.94881e+09 5.02729e+08 8.51175e+08 1.61559e+09 1.43276e+09 2
7.25115e+08 6.73337e+08 1.65386e+09 1.20501e+09 6.94121e+08 7.25726e+08 3.09414e+08 1.59679e+09 1.19898e+08 1.77147e+09 1.13212e+09 8.8456e+08 1.18537e+09 1.10884e+08 1.51616e+09 1.56924e+09 6.77043e+08 1.34535e+09 1.34159e+09 6.32124e+08 1.91471e+09 1.80877e+09 1.72541e+09 1.08946e+09 1.54189e+09 1.52674e+09 1.59219e+09 2.45576e+08 9.94844e+08 8.7747e+08 2.67412e+08 1.71996e+09 0
1.92127e+09 7.77483e+08 9.74442e+07 4.99515e+08 1.0869e+09 1.69423e+09 6.19414e+08 7.10883e+08 6.78875e+08 1.50397e+09 1.89626e+09 7.89759e+08 8.7265e+08 1.31801e+09 1.4668e+09 7.05155e+07 5.12114e+08 2.09893e+09 1.98523e+09 1.73403e+08 1.67685e+09 9.27207e+08 1.71529e+09 1.05611e+09 3.71915e+08 1.96086e+09 2.05096e+09 1.24938e+09 8.0793e+07 1.62343e+09 6.52708e+08 2.00207e+09 1
7.50152e+08 3.54098e+08 1.34033e+09 2.96902e+08 9.73512e+08 2.05121e+09 9.75777e+08 3.30002e+08 1.79998e+09 1.76554e+09 1.20265e+09 9.70507e+08 1.08485e+09 1.27317e+09 1.48262e+09 1.0363e+09 1.11091e+09 1.65602e+09 5.65667e+08 2.03812e+09 1.22383e+09 1.62178e+09 2.62549e+08 1.03721e+09 1.52525e+09 1.51193e+09 1.118e+09 1.0012e+09 1.71578e+07 9.72586e+08 1.25463e+09 7.6731e+08 3
4.47474e+08 1.06421e+09 1.52712e+08 3.512e+08 2.03999e+09 4.82714e+08 3.69913e+06 1.65804e+09 1.68537e+09 9.74206e+08 5.95412e+08 8.1105e+08 3.09344e+08 1.63171e+09 1.92196e+09 1.96537e+09 4.98917e+07 1.81259e+09 1.04171e+09 1.67167e+09 2.07514e+09 2.07892e+09 1.04944e+09 1.43959e+09 1.04944e+09 2.05064e+09 1.45675e+09 2.02203e+09 1.15778e+09 7.65767e+07 1.20123e+09 1.60526e+09 3
1.35394e+09 1.95646e+09 1.03329e+09 1.83666e+09 1.96016e+09 5.43851e+08 1.37454e+09 7.86879e+08 1.13926e+09 3.81053e+07 1.09622e+09 6.23487e+08 1.96007e+09 9.14108e+08 6.73379e+08 1.62518e+09 1.95582e+09 1.97566e+08 1.55284e+09 1.88726e+09 1.24701e+09 8.44945e+08 7.89223e+08 1.15016e+09 1.54212e+08 6.6377e+08 1.60459e+08 2.30788e+08 1.865e+09 1.76572e+09 1.37158e+09 1.07146e+09 3
2.57387e+08 7.60633e+08 1.38736e+09 8.01238e+08 2.13517e+09 2.67584e+07 1.9405e+09 2.57942e+07 1.12298e+09 4.16504e+08 1.98586e+09 2.03709e+09 1.08988e+09 1.46355e+09 1.84543e+09 1.28745e+09 8.68904e+08 1.58521e+09 3.86971e+08 1.71385e+09 2.26944e+08 1.53713e+09 1.86806e+09 8.90714e+08 1.69759e+09 2.09885e+09 6.08231e+08 1.31582e+09 1.32294e+09 1.67969e+09 7.43029e+08 1.58033e+09 0
2.13039e+09 2.34083e+08 2.80529e+08 9.66694e+06 2.71004e+07 3.06323e+08 1.13265e+09 4.43605e+08 1.447e+08 1.02225e+09 1.53349e+09 1.60825e+09 7.20197e+08 6.73454e+08 3.29673e+08 1.57918e+08 1.06043e+09 2.04352e+09 3.84863e+08 4.50073e+08 1.7641e+09 1.27558e+09 178906 1.71546e+09 1.88381e+09 1.316e+09 8.90922e+08 1.41601e+09 2.05903e+09 3.23768e+08 1.70886e+09 2.04194e+09 3
1.98938e+09 2.05161e+09 5.84951e+08 1.48224e+08 1.03677e+09 1.02856e+09 2.92924e+08 2.05902e+09 4.1456e+08 1.90118e+09 6.31738e+08 1.08801e+09 8.33646e+07 7.89656e+08 956442 2.12689e+09 1.17452e+09 4.51029e+08 1.7435e+09 3.02612e+08 4.51208e+08 1.31148e+09 3.89359e+07 1.76721e+09 5.49191e+07 1.45495e+09 1.67876e+09 3.78687e+08 1.01632e+09 1.57321e+09 9.36537e+08 8.58223e+08 3
1.52149e+09 1.00645e+09 3.66624e+08 4.02561e+08 1.29937e+09 2.78165e+08 8.17121e+08 1.05306e+09 9.09902e+08 1.90514e+09 1.13643e+09 1.69956e+09 1.90609e+09 1.11583e+09 7.26593e+08 2.09638e+08 7.11847e+08 1.02921e+09 6.60846e+08 2.02333e+09 1.06814e+09 2.80572e+08 2.07825e+09 3.75608e+08 1.95933e+09 3.0945e+08 1.39193e+09 1.38506e+09 1.24599e+09 1.0267e+08 7.1491e+08 6.19992e+08 1
1.08153e+09 1.02255e+09 2.61005e+08 1.3597e+09 1.83967e+09 1.31407e+09 1.22118e+08 1.59733e+09 3.03012e+08 1.82168e+09 1.35594e+09 1.41884e+09 4.00786e+08 1.56557e+09 2.13069e+09 1.42999e+09 7.89354e+07 2.00653e+09 3.50648e+08 3.59507e+08 1.9373e+09 7.26256e+08 1.71352e+08 9.92621e+07 2.11819e+09 1.55641e+09 1.34525e+09 7.33738e+07 1.23837e+08 1.96524e+09 1.18249e+09 1.20537e+09 0
1.4435e+09 4.17586e+08 5.32501e+08 6.10081e+08 5.39704e+08 2.12983e+09 9.13093e+08 2.13896e+08 1.33828e+09 1.84452e+08 6.14681e+08 7.5637e+08 1.67658e+08 2.04467e+09 8.35305e+08 2.67074e+07 2.47837e+08 1.19481e+09 1.964e+09 9.74093e+08 1.36616e+09 2.06327e+09 9.44796e+08 7.75091e+08 1.26103e+09 1.01817e+09 8.98928e+08 1.07879e+09 5.31779e+07 2.1043e+09 1.9191e+09 1.49667e+09 2
3.04117e+08 2.10676e+09 9.14104e+08 2.86461e+08 8.72365e+08 1.128e+09 1.62474e+09 1.05682e+09 1.74268e+09 2.33627e+08 1.22448e+09 1.63987e+09 1.06893e+09 1.25118e+09 1.88771e+09 1.1626e+08 1.0677e+09 7.14316e+08 1.48242e+09 9.83485e+08 1.65911e+09 1.10031e+08 9.70324e+07 5.29799e+08 1.00896e+09 1.17582e+09 5.82977e+08 9.65774e+08 9.47437e+08 2.07965e+09 1.34017e+09 1.25155e+09 0
1.06795e+08 1.53801e+09 7.63804e+08 1.2348e+09 1.01527e+09 1.82062e+09 8.29994e+08 1.2489e+09 8.97614e+08 3.2238e+08 1.70346e+08 1.31276e+06 6.26033e+07 2.86606e+08 1.06902e+09 7.76919e+08 1.76903e+09 2.0525e+09 2.88548e+08 1.87906e+09 2.04903e+06 8.18347e+08 7.40537e+08 1.17787e+09 1.40132e+09 1.70631e+09 2.12531e+09 1.33349e+09 8.99001e+08 1.22938e+09 1.22493e+09 1.0058e+09 1
1.98873e+09 9.31087e+07 1.63518e+09 1.66187e+09 9.23102e+08 7.36592e+08 4.12002e+08 1.24548e+09 9.06938e+08 4.13315e+08 1.30809e+09 1.19354e+09 1.48233e+09 2.08501e+09 8.15091e+08 1.38735e+09 2.26069e+08 5.46669e+08 1.3894e+09 1.04442e+09 1.28721e+09 4.19783e+08 2.98255e+08 8.46032e+08 3.97606e+08 1.63175e+09 1.74503e+09 1.62698e+09 7.09192e+08 6.03347e+08 9.94053e+07 5.50443e+08 1
1.73458e+09 6.48316e+07 1.61956e+09 3.23692e+08 4.76834e+08 7.17557e+08 1.23063e+09 8.90149e+08 2.02564e+09 2.76691e+08 2.24996e+08 1.96316e+09 1.09178e+09 1.61234e+09 4.17498e+07 1.63845e+09 8.54257e+08 1.08617e+09 7.78173e+08 1.27404e+09 1.38442e+09 1.62421e+09 1.67165e+09 8.68683e+08 1.22176e+09 1.15114e+09 1.57788e+09 1.8251e+09 1.25055e+09 2.12832e+09 3.74074e+08 8.37649e+08 2
1.99363e+09 1.16134e+09 5.225e+08 5.63705e+08 2.44487e+08 1.41265e+09 4.41864e+08 5.21178e+08 1.63765e+09 2.57544e+08 1.61296e+09 1.10251e+09 2.99294e+08 1.10393e+09 1.95676e+09 1.38546e+09 1.8821e+09 1.08332e+09 6.22397e+08 1.35882e+09 6.0748e+08 1.49108e+09 4.33095e+08 1.75862e+09 9.21472e+08 1.10713e+08 8.6169e+08 9.02306e+08 4.84787e+08 1.69934e+09 9.47973e+08 3.30935e+08 3
1.47047e+09 8.9464e+08 9.57684e+08 7.35638e+08 1.3365e+09 1.47886e+09 2.25801e+08 1.59405e+09 9.44339e+08 1.32831e+09 1.89334e+09 2.04827e+09 1.13759e+09 1.13132e+09 1.78288e+09 7.34203e+07 1.75371e+09 9.94223e+08 6.80901e+08 1.09731e+09 1.42732e+09 2.92041e+08 2.01878e+09 1.53803e+09 1.15373e+09 7.73605e+08 2.02282e+09 7.05587e+08 1.72158e+09 2.06269e+08 1.41878e+09 1.04457e+09 3
2.28984e+08 1.7802e+09 2.89928e+08 1.70785e+09 2.00601e+09 1.88398e+09 5.04701e+08 1.18683e+09 1.62983e+09 4.05484e+08 1.7693e+08 6.13665e+08 4.08845e+07 2.5035e+08 2.19895e+08 1.03511e+09 9.31251e+08 1.3172e+09 3.14941e+08 1.22329e+09 1.1885e+09 1.85297e+09 2.2954e+08 1.96211e+09 1.72831e+09 9.35127e+08 1.5362e+09 1.93458e+09 2.06427e+08 4.33283e+08 8.88001e+08 4.35411e+08 0
1.17793e+09 2.14326e+09 2.07201e+09 9.14421e+08 5.00474e+08 1.11135e+09 3.9677e+08 9.05959e+08 1.28828e+09 1.01043e+09 9.46843e+08 1.53863e+09 1.23033e+09 1.98195e+09 3.22402e+08 4.00051e+08 1.49409e+08 1.54569e+09 1.58855e+09 2.00238e+09 1.77523e+09 1.40318e+09 1.5832e+09 5.62877e+08 7.91896e+08 1.3703e+09 7.69304e+08 1.22518e+09 1.10813e+08 1.20471e+09 1.29118e+09 1.28874e+09 3
1.21571e+09 5.56792e+07 1.70096e+09 1.7958e+08 4.52449e+08 4.59437e+08 1.46786e+09 1.46288e+09 1.40628e+09 8.59015e+08 5.4573e+08 1.24075e+09 1.18142e+09 9.45782e+08 1.39016e+09 5.79627e+08 3.86852e+08 1.24505e+09 2.07378e+08 1.79003e+09 6.80773e+08 7.70255e+08 4.34443e+08 2.05107e+09 1.53956e+09 1.65962e+09 1.43985e+07 5.96789e+08 8.03322e+08 1.30314e+09 1.79728e+09 2.01903e+09 1
1.35075e+09 5.11274e+07 1.81127e+09 1.81019e+09 1.51899e+09 1.12667e+09 1.06899e+09 2.30523e+08 1.6724e+09 1.62252e+08 1.41194e+09 4.70697e+08 1.55241e+09 1.99157e+09 8.57549e+08 6.49978e+08 5.14619e+07 5.00096e+08 1.33075e+09 8.21717e+08 9.34539e+08 1.23434e+09 2.13791e+08 4.46677e+08 1.24874e+09 8.1058e+08 1.25e+09 4.04392e+08 4.60373e+08 1.12155e+09 1.76321e+09 1.81113e+09 1
1.427e+09 1.47384e+09 5.44181e+08 4.06182e+08 3.95341e+08 7.74704e+08 2.07858e+09 5.57594e+08 3.91612e+07 4.01794e+08 2.11e+09 2.03073e+09 1.25934e+09 6.12497e+08 2.08219e+09 1.75944e+09 1.94325e+09 7.56424e+08 5.46494e+08 1.0301e+09 9.70215e+08 9.93171e+08 1.31353e+08 1.7808e+09 9.56851e+07 5.35745e+08 9.36852e+07 1.21723e+09 1.51474e+08 1.90481e+09 2.4242e+08 1.57847e+09 1
7.86601e+08 1.98465e+09 1.62651e+09 1.56131e+09 1.91575e+09 3.66167e+07 1.60047e+09 1.70061e+08 2.14662e+09 1.48371e+09 1.4294e+09 6.11632e+08 1.41842e+09 1.04136e+09 4.07396e+08 2.73596e+07 1.58785e+09 1.4375e+09 9.97575e+08 4.3354e+08 1.56885e+09 6.30887e+08 5.29225e+08 2.1046e+09 7.24572e+08 1.74646e+09 1.08587e+08 4.81902e+08 1.98888e+09 1.68706e+09 1.71307e+09 6.27993e+08 2
1.19209e+09 4.18151e+07 1.29249e+09 1.22871e+09 1.64228e+09 1.46256e+09 1.22784e+09 9.7851e+08 7.44476e+08 1.83947e+09 2.49446e+08 1.78584e+09 9.93869e+07 2.76806e+08 1.22621e+09 1.53688e+09 1.27438e+09 1.65975e+09 9.58252e+08 1.90527e+09 4.14876e+07 9.15364e+08 4.82356e+08 1.78794e+09 1.02395e+09 9.64257e+08 1.62934e+09 5.63525e+08 5.29841e+08 1.09846e+08 2.08775e+09 1.72193e+09 1
1.23276e+09 8.03155e+08 1.79394e+09 5.47835e+08 2.031e+09 6.24969e+08 1.29231e+09 1.72299e+09 8.74415e+08 9.30663e+08 1.82238e+09 1.15122e+09 9.38456e+06 1.21178e+09 2.78117e+08 1.66913e+09 2.25441e+07 3.59011e+07 1.71062e+09 9.37908e+08 5.18257e+08 1.35108e+09 1.96186e+09 1.48251e+09 8.3293e+08 3.779e+08 2.01236e+09 9.42776e+08 3.18168e+08 1.5868e+09 1.09444e+09 1.55093e+09 0
7.40896e+08 2.09877e+09 1.25989e+08 1.36586e+09 1.24359e+09 1.84898e+09 9.27962e+07 2.67726e+07 1.52387e+09 1.24402e+09 3.61571e+07 5.88162e+08 1.52213e+09 1.70529e+09 6.10706e+08 1.55804e+09 1.26842e+09 1.54861e+09 2.07629e+09 4.72016e+08 1.36299e+09 1.41132e+09 1.30495e+09 1.74089e+09 1.27619e+09 1.00238e+08 2.05906e+09 7.15513e+08 1.19468e+09 1.4625e+09 9.57988e+08 1.93557e+09 2
1.08398e+09 1.15395e+09 5.09896e+08 7.8547e+08 1.24675e+09 5.36668e+08 1.61856e+08 3.43281e+08 5.72825e+08 7.50017e+08 1.86542e+09 1.30629e+08 1.36072e+09 1.27597e+09 1.39905e+09 7.61853e+08 1.20478e+09 1.87107e+09 2.12484e+09 4.68615e+08 1.02853e+09 1.71825e+09 1.74481e+09 1.12877e+09 1.62982e+09 3.12838e+08 1.75958e+08 9.44839e+08 1.27083e+09 2.11153e+09 2.11141e+08 2.07319e+08 3
7.21037e+08 9.9279e+08 2.17262e+08 1.25771e+09 1.15465e+09 5.60543e+08 1.83053e+09 1.90466e+09 2.78475e+08 1.96116e+09 1.1179e+09 1.55444e+09 1.21273e+09 1.87975e+09 6.11735e+08 9.36309e+08 1.85711e+09 1.08035e+09 1.96484e+09 1.42788e+09 6.77674e+08 9.46121e+08 9.10211e+08 9.90513e+08 1.12208e+09 1.85505e+09 1.13855e+08 1.08612e+09 2.06619e+09 3.21175e+08 5.6638e+07 6.39745e+08 1
2.739e+08 1.89745e+09 3.21126e+08 8.34443e+08 1.5805e+09 7.83045e+07 1.11292e+09 1.39417e+09 1.19621e+09 5.19876e+08 4.59415e+08 9.28478e+08 1.13161e+09 1.39572e+09 6.38107e+08 6.44767e+07 1.21308e+09 2.06598e+09 7.42151e+08 1.17148e+07 8.28711e+08 1.73266e+09 1.13379e+09 5.36277e+08 1.84652e+09 7.24347e+07 4.54985e+08 2.02102e+07 1.29073e+08 1.09473e+09 1.33417e+09 4.02972e+08 1
1.6553e+09 1.23741e+09 2.77709e+08 1.7336e+09 2.02849e+08 1.67188e+09 7.82327e+08 7.22725e+08 2.1313e+09 1.7108e+09 1.85434e+09 1.37954e+09 2.01428e+08 1.91881e+09 4.4513e+08 1.19927e+08 5.1348e+08 4.56845e+08 9.48638e+08 9.86603e+07 1.59064e+09 1.48492e+09 1.94518e+09 1.66307e+09 1.9399e+09 1.96539e+09 1.79215e+09 8.87147e+08 1.15208e+09 4.76344e+07 1.73184e+09 6.59897e+08 1
2.00955e+09 2.46018e+08 1.4879e+09 1.53395e+09 1.02834e+09 6.31389e+07 1.51776e+09 5.91666e+08 1.91747e+09 7.49814e+08 7.93094e+08 1.6888e+09 1.19494e+09 9.13021e+08 5.47997e+07 1.65179e+09 1.86166e+09 1.5346e+08 1.09494e+09 1.19909e+09 2.09864e+09 6.10532e+08 9.91508e+08 1.91655e+09 2.55194e+08 1.87865e+09 9.21143e+08 3.02829e+08 1.46301e+09 1.58104e+09 1.58788e+09 1.32508e+09 0
9.28292e+08 7.11548e+08 7.07918e+08 9.91431e+08 8.18263e+07 1.29958e+09 7.61422e+08 8.3164e+08 2.09268e+09 3.02742e+08 2.02658e+09 8.58216e+08 3.57541e+08 1.53089e+09 5.72392e+08 5.11001e+08 4.78346e+08 1.77148e+09 4.62157e+08 1.08888e+09 6.15507e+08 2.31219e+08 1.34407e+09 3.46678e+08 1.15236e+09 1.6469e+09 1.80969e+09 5.85918e+08 1.0873e+09 9.87292e+08 2.65491e+08 2.01559e+09 1
9.7341e+08 8.59535e+08 1.78067e+09 1.2551e+08 1.62096e+09 4.64823e+08 7.07048e+07 1.9237e+09 3.43922e+08 9.28921e+08 1.33756e+08 1.87481e+09 1.50131e+09 6.44758e+08 2.05672e+08 1.12531e+09 1.10692e+09 1.29455e+09 1.74082e+09 1.33813e+09 4.91139e+08 2.0875e+09 3.43013e+08 2.13804e+09 1.74971e+09 9.28931e+08 1.07785e+09 5.89515e+08 1.19442e+09 9.45956e+08 1.40871e+08 2.03478e+07 3
1.92154e+09 1.45858e+08 1.27896e+09 2.38877e+08 2.16563e+08 1.05518e+09 5.82799e+08 1.14548e+09 1.18894e+09 3.10125e+08 4.99312e+08 1.83369e+09 5.15797e+08 1.62462e+09 7.93125e+08 1.81035e+09 1.21796e+09 2.13126e+09 1.54002e+08 1.15797e+09 3.26789e+08 1.44559e+08 7.60195e+08 1.25572e+09 1.22241e+09 1.34971e+09 3.02658e+08 2.08833e+07 1.49058e+09 3.23006e+08 1.82637e+09 1.26463e+09 0
9.57855e+08 1.50351e+09 6.85427e+08 2.01303e+09 2.08631e+09 1.83091e+09 1.05449e+09 2.48953e+08 1.82739e+08 7.40697e+08 7.6475e+08 1.80736e+09 1.53382e+09 4.27613e+08 8.77837e+08 1.5176e+09 5.81615e+08 2.03581e+09 1.84439e+09 7.26174e+08 6.4852e+08 9.52623e+08 1.94858e+09 1.99823e+09 1.25528e+09 1.96947e+09 1.34133e+09 1.57829e+09 1.64836e+09 4.58477e+08 2.04715e+09 4.5873e+08 3
5.85094e+08 3.24282e+08 1.90082e+09 2.6852e+08 1.37877e+09 2.28595e+06 4.51259e+08 2.11947e+09 7.67036e+08 1.11137e+08 1.5058e+09 1.19465e+09 9.88975e+08 8.75918e+08 1.77626e+09 8.773e+08 5.72822e+08 3.54954e+08 1.52582e+09 1.52544e+09 1.56055e+08 1.37657e+09 6.33242e+08 2.12552e+09 5.70408e+08 6.40453e+07 1.6264e+09 1.02888e+09 2.1112e+09 2.08513e+09 8.4339e+08 5.48806e+08 3
5.96723e+08 8.17326e+08 1.64069e+09 5.99009e+08 1.26858e+09 1.61268e+09 1.36604e+09 1.37972e+09 9.70997e+08 4.1321e+08 2.21212e+08 1.84692e+09 4.19901e+07 1.09851e+09 2.72253e+08 3.96944e+08 4.76849e+08 1.7977e+09 5.52999e+08 1.85341e+09 2.83456e+08 5.31038e+08 2.76339e+08 3.47502e+08 9.95199e+06 1.30522e+09 3.11214e+08 2.09508e+09 1.13032e+06 8.6002e+08 2.09522e+08 5.97854e+08 2
1.85022e+09 1.19686e+09 7.98446e+08 1.31541e+09 4.15424e+08 3.06836e+07 1.38923e+08 8.28634e+08 2.51896e+08 1.98584e+09 8.70624e+08 1.35041e+09 1.10607e+08 1.26757e+09 1.82726e+09 1.90831e+09 1.82057e+09 1.53319e+09 4.42783e+07 2.04121e+08 1.80953e+09 3.9178e+08 2.14073e+08 9.67268e+08 7.02994e+08 1.6167e+08 9.68398e+08 1.56301e+09 3.71192e+08 1.56625e+09 1.09288e+09 7.39256e+07 1
1.89132e+09 1.38934e+09 1.03105e+09 1.922e+09 1.52826e+09 1.85969e+09 2.64169e+07 1.36661e+09 5.82829e+08 1.37683e+09 1.47722e+09 1.8504e+09 1.0566e+09 1.23804e+09 1.52348e+09 4.42304e+08 1.28232e+09 1.7276e+09 1.04348e+08 1.6741e+09 1.94167e+09 1.07162e+09 2.29611e+08 2.10334e+09 2.04001e+09 1.79262e+09 3.27053e+08 1.45878e+09 7.38015e+08 4.00978e+08 2.07441e+09 4.81853e+08 3
9.57984e+08 2.56374e+08 1.17109e+09 6.70189e+08 2.8279e+08 3.90218e+08 1.25302e+09 1.65962e+09 1.86744e+09 9.55931e+08 5.68731e+08 9.57996e+08 3.31927e+08 1.01104e+09 9.28327e+07 2.05953e+09 1.11538e+09 1.76693e+09 1.85372e+09 3.95169e+07 1.99654e+09 1.80958e+09 2.07953e+09 1.64168e+09 2.13663e+09 1.39083e+09 2.32216e+08 3.90127e+08 1.31776e+09 7.14069e+08 3.29574e+07 1.28261e+08 0
1.20405e+09 7.9845e+08 1.25323e+09 1.59426e+09 2.05147e+09 7.65365e+08 1.31422e+09 8.59915e+08 1.3341e+09 1.2473e+08 1.19184e+09 1.97648e+08 2.17563e+08 1.10389e+09 1.31303e+09 1.9845e+09 8.10123e+08 1.35255e+09 1.83356e+09 4.72219e+08 1.2846e+09 1.32776e+09 4.61368e+08 5.27944e+08 1.55997e+09 8.51496e+08 1.8457e+09 1.26557e+08 8.84453e+08 1.97396e+09 1.097e+09 2.0885e+09 3
2.02748e+08 1.53528e+09 5.28914e+08 9.68112e+08 7.02013e+08 1.38883e+09 1.54725e+08 8.26742e+08 4.33188e+08 3.52373e+08 1.04431e+09 1.53707e+09 1.66541e+09 8.81317e+08 1.99714e+08 8.70471e+08 5.67389e+08 6.71933e+08 7.58417e+06 1.89515e+09 1.1333e+09 5.35528e+08 1.30763e+09 1.9848e+09 2.33748e+08 1.43419e+09 7.21766e+08 6.02289e+07 3.83706e+08 6.62781e+08 6.85159e+08 5.86453e+08 1
1.21407e+09 1.55457e+09 7.52589e+08 4.5542e+08 1.70929e+09 1.57933e+09 8.88607e+08 2.06166e+09 4.76153e+08 2.78198e+08 1.57958e+09 1.35747e+09 4.77912e+08 3.02572e+08 1.92486e+09 1.14984e+09 3.10156e+08 1.67252e+09 1.35662e+08 8.45684e+08 8.3267e+08 2.12046e+09 1.07943e+09 1.19377e+08 6.94741e+08 1.13966e+09 5.03082e+08 1.35752e+09 1.82482e+09 1.08954e+09 1.4081e+09 8.91411e+08 0
1.3204e+07 1.34683e+09 5.84243e+07 1.59254e+09 8.7954e+07 2.12009e+09 2.06869e+09 3.66152e+08 1.55219e+09 1.27867e+09 8.44064e+08 1.85476e+09 1.05605e+09 1.99391e+09 1.74338e+07 5.81086e+08 2.12957e+09 8.63118e+08 1.41376e+09 2.10255e+09 1.94255e+09 1.53313e+09 6.49804e+08 9.34728e+08 2.03622e+09 2.00733e+09 6.12065e+08 9.78268e+08 1.26794e+09 1.50348e+09 1.47489e+09 1.28115e+09 2
1.53331e+09 7.26197e+08 7.90776e+08 1.50591e+09 6.47401e+08 1.15693e+09 9.10619e+08 1.92608e+09 2.00099e+09 6.17896e+08 8.34642e+08 1.84742e+09 6.3533e+08 1.41573e+09 1.8295e+09 1.49845e+09 6.82001e+08 1.78457e+09 1.29351e+09 6.76506e+07 2.86887e+08 8.07586e+07 2.10387e+09 1.4673e+08 6.92823e+08 9.3465e+08 1.41467e+09 4.88149e+07 2.62052e+08 5.48333e+08 7.51637e+08 1.79536e+09 3
1.54241e+09 1.15379e+09 1.92193e+09 5.51858e+08 2.06441e+09 1.70052e+09 4.05367e+08 5.34823e+08 3.87681e+08 1.05301e+08 1.17015e+09 1.80341e+09 1.93481e+09 5.21118e+08 3.37926e+08 1.57189e+09 1.81463e+09 4.05576e+08 1.85878e+09 1.89539e+09 3.61959e+08 2.00551e+09 4.40731e+08 1.29661e+09 1.27269e+09 4.89546e+08 1.55866e+09 1.82103e+09 1.24118e+09 1.20654e+09 9.48072e+08 6.36112e+08 0
7.22519e+08 1.18797e+09 1.29775e+08 2.75558e+08 1.59334e+09 6.64598e+08 6.63239e+08 1.69864e+09 1.83475e+09 3.19164e+08 1.48596e+09 2.08386e+08 6.5709e+08 9.10365e+08 2.02302e+09 1.06267e+09 6.21658e+08 1.77093e+09 1.42463e+09 4.7968e+08 6.41736e+07 5.73751e+08 1.75237e+09 5.53719e+08 2.13241e+09 1.42592e+09 1.7949e+09 1.19147e+09 2.26504e+08 2.83531e+08 1.40432e+09 9.49022e+08 1
1.53409e+09 1.22458e+09 9.17355e+08 5.12062e+07 1.88782e+09 4.68509e+08 1.88596e+09 5.94994e+07 1.95447e+09 2.09434e+09 7.16589e+08 7.17351e+08 1.96988e+09 1.77925e+09 1.33901e+09 1.59332e+09 1.0564e+09 1.81869e+09 1.6575e+09 1.63015e+09 1.42358e+09 6.37317e+07 1.61508e+09 7.02011e+08 1.85863e+09 6.59061e+08 9.28515e+08 2.14216e+09 2.06338e+09 1.87754e+09 1.46618e+09 1.44999e+09 3
2.36053e+08 1.50119e+09 6.9497e+08 7.04562e+08 1.23967e+09 7.54469e+08 5.11547e+08 1.18653e+09 1.47106e+09 1.2289e+09 1.00892e+09 1.10283e+09 4.20424e+08 4.54762e+08 1.17421e+07 9.16292e+07 2.11226e+09 1.64189e+09 1.51521e+09 2.85058e+07 1.10948e+09 6.97362e+07 1.88714e+09 1.76854e+09 9.98251e+08 1.88182e+09 1.68444e+09 7.28305e+08 1.20052e+09 9.86939e+08 1.68294e+09 1.43657e+09 1
2.30426e+08 2.14113e+09 1.58031e+09 9.84895e+08 5.05196e+08 6.19356e+08 3.0847e+08 1.73409e+09 1.62828e+09 1.4113e+09 7.03426e+06 2.08304e+09 1.42304e+09 9.86635e+07 2.04781e+09 9.17447e+08 1.61387e+09 2.07632e+09 2.02693e+09 1.68361e+09 1.81598e+09 1.64799e+09 5.34376e+08 1.55031e+09 1.18494e+09 1.26268e+09 6.03347e+08 2.43965e+07 7.98136e+08 2.03992e+09 3.65043e+08 1.02856e+09 3
1.94536e+09 2.01346e+09 3.91279e+08 4.17229e+08 1.74443e+08 2.12537e+09 2.04551e+09 1.58574e+09 2.13241e+09 1.98107e+09 8.61301e+08 8.35872e+07 1.8814e+09 1.77875e+09 1.69746e+09 1.81023e+09 1.65819e+09 1.23358e+09 1.47873e+09 1.1587e+09 1.76796e+09 8.81556e+08 1.96155e+08 8.83157e+08 1.4849e+09 2.20551e+08 1.68129e+09 1.37734e+09 5.85595e+08 5.62372e+08 1.26342e+09 3.83468e+08 0
1.6547e+09 8.00697e+08 6.02789e+08 1.63259e+09 6.98722e+08 4.10479e+07 1.61751e+09 5.32304e+08 9.02349e+08 1.7011e+09 2.66217e+08 5.33613e+08 1.25107e+09 2.07645e+09 4.43219e+07 3.37174e+08 1.40769e+09 1.20302e+09 2.10513e+09 1.41766e+08 1.39917e+09 8.40807e+08 1.62667e+09 1.61972e+09 3.74617e+08 8.56522e+08 5.78358e+07 9.36988e+08 2.11994e+09 4.41303e+08 1.36533e+09 1.62716e+09 0
1.96812e+09 1.11226e+09 1.94072e+09 2.00917e+09 5.82286e+08 3.25543e+08 7.64035e+08 1.35901e+08 5.9176e+08 1.29765e+09 1.38697e+09 5.20728e+08 1.34197e+09 1.72415e+09 1.92842e+09 3.97505e+08 1.6818e+09 2.07019e+09 1.79668e+09 3.75122e+08 1.54937e+09 1.26892e+09 7.49739e+08 2.58412e+08 1.32676e+09 1.68673e+09 2.3087e+08 1.76806e+09 9.04577e+08 1.85802e+09 8.62576e+08 7.25215e+08 0
6.55815e+08 5.86901e+08 1.40509e+09 9.81358e+08 1.35094e+09 1.54099e+09 1.57312e+09 5.011e+08 7.80477e+08 2.09385e+09 1.84307e+09 3.57142e+08 1.87478e+09 9.3091e+07 2.03894e+09 1.79749e+09 1.88977e+09 2.6658e+08 1.19938e+09 1.01121e+09 1.01632e+09 1.45779e+09 1.90478e+08 5.55562e+08 1.68866e+09 1.95854e+09 1.46014e+09 1.3992e+09 6.73629e+08 3.78702e+07 7.45187e+07 1.32944e+09 1
1.4796e+09 1.63318e+08 1.97571e+09 8.73107e+08 1.73644e+09 3.29325e+08 1.65358e+09 1.6828e+09 2.49109e+07 2.01073e+09 1.4101e+09 1.18002e+08 1.90218e+09 1.0601e+09 2.00777e+09 2.12808e+07 1.11999e+08 8.71494e+08 1.0376e+09 1.56979e+09 1.06197e+09 1.59316e+09 1.11097e+09 8.73024e+08 9.05817e+08 3.62688e+08 1.54665e+09 9.43687e+08 4.37206e+08 7.28613e+08 1.56846e+09 1.91681e+09 2
1.39668e+09 6.42434e+08 4.80882e+08 1.72601e+09 1.48535e+08 1.61956e+07 1.75092e+09 1.17786e+07 1.42629e+09 1.86892e+09 1.91396e+09 3.38912e+08 1.72921e+09 1.93524e+09 4.50911e+08 4.53219e+08 8.2536e+08 2.0207e+09 1.51519e+09 2.71038e+08 9.84186e+08 2.4073e+08 1.17685e+09 1.34687e+09 1.78738e+09 2.12054e+09 1.78408e+09 3.68513e+08 1.54152e+09 1.55341e+09 1.26044e+09 7.90715e+08 0
1.74133e+09 3.69239e+08 1.96893e+08 1.75752e+09 2.12016e+09 2.08672e+08 1.03633e+09 1.8416e+09 2.12264e+09 1.37524e+09 1.42332e+09 1.9104e+09 1.82615e+09 1.87654e+09 5.88272e+08 1.69937e+09 1.24424e+09 8.59309e+08 5.36075e+08 1.48498e+09 2.03616e+09 1.88295e+09 1.12488e+09 2.00922e+09 1.51955e+09 1.49339e+09 1.40325e+09 9.25469e+08 6.06348e+08 4.64853e+07 9.73827e+08 2.00191e+08 3
1.17072e+09 1.95771e+09 3.88399e+08 1.37939e+09 8.46559e+08 8.25106e+07 1.35454e+09 7.43189e+07 1.50583e+09 1.11746e+09 1.90047e+09 1.23489e+09 1.70573e+09 1.45236e+09 3.31646e+08 4.17553e+08 1.98844e+09 1.81662e+09 3.06233e+08 1.7239e+09 7.94013e+08 1.67971e+08 1.09596e+09 1.39918e+08 1.57122e+09 2.02143e+09 7.46266e+08 1.61771e+09 8.47775e+08 9.46457e+08 2.03343e+09 2.0185e+09 1
2.7435e+08 1.2504e+09 1.60324e+09 3.56861e+08 4.57464e+08 1.67756e+09 1.86269e+09 1.57492e+09 1.43055e+09 9.50093e+08 1.13316e+09 7.3543e+08 1.28174e+09 1.55072e+09 5.76383e+08 9.50877e+08 1.85695e+09 1.528e+08 1.74489e+09 2.02492e+09 1.24876e+09 1.88481e+09 1.44866e+09 1.12271e+09 4.8359e+08 9.18888e+08 1.97049e+09 1.43005e+09 8.04838e+08 1.8415e+09 3.92479e+07 1.07919e+09 1
1.64249e+09 1.43605e+09 1.40188e+09 1.17257e+09 1.15126e+09 8.29319e+08 4.55641e+08 2.10135e+09 1.96248e+09 1.19107e+09 1.2356e+09 1.36572e+09 1.76745e+09 3.89977e+07 1.07518e+09 1.92025e+09 1.78389e+09 9.52619e+08 1.02153e+09 1.52121e+09 2.53797e+08 2.14425e+09 2.0048e+09 1.17268e+09 1.96725e+09 1.28736e+09 1.97752e+09 1.66126e+09 1.32661e+09 9.09228e+08 4.58199e+08 8.21621e+08 2
1.86008e+09 1.99419e+09 1.34905e+09 5.41917e+08 3.0235e+08 1.30291e+09 3.56916e+08 1.49342e+09 3.91035e+08 1.72263e+09 1.11339e+09 4.30033e+08 6.50329e+08 8.86162e+08 6.6437e+07 1.60295e+09 1.9077e+09 1.58765e+09 1.85674e+09 1.90446e+09 1.44497e+09 8.81946e+08 1.72422e+09 5.84847e+08 7.11985e+08 1.238e+09 1.91146e+09 1.62121e+09 1.6962e+09 5.85597e+08 1.81901e+09 1.4088e+09 3
1.02057e+09 1.95072e+09 7.34656e+08 1.76002e+08 1.60148e+08 8.0594e+07 5.67038e+08 1.88278e+09 1.19399e+09 9.97071e+08 3.85625e+08 2.08015e+09 1.06351e+09 1.98857e+09 1.84036e+09 5.03673e+08 1.69783e+09 1.59734e+09 1.94864e+09 4.32297e+08 1.17407e+09 3.86003e+08 1.14428e+09 2.64593e+08 1.49978e+08 6.18011e+08 1.96079e+09 7.35575e+08 2.89533e+08 1.22211e+09 1.16788e+09 1.3101e+09 3
1.90254e+09 1.48611e+09 1.18549e+09 1.98313e+09 2.05314e+09 9.20787e+08 1.02963e+09 9.02731e+08 1.30641e+09 9.62298e+08 1.96624e+09 1.1475e+09 6.55175e+08 3.22428e+08 6.97853e+08 1.05026e+08 1.23584e+08 1.13015e+09 1.2791e+09 5.09586e+08 1.26948e+08 1.54369e+09 6.59565e+08 7.44959e+08 1.357e+09 1.39514e+09 1.03449e+09 4.31631e+08 4.15537e+08 1.97111e+08 1.45697e+09 1.7059e+08 0
4.9498e+08 6.23724e+06 1.58888e+09 1.41577e+09 1.03587e+09 3.44125e+08 5.74695e+08 1.99817e+09 1.6288e+08 1.7222e+09 5.05859e+08 4.85308e+08 2.72567e+08 6.10885e+08 6.08892e+08 1.40272e+09 1.88999e+09 1.11848e+09 1.52966e+09 1.2862e+09 1.77804e+09 1.2714e+08 4.95717e+08 1.0257e+09 1.16163e+09 9.27348e+08 1.44123e+09 1.35874e+09 2.36837e+08 1.61182e+09 8.94476e+08 7.31816e+08 0
3.3587e+08 99308 5.06449e+08 6.79995e+08 5.74794e+08 3.57133e+08 8.42875e+08 1.49508e+08 8.62992e+08 1.32818e+09 4.22075e+08 1.47388e+09 1.93707e+09 1.82479e+09 1.21638e+09 9.08069e+08 1.20697e+09 3.55092e+08 5.38628e+08 1.33411e+09 8.50809e+08 1.56433e+09 3.4826e+08 1.77816e+09 8.58077e+08 1.707e+09 2.01499e+09 3.22418e+08 4.53994e+08 5.99327e+08 1.94048e+09 7.89864e+08 2
2.99446e+08 1.46986e+09 1.17422e+09 6.56579e+08 1.6525e+08 1.32373e+09 1.51957e+09 1.49343e+09 1.7458e+09 8.45964e+08 1.28302e+09 1.42311e+09 2.06234e+09 4.36084e+07 4.826e+08 2.69952e+08 5.82236e+08 1.81671e+09 1.12076e+09 2.14656e+09 1.74888e+07 7.51435e+08 8.57155e+08 1.72449e+09 6.18945e+08 1.17957e+09 3.1001e+07 1.21827e+09 9.7257e+08 8.20865e+08 1.8177e+09 1.27202e+09 3
8.44434e+08 1.92859e+09 3.08489e+08 2.0679e+07 1.30068e+09 1.80192e+09 1.76648e+09 2.14665e+09 9.37461e+08 1.04211e+09 2.06151e+09 9.8107e+08 1.52471e+09 1.83974e+08 1.56331e+09 1.19394e+09 1.30474e+09 1.56238e+09 1.21143e+09 2.05617e+09 2.72055e+08 7.88434e+08 5.27632e+08 1.45163e+09 8.19435e+08 1.7459e+09 2.76716e+08 1.6403e+09 1.41612e+09 1.54873e+09 1.78354e+09 1.13069e+08 1
2.09203e+09 1.33748e+08 4.83041e+08 1.74647e+09 1.90023e+09 4.82203e+08 5.36445e+08 7.94855e+08 3.96226e+08 1.51751e+09 1.72081e+08 5.802e+08 9.33337e+08 1.36602e+09 1.88494e+09 3.48237e+08 4.29963e+08 1.79362e+09 6.20293e+08 1.2184e+09 1.73772e+08 2.07192e+09 2.03783e+09 1.91968e+09 2.01153e+08 1.53065e+09 1.18831e+09 1.74989e+09 1.16671e+09 1.30138e+09 9.32245e+08 1.11125e+09 3
1.41529e+09 7.10234e+08 1.18787e+09 1.89749e+09 1.24668e+09 1.98273e+09 1.46231e+08 6.16711e+08 7.32508e+06 7.26431e+08 1.55005e+09 1.37334e+09 4.63884e+08 1.89829e+09 1.80331e+09 1.10023e+08 3.71094e+08 8.74221e+08 2.83795e+08 2.95532e+08 7.6457e+08 5.59863e+07 4.96685e+08 1.47735e+08 1.2443e+09 9.9087e+07 1.31444e+09 3.98191e+08 1.03133e+09 2.78207e+08 1.83332e+09 2.99134e+08 2
8.73706e+08 4.91393e+07 8.76372e+07 7.0895e+08 1.95371e+08 7.04348e+08 7.16275e+08 9.21802e+08 1.06912e+08 2.08962e+09 1.38569e+09 2.0052e+09 1.74544e+09 1.49571e+09 2.28807e+08 4.72181e+08 1.7795e+09 5.24339e+08 1.23675e+09 1.83549e+09 1.02102e+09 1.38449e+09 9.32302e+08 1.12011e+09 5.51444e+08 1.33049e+09 3.95929e+06 8.29651e+08 1.01633e+09 3.03093e+08 1.81809e+09 1.89003e+09 1
1.90573e+09 4.51498e+08 5.47603e+08 4.62594e+08 1.16777e+09 1.4694e+09 5.69506e+08 1.10991e+09 7.07607e+08 4.27219e+08 7.07869e+08 5.58314e+07 6.56026e+08 1.18005e+09 1.83533e+09 1.18037e+09 2.69317e+08 1.52334e+09 5.3906e+07 1.6538e+09 3.08158e+08 1.17402e+09 5.77642e+07 1.63865e+09 1.17798e+09 8.87415e+08 5.07493e+08 1.48107e+09 5.58024e+08 2.50042e+08 1.8333e+09 3.16271e+08 1
2.33421e+08 7.78865e+08 1.86931e+09 1.70283e+09 1.34837e+09 8.31738e+08 2.62949e+08 1.77559e+09 1.53961e+09 3.18781e+08 2.84132e+08 5.72173e+08 6.63149e+06 1.4645e+09 8.4149e+08 1.52997e+09 1.5184e+09 3.47811e+08 1.83813e+09 5.44937e+08 4.05575e+08 1.3293e+09 1.72291e+09 1.29299e+09 1.83679e+09 1.0565e+09 1.85101e+09 2.08683e+09 7.42318e+08 1.98019e+07 6.40888e+08 9.7574e+08 3
3.62718e+08 5.31082e+08 2.14704e+09 1.19446e+09 7.94032e+08 1.77514e+09 5.86579e+08 1.11281e+09 2.05928e+09 1.15875e+09 1.11944e+09 1.37629e+09 2.00024e+09 5.01932e+08 7.4721e+08 2.00569e+08 1.92578e+08 1.29215e+09 6.06144e+08 1.52187e+09 8.67578e+08 1.89913e+09 1.21118e+09 1.92408e+09 1.60267e+09 1.15053e+09 5.18913e+08 1.62247e+09 1.79142e+09 1.49465e+09 2.7365e+08 6.6528e+06 0
2.73204e+08 1.20111e+09 6.72283e+08 2.04835e+09 1.78769e+09 1.7851e+09 1.96014e+09 7.98956e+08 7.57056e+08 1.18895e+09 6.51714e+08 1.25899e+09 1.93616e+09 8.52283e+08 1.45157e+09 1.08082e+09 1.45843e+09 8.25957e+08 1.9484e+09 1.21008e+09 2.03714e+09 1.72499e+09 6.6526e+08 1.04019e+09 9.64224e+07 1.40243e+08 6.8412e+08 1.59107e+09 4.13894e+08 6.90773e+08 1.46933e+09 6.87098e+08 1
2.14161e+09 5.87962e+08 1.53209e+09 1.77922e+09 4.00619e+08 1.83557e+08 3.88794e+08 1.58957e+09 8.35271e+08 1.64778e+09 1.37824e+09 1.68755e+09 9.51863e+08 3.11576e+08 9.98498e+08 1.77782e+09 1.12492e+08 6.10921e+07 1.66748e+09 1.83749e+09 7.26352e+08 5.60177e+08 1.93391e+09 8.66595e+08 1.2443e+09 1.3775e+09 1.28049e+09 1.93507e+09 6.99341e+08 1.96759e+09 1.67947e+09 6.93467e+08 3
1.06407e+09 3.25205e+08 8.08684e+08 1.24763e+09 7.13999e+08 2.50766e+08 2.0829e+09 2.14296e+08 1.62901e+09 1.62297e+09 1.16616e+09 1.94058e+09 4.73984e+08 7.96496e+08 2.05307e+09 5.35076e+08 3.16488e+08 1.74307e+09 1.26143e+09 8.76665e+08 1.5295e+09 2.12802e+09 2.12096e+09 7.59514e+08 1.26103e+09 1.90855e+09 1.45886e+09 1.08113e+09 1.44053e+09 4.83883e+06 1.4892e+09 3.57119e+08 1
1.50398e+08 1.60475e+09 1.04404e+09 4.01164e+08 1.54016e+09 1.25834e+09 2.03017e+09 1.01565e+09 2.77014e+08 1.82327e+09 1.48963e+09 1.07351e+09 1.72886e+09 2.02471e+09 1.39e+09 1.32445e+09 1.13865e+09 1.1918e+08 7.06464e+08 1.11919e+09 9.26582e+07 1.46598e+09 2.32736e+08 2.00121e+09 7.77349e+08 1.31387e+09 1.29426e+09 7.82188e+08 6.55582e+08 1.65137e+09 1.11223e+09 8.0598e+08 0
8.79055e+06 1.20714e+09 5.01316e+08 1.26713e+09 1.08983e+09 1.51696e+09 1.54414e+09 7.65614e+08 8.59112e+08 4.70171e+08 3.46988e+08 7.36336e+08 1.86017e+09 1.67144e+09 1.87499e+09 1.97935e+09 2.30417e+08 8.46696e+08 2.07201e+09 1.6964e+09 1.07943e+09 1.92573e+09 3.26261e+08 2.45817e+08 1.0725e+09 1.10845e+09 9.01399e+08 5.76394e+08 7.31972e+07 1.70738e+09 1.68503e+09 8.19878e+07 3
3.8864e+07 1.34912e+09 1.85687e+09 1.55583e+09 7.45777e+08 4.75e+08 2.67456e+08 1.21595e+09 8.21989e+08 1.00379e+09 9.28633e+08 3.45942e+08 7.31298e+08 7.60499e+08 5.7636e+08 1.57799e+09 6.85023e+08 1.25271e+08 5.09943e+08 4.63269e+08 4.51532e+08 7.5576e+08 1.53577e+09 1.55998e+09 1.65716e+09 2.11217e+09 1.63318e+09 1.21705e+09 1.64971e+09 1.71517e+09 1.98409e+09 1.68858e+09 3
1.69348e+09 1.09692e+09 1.66258e+09 2.09965e+07 1.36438e+09 7.31039e+08 8.42985e+08 2.20687e+08 1.65967e+09 1.18893e+09 9.51985e+08 2.72687e+08 1.76529e+09 3.82495e+08 9.5771e+08 1.89056e+09 8.92438e+08 1.42098e+09 1.94606e+08 1.6482e+09 8.09268e+08 1.75459e+09 1.15787e+09 7.7395e+08 1.24028e+09 2.27443e+08 2.76179e+08 8.07963e+08 6.40533e+07 1.96476e+09 1.72476e+09 1.75753e+09 0
1.23985e+09 1.77853e+09 1.31089e+08 1.97089e+09 4.74031e+08 3.51777e+08 1.48308e+09 1.66296e+09 1.30376e+09 1.75577e+09 1.28076e+09 1.68626e+09 5.65996e+08 1.02384e+09 4.31211e+08 1.98698e+09 1.21844e+09 2.07941e+09 6.48759e+08 8.25546e+08 1.0898e+09 1.42271e+09 2.06583e+09 1.31724e+09 1.69889e+09 7.26306e+08 1.3813e+09 1.51616e+09 3.03585e+08 9.91344e+08 2.82872e+08 1.54344e+09 1
4.13961e+08 1.36685e+09 1.09642e+09 7.65738e+08 7.02447e+08 6.11896e+08 2.0695e+09 3.10733e+08 1.89266e+09 1.60827e+09 8.76729e+08 7.6901e+08 2.03948e+09 7.16221e+08 1.98745e+09 1.97141e+09 1.36498e+09 6.65515e+08 9.13723e+08 6.40206e+08 5.83858e+08 8.34816e+07 1.9161e+08 1.31016e+09 1.46478e+09 1.70777e+09 1.61375e+09 3.08638e+08 1.99064e+09 1.0097e+09 9.31028e+08 2.57122e+08 1
2.02745e+09 1.02286e+09 9.31517e+08 4.91862e+08 9.44875e+08 1.24225e+09 2.37036e+08 4.05664e+08 2.11898e+09 1.00605e+09 2.97664e+08 6.87717e+08 8.46015e+08 1.21589e+08 2.0527e+09 1.51153e+09 1.03531e+09 5.45419e+08 2.09539e+09 1.11879e+09 7.3703e+08 1.25807e+09 4.36087e+08 2.97317e+08 7.24334e+08 7.44724e+08 1.40478e+08 1.73404e+09 1.67575e+09 3.97599e+08 1.96311e+09 1.55572e+09 3
7.47141e+08 2.04758e+09 2.1785e+08 1.98939e+09 1.37131e+08 6.23514e+08 1.96089e+09 1.14318e+09 9.21178e+08 5.0112e+08 1.98919e+09 1.04277e+09 4.06334e+08 1.35324e+09 2.07808e+09 9.51753e+08 1.30114e+09 1.04939e+09 1.68878e+09 4.11729e+08 1.48547e+09 1.9861e+09 1.13606e+09 8.27156e+07 2.12658e+09 7.22617e+08 1.75847e+09 3.76693e+08 5.38241e+08 1.1667e+09 1.79715e+09 1.28538e+09 3
2.015e+09 1.12729e+09 1.20393e+09 4.91032e+08 9.40694e+08 1.99622e+08 1.41221e+09 1.44181e+09 4.13315e+07 3.07493e+08 1.84815e+09 1.39457e+09 2.38088e+08 6.52418e+08 5.48231e+08 1.28748e+09 1.93717e+08 9.5996e+08 6.25467e+08 3.23331e+07 2.09602e+09 7.08183e+08 1.14272e+07 6.71156e+08 3.19167e+08 3.8812e+08 1.2094e+09 1.48587e+09 3.77884e+07 3.47296e+08 4.05182e+08 2.05279e+09 2
1.60911e+09 3.96339e+08 2.67797e+08 1.80873e+09 1.80855e+09 1.70961e+09 1.85006e+09 2.11604e+09 1.41028e+09 1.09715e+09 2.06646e+08 2.06269e+09 1.64538e+09 1.49412e+09 1.08926e+08 4.57859e+08 2.11959e+09 1.41259e+08 4.06397e+08 6.80288e+08 1.52687e+08 1.07755e+09 9.99455e+08 5.40807e+08 1.39467e+08 3.3784e+08 5.78595e+08 4.86764e+08 7.43021e+08 4.83902e+08 1.96135e+09 2.04648e+08 1
8.1664e+07 2.01338e+09 5.41307e+08 1.79128e+09 1.71596e+09 5.09865e+08 1.05407e+09 6.65629e+08 7.16511e+08 9.69277e+08 1.63528e+08 6.31487e+07 1.0782e+09 6.21386e+08 3.52539e+07 1.21946e+09 1.02778e+09 7.15542e+08 1.37215e+09 2.10534e+09 1.715e+09 1.91296e+09 9.73209e+07 2.05284e+09 3.44068e+08 5.84084e+08 6.48374e+08 8.27971e+08 3.97951e+08 8.53022e+08 1.70821e+09 4.79615e+08 3
1.02034e+08 1.23407e+08 2.87396e+08 6.11899e+08 1.17747e+09 9.53025e+08 1.32841e+09 2.14675e+09 1.11655e+09 1.39156e+09 1.07747e+09 1.73794e+09 1.42681e+09 1.49452e+08 6.18239e+08 2.14235e+09 1.5216e+09 5.76093e+08 1.70987e+09 1.28707e+09 6.73414e+08 1.61522e+09 1.63114e+09 1.2575e+09 1.1611e+08 3.1163e+08 1.65545e+09 9.69132e+08 2.01984e+09 2.13507e+09 1.68805e+09 2.12188e+09 1
1.97545e+09 5.86292e+08 1.28846e+09 7.80989e+08 1.9147e+09 1.28773e+09 1.89754e+09 1.15878e+09 2.1772e+08 1.488e+09 4.38105e+08 3.67172e+08 2.10624e+09 4.32976e+08 1.88877e+09 5.34847e+08 2.14284e+09 1.02836e+09 1.20826e+09 1.61058e+09 5.12024e+08 3.18276e+08 1.72669e+09 8.23654e+08 1.97373e+09 5.48339e+08 6.96011e+08 1.96131e+09 8.89062e+07 6.70404e+08 2.0723e+09 2.06435e+09 2
1.21328e+09 6.9786e+08 1.02391e+09 3.53524e+08 4.47918e+08 3.5206e+07 5.71244e+08 1.93592e+09 4.73311e+08 9.38416e+08 1.89467e+09 9.06287e+08 6.79706e+08 2.82033e+08 9.01647e+08 1.70807e+09 1.49029e+09 3.64743e+08 7.26105e+07 1.80857e+09 2.09143e+09 8.96264e+08 1.63481e+09 4.92288e+08 1.59228e+09 1.44863e+09 5.81194e+08 1.15196e+08 1.37345e+09 4.98065e+08 1.37189e+09 4.39238e+08 2
2.4832e+08 7.92762e+08 1.64384e+09 2.83526e+08 1.36401e+09 1.43228e+09 7.56838e+08 1.54939e+08 1.17946e+09 1.66313e+09 8.34645e+08 1.46149e+09 4.17289e+08 3.95232e+08 8.04304e+08 7.82032e+08 4.67842e+08 4.65389e+08 7.25982e+08 1.36411e+09 2.1002e+09 1.21827e+09 8.08898e+08 1.40135e+09 1.79946e+09 9.24094e+08 6.27312e+08 1.50045e+08 1.48501e+08 1.06655e+09 1.34597e+09 3.96821e+08 1
8.42329e+08 6.80347e+08 1.07583e+09 1.2712e+08 1.43719e+09 1.23077e+09 1.30658e+09 9.52827e+08 2.06542e+09 6.20591e+08 1.37012e+09 3.13165e+08 1.42489e+09 4.66419e+06 7.81007e+08 1.89028e+09 7.30646e+08 2.14511e+09 1.843e+09 1.94892e+09 8.06527e+08 1.09687e+09 1.6009e+09 1.73062e+09 1.72418e+09 1.75094e+09 1.87912e+09 6.43244e+08 9.49427e+08 1.28459e+08 3.55072e+08 1.79176e+09 2
1.43091e+09 1.91888e+09 9.85083e+07 5.14194e+08 1.07797e+09 1.05134e+09 4.32128e+08 1.69856e+09 2.73967e+08 7.45293e+08 9.75976e+08 2.78631e+08 1.5263e+09 7.18776e+08 1.00928e+09 1.52393e+09 4.14292e+08 8.10709e+08 1.82973e+08 1.51116e+09 2.64122e+08 1.91359e+09 1.08785e+09 2.01506e+09 1.64523e+09 1.7311e+09 8.17006e+08 1.77369e+09 2.08617e+09 4.61278e+08 4.35014e+08 1.36959e+09 1
5.33523e+08 1.88378e+09 1.31064e+09 1.58486e+09 1.68429e+08 8.61724e+08 1.85882e+09 9.13721e+08 1.8377e+09 2.13746e+09 2.92538e+08 4.08992e+08 9.9925e+08 1.81647e+09 8.23284e+08 1.80996e+09 1.99944e+09 1.86958e+08 2.07408e+09 1.76555e+09 1.27481e+09 1.94166e+09 1.2633e+09 8.58422e+08 6.11181e+08 8.89506e+08 7.97106e+08 1.07246e+09 1.32452e+09 1.92119e+07 1.30513e+09 1.85804e+09 3
4.68289e+08 1.29542e+09 2.07142e+09 1.33001e+09 1.00676e+09 8.37663e+08 1.02023e+09 9.9673e+08 1.1302e+09 1.42922e+09 1.99598e+09 7.99183e+08 1.05022e+08 1.65845e+09 6.51139e+08 2.9198e+08 1.58505e+09 2.69206e+08 1.56679e+09 1.37923e+09 1.5325e+09 2.77728e+08 1.99041e+09 2.74527e+08 1.07483e+09 9.15384e+08 1.59905e+09 1.09405e+09 7.30295e+07 1.30961e+09 8.49558e+08 5.41318e+08 2
7.735e+08 1.87133e+09 1.4643e+09 1.61116e+09 7.44077e+08 3.13545e+08 5.93879e+08 2.58157e+07 1.62041e+08 1.39306e+09 1.30838e+08 1.8205e+09 2.0442e+09 4.22819e+08 1.25806e+09 1.65924e+08 1.98961e+09 4.89807e+08 1.69843e+09 1.19853e+08 3.32732e+08 1.97296e+09 1.19469e+09 1.24812e+09 1.42452e+09 1.41249e+08 1.32115e+09 5.86642e+08 9.90807e+08 1.86246e+09 1.04418e+09 1.76431e+09 2
3.60997e+08 1.22799e+09 1.82905e+08 6.74542e+08 1.82186e+09 2.08721e+08 8.36583e+08 1.06744e+09 3.39559e+08 5.09595e+08 9.6416e+08 7.62378e+08 1.76766e+09 1.13008e+09 6.04503e+08 1.09983e+08 6.81029e+08 7.24356e+08 4.42715e+08 5.065e+08 1.91904e+09 1.69083e+09 1.93102e+09 2.06029e+09 8.64492e+08 3.70178e+08 9.03616e+08 5.79472e+08 1.41436e+09 5.20439e+08 1.83005e+07 1.77536e+09 0
2.01206e+08 3.02415e+08 1.42281e+09 4.09927e+08 1.139e+09 3.42764e+08 7.49486e+08 1.64859e+09 1.30692e+09 1.51186e+09 1.26877e+09 2.89525e+08 2.11637e+09 1.37875e+09 9.70554e+08 6.9324e+08 1.82147e+09 1.47705e+09 4.64799e+08 1.36481e+09 1.26059e+09 3.77608e+08 8.1822e+07 1.63077e+09 1.28122e+09 6.61294e+08 8.97643e+08 1.80166e+09 6.79595e+08 5.25516e+08 1.4026e+09 8.80801e+08 2
6.77926e+08 1.29073e+09 1.96693e+09 1.02069e+09 2.04021e+09 1.46804e+09 1.80131e+08 1.4046e+09 5.89322e+08 4.69657e+08 1.37348e+09 1.96807e+09 1.44021e+09 2.06672e+09 1.64206e+09 7.69781e+08 3.84035e+08 8.59386e+08 2.03037e+09 7.61643e+08 9.41208e+08 1.51365e+09 2.04287e+09 1.6025e+09 2.63813e+08 1.69705e+09 1.34614e+08 7.89329e+08 9.52166e+08 1.01541e+09 1.61726e+09 1.63009e+09 1
1.4367e+09 5.03299e+08 5.13895e+07 7.57258e+08 6.8343e+08 1.45598e+09 1.34658e+09 1.15309e+09 6.8198e+08 1.16717e+09 4.45813e+08 6.01215e+08 6.61743e+08 1.21559e+09 9.8525e+08 1.52113e+09 1.09848e+09 1.74689e+09 3.14854e+08 4.64651e+08 1.64228e+09 1.91736e+09 7.28464e+08 1.19184e+09 2.05197e+09 1.51779e+09 2.144e+09 9.199e+08 9.87569e+08 1.62661e+09 1.07856e+09 2.7679e+08 1
1.12995e+09 1.03405e+09 6.65858e+08 4.3845e+08 2.33145e+08 1.81894e+09 1.12043e+09 1.40032e+09 1.17274e+08 1.72165e+09 2.06206e+09 1.33287e+09 5.59412e+08 1.43571e+09 2.83865e+08 1.58821e+08 1.75056e+09 7.48515e+08 1.8011e+09 1.52043e+09 1.47698e+09 8.45451e+08 1.42492e+09 8.47288e+08 8.41971e+08 1.97334e+08 1.83486e+09 3.211e+08 1.27589e+09 2.11165e+09 3.03528e+08 2.58358e+08 0
9.69385e+08 6.96808e+08 1.23136e+09 6.40846e+08 1.81724e+09 4.8419e+08 7.58119e+08 1.3914e+09 3.98766e+08 2.09099e+09 1.95081e+09 1.83447e+09 2.27368e+08 2.10963e+09 1.43755e+09 9.75884e+08 1.76324e+09 8.10493e+08 3.05379e+08 4.61211e+08 8.79265e+07 1.15267e+09 1.30318e+09 2.8526e+08 8.40041e+08 1.62428e+09 1.56115e+09 8.04205e+08 1.92781e+09 1.81951e+09 1.80242e+09 7.49712e+08 3
8.86291e+08 1.39056e+09 3.85893e+07 1.37048e+09 1.19298e+06 1.42999e+09 1.76925e+09 2.09218e+09 1.23331e+09 1.45623e+09 1.72065e+08 1.19546e+09 7.46295e+08 1.14795e+09 8.11223e+08 1.55679e+09 1.45333e+09 1.27243e+09 1.64472e+09 4.58511e+08 4.28132e+08 1.92998e+09 1.29855e+09 2.05241e+09 1.34365e+09 2.10276e+09 1.83274e+09 1.01567e+09 1.75769e+09 4.34969e+08 1.38451e+09 4.96498e+08 0
1.4231e+09 1.86698e+09 1.82672e+09 7.05603e+08 1.48874e+09 1.77142e+09 1.93892e+09 7.97491e+08 1.94348e+09 9.86896e+08 1.54379e+09 9.43945e+08 1.79812e+09 9.53092e+08 2.49789e+08 9.23069e+08 4.50323e+08 7.08299e+08 1.3512e+09 2.32815e+08 2.00685e+09 1.25613e+09 1.57646e+09 1.96212e+09 9.4139e+08 4.4465e+08 1.57233e+09 1.37636e+09 1.82916e+09 2.06883e+09 1.0544e+09 1.10477e+09 0
7.33637e+08 1.81038e+09 1.12958e+09 3.57569e+08 1.60181e+09 1.92707e+09 1.53566e+08 4.41221e+08 1.32338e+09 1.09751e+09 9.18559e+07 1.28983e+08 1.3473e+09 1.01492e+09 5.79306e+08 2.0556e+09 2.18642e+08 8.12121e+08 1.91497e+09 1.47477e+09 2.41097e+08 1.72961e+09 2.6868e+08 6.85747e+08 1.15445e+09 1.64504e+09 3.67422e+08 1.0758e+09 5.51956e+08 1.47219e+09 7.16636e+08 1.28559e+09 1
1.84622e+09 1.64316e+09 5.89411e+08 1.62581e+09 1.79673e+09 1.03063e+09 8.01697e+08 7.46756e+08 1.12249e+09 9.3068e+08 2.09406e+09 2.13741e+09 1.50999e+09 2.00217e+09 2.0857e+08 1.74624e+08 1.76965e+09 1.68334e+09 4.15721e+08 1.35178e+09 1.95202e+09 1.10147e+09 3.58745e+08 1.44958e+09 1.46889e+09 1.43454e+09 2.00153e+09 7.936e+08 3.69447e+06 1.13964e+09 1.92869e+09 1.84991e+09 3
3.70613e+08 1.32823e+09 2.84567e+08 1.40125e+09 2.12993e+09 1.03132e+09 3.7625e+08 9.13128e+08 9.77895e+08 3.66178e+08 2.75631e+08 8.32582e+08 5.74749e+08 4.50255e+08 4.54752e+08 1.10609e+08 8.65976e+08 1.80653e+09 2.06263e+09 1.96744e+09 1.77883e+07 1.36473e+09 1.28885e+09 1.45233e+09 1.21878e+09 2.08245e+09 1.45602e+09 2.10938e+08 1.86365e+09 1.15845e+09 8.46261e+08 8.67831e+07 0
1.13083e+09 1.48803e+09 3.2165e+08 1.46669e+07 1.86428e+09 1.23478e+09 9.92562e+08 8.29731e+07 1.51041e+09 1.82514e+09 6.57722e+08 1.96066e+09 1.32412e+08 7.68331e+08 6.79156e+08 1.93894e+09 6.8348e+08 4.99116e+08 1.95673e+09 2.04821e+09 1.78797e+09 1.26157e+09 1.1195e+09 1.72293e+09 5.70115e+08 1.33044e+09 1.4391e+09 1.72857e+09 2.92173e+07 1.52589e+09 2.06777e+09 1.16004e+09 2
2.41937e+08 1.17471e+09 5.83226e+08 1.47671e+09 1.97901e+07 6.66199e+08 8.39639e+08 1.84493e+09 1.32392e+09 6.52819e+08 1.97735e+09 2.09225e+09 1.33197e+09 1.7688e+09 6.28248e+08 1.83109e+09 1.57805e+09 5.28972e+08 1.47157e+09 6.92137e+08 1.64847e+09 1.04702e+09 1.26225e+09 8.31431e+08 3.38644e+08 8.43335e+08 8.60648e+08 1.86453e+09 7.63622e+08 2.02069e+09 5.83479e+08 1.00556e+09 1
1.1667e+09 3.34789e+08 1.06771e+09 1.8329e+09 1.17443e+09 7.65162e+08 1.00934e+09 1.82725e+09 5.95025e+08 9.5411e+08 1.01174e+09 2.16343e+08 1.58236e+09 6.95346e+08 1.79439e+09 2.11133e+09 1.94372e+07 3.39042e+08 1.61232e+09 1.06646e+09 1.60129e+09 2.96269e+08 1.40511e+09 2.97145e+08 1.15692e+09 1.12215e+09 1.06077e+09 1.03013e+09 1.70563e+09 2.06633e+09 2.07805e+09 7.24854e+08 2
9.98277e+08 4.10274e+08 1.42806e+09 1.76344e+09 1.41962e+09 1.10782e+09 2.10981e+08 2.26242e+08 2.11956e+09 4.27324e+08 1.8086e+09 6.67425e+08 7.42293e+07 1.77245e+09 6.86863e+08 4.13271e+08 1.23729e+09 1.75332e+09 2.01457e+09 1.53355e+09 1.01095e+09 1.64227e+08 5.42988e+08 2.1331e+09 1.22499e+09 1.57312e+09 1.69125e+09 1.14384e+09 1.50368e+09 2.68619e+08 1.39747e+09 3.54475e+08 3
6.78042e+08 2.11791e+09 2.09851e+09 1.78587e+09 1.81411e+08 1.77267e+08 1.75794e+09 6.08735e+08 1.98587e+09 2.77886e+08 6.82964e+08 1.61083e+09 9.64749e+08 1.09624e+09 7.00632e+08 5.7059e+08 9.63317e+08 8.67024e+07 1.58154e+09 1.12754e+09 6.29691e+08 1.56715e+09 2.05054e+08 5.53229e+07 1.11092e+09 1.34889e+09 1.559e+09 1.37954e+09 5.98872e+08 1.91348e+09 2.05843e+09 1.27691e+09 2
2.00946e+09 9.15296e+08 2.06532e+09 3.92385e+07 5.25757e+08 5.26571e+08 2.02511e+09 8.03644e+08 1.20954e+09 1.48845e+09 1.76839e+09 1.58287e+08 4.15999e+07 1.91499e+08 1.1216e+09 1.28302e+08 1.77304e+09 1.01664e+08 7.57993e+08 1.1927e+09 3.06718e+08 8.13316e+08 1.5614e+08 1.65561e+09 2.24836e+08 1.53568e+09 1.06995e+08 2.13832e+09 1.44662e+09 1.38391e+09 1.87474e+09 1.3086e+09 2
1.79258e+09 1.34784e+09 6.77479e+08 1.71665e+08 1.22546e+09 1.48112e+09 1.3812e+09 5.66425e+08 1.10203e+09 1.53949e+09 6.08025e+08 1.29353e+09 5.13609e+08 7.36327e+08 9.19083e+08 6.15273e+08 1.49432e+09 2.11179e+09 9.21991e+08 1.60152e+08 1.20444e+08 4.30115e+08 3.84989e+08 1.65612e+09 5.3711e+08 3.7582e+08 9.55262e+08 1.92102e+09 1.03078e+08 1.16375e+08 2.07274e+09 1.89566e+09 0
6.02736e+08 2.06732e+09 5.42183e+08 2.08386e+09 1.30104e+09 1.10861e+09 1.03841e+09 6.93043e+08 1.71663e+09 1.84455e+08 1.20665e+09 3.05476e+08 1.10354e+09 1.82193e+09 1.7998e+09 1.06784e+09 5.96433e+08 1.95995e+09 1.18829e+09 1.02655e+09 1.97454e+08 6.96923e+08 1.56366e+09 5.73274e+08 1.65219e+09 1.33719e+09 6.76352e+08 1.76856e+09 1.26245e+09 4.24523e+08 1.08529e+09 1.86519e+09 3
1.62747e+09 1.80156e+09 1.6454e+09 5.88595e+08 6.92486e+08 1.90958e+08 1.57745e+08 8.76941e+08 1.39761e+09 4.63221e+08 1.98048e+09 1.07205e+09 1.15534e+08 9.00837e+08 1.66848e+09 2.07548e+09 2.08912e+09 5.47548e+08 1.25453e+08 6.38561e+08 2.11121e+09 6.98727e+08 1.43263e+08 1.30091e+09 1.37508e+09 1.91182e+09 4.15879e+08 1.7996e+09 8.49627e+08 1.33581e+08 2.14396e+09 3.29614e+08 0
1.64188e+09 9.18209e+08 4.80144e+08 1.83284e+09 1.07595e+09 1.35709e+09 1.08296e+09 1.53918e+09 1.19008e+09 7.5302e+06 1.65471e+09 2.09092e+09 1.67601e+09 1.58271e+09 2.03256e+09 7.6079e+07 1.70816e+09 5.23634e+08 3.98004e+07 2.59404e+08 6.66897e+08 1.34071e+09 1.63448e+09 4.31237e+08 1.75659e+09 1.2866e+09 1.28086e+09 1.89017e+09 1.28308e+09 1.61048e+09 1.67783e+09 7.77474e+08 2
1.04938e+07 4.62827e+08 1.45716e+09 1.36758e+09 1.54579e+09 8.4885e+08 4.10177e+08 1.55332e+09 3.56075e+08 3.53611e+08 1.08185e+09 1.93878e+09 2.38683e+08 1.15793e+09 1.49946e+09 7.62317e+08 1.19773e+09 1.75886e+09 1.42921e+09 3.9096e+08 1.24586e+09 1.86045e+09 69308 3.84982e+08 9.93832e+08 1.89024e+09 1.66806e+09 4.56826e+08 1.42059e+09 2.98052e+08 8.3803e+08 1.43109e+09 0
1.47705e+08 6.51182e+08 1.59185e+08 9.96554e+08 1.06136e+09 1.7125e+09 1.35263e+09 1.41497e+09 6.4687e+08 1.14393e+09 1.65365e+09 1.8048e+09 4.95906e+08 2.68487e+08 8.55045e+08 1.07287e+08 1.6977e+09 1.24601e+09 1.35315e+09 1.41067e+09 1.24607e+09 1.73813e+09 2.57017e+08 9.88834e+08 1.25871e+09 7.13844e+08 2.61943e+08 1.55676e+09 1.55187e+09 1.69303e+09 1.70159e+08 1.69958e+09 3
3.29344e+08 5.48649e+08 1.25809e+09 2.04185e+09 1.90128e+09 5.25573e+08 5.41234e+08 8.97724e+08 3.17426e+07 1.9855e+08 1.39363e+09 3.00229e+08 1.05359e+09 1.50092e+09 1.99793e+09 1.52116e+08 7.06585e+08 1.26112e+09 1.39819e+09 2.97235e+08 1.51813e+09 2.39541e+08 1.55595e+09 8.44923e+07 5.01484e+08 9.65225e+08 1.63637e+09 4.70308e+07 1.13538e+09 1.18846e+09 2.4376e+08 1.46473e+09 2
1.50185e+09 1.35909e+09 1.4909e+09 2.02742e+09 1.90033e+09 2.41145e+08 2.05916e+09 2.09888e+09 1.63477e+09 2.11909e+08 1.00499e+09 9.88208e+08 6.23553e+07 1.1571e+09 1.69479e+09 1.32347e+09 4.0781e+08 1.99203e+09 6.94119e+08 6.47351e+08 1.40049e+09 7.78612e+08 1.14884e+09 2.18232e+08 2.67494e+08 1.19587e+09 1.35362e+09 1.45596e+09 1.43963e+09 6.70861e+08 1.04558e+09 7.93989e+08 2
3.89002e+08 6.73926e+08 1.78279e+09 6.30147e+08 5.85606e+08 1.73419e+09 1.17438e+08 7.97515e+08 5.9169e+08 1.10565e+09 8.5987e+08 1.74879e+09 6.52956e+08 3.58568e+07 9.1186e+06 4.97501e+08 7.29976e+08 6.56469e+08 1.89799e+09 1.50859e+09 1.8053e+09 2.11622e+09 1.77608e+09 8.53687e+08 1.32236e+09 1.08455e+09 1.4583e+08 1.99322e+09 2.13014e+09 9.39819e+08 1.87569e+09 3.71654e+08 2
1.511e+09 1.0018e+09 5.18671e+07 1.0977e+09 1.11924e+09 8.49382e+08 1.68939e+09 7.74015e+07 1.70925e+09 1.2907e+09 7.30358e+08 1.74511e+09 1.29982e+09 1.22786e+09 3.27601e+08 1.95629e+09 9.78366e+08 1.83619e+09 1.61411e+09 9.47105e+08 1.46479e+09 3.20311e+08 1.21977e+08 4.01858e+08 4.66141e+08 2.11519e+09 3.84509e+08 1.40596e+09 1.84339e+09 7.56163e+08 8.72221e+08 1.20691e+09 3
9.24088e+08 1.57124e+08 7.29719e+08 1.77347e+09 1.84651e+09 8.07121e+08 1.33524e+09 9.89728e+08 1.53748e+09 9.32862e+08 1.42061e+08 6.17853e+08 1.26046e+09 2.09835e+09 1.59622e+09 9.49169e+08 1.56497e+09 3.9584e+08 2.66473e+08 1.88528e+09 5.17817e+08 6.68331e+08 2.03939e+08 4.85526e+08 1.05284e+09 1.6099e+09 1.81437e+08 1.809e+09 3.34636e+08 1.38834e+09 1.41948e+09 1.25872e+09 2
1.71924e+06 8.8471e+08 1.2445e+09 8.0884e+08 7.24645e+07 8.67418e+07 1.98835e+08 1.00533e+09 2.28803e+08 8.16688e+08 1.18307e+08 1.79666e+08 2.65423e+08 1.06748e+09 1.74464e+09 6.61263e+08 1.33395e+09 1.48244e+09 1.17908e+09 2.00228e+09 1.68637e+09 1.66461e+09 9.07635e+08 1.14879e+09 1.84604e+09 5.69155e+08 1.48343e+09 1.0869e+09 1.98864e+09 5.94667e+08 4.84888e+08 1.99036e+09 3
1.72939e+09 6.51714e+08 1.55184e+09 1.81613e+09 8.50549e+08 4.09685e+08 2.04493e+09 1.66724e+09 5.27992e+08 7.71121e+07 1.93266e+09 1.59547e+09 1.82175e+09 4.4644e+08 7.81932e+08 1.1567e+09 1.62552e+09 6.36727e+08 6.95592e+08 1.14264e+09 1.54436e+09 1.84438e+09 8.412e+08 2.11352e+09 1.18033e+09 1.9281e+09 1.95467e+09 1.77499e+09 2.65507e+08 1.79755e+09 1.10689e+09 1.99489e+09 0
5.11245e+08 1.66354e+09 1.15232e+09 9.20931e+08 1.56098e+09 6.72077e+08 1.44892e+09 1.63809e+09 4.57253e+08 8.96906e+08 1.31236e+09 9.03693e+08 1.67884e+09 3.21576e+08 3.81729e+08 1.68081e+08 1.01717e+09 1.52437e+09 1.71244e+09 7.14067e+08 2.18086e+08 1.67848e+09 1.89439e+09 2.14619e+09 1.48566e+09 1.5219e+09 2.64212e+08 1.13573e+09 4.81305e+08 1.1162e+08 1.4375e+09 9.9255e+08 1
4.42341e+08 1.91348e+09 1.18865e+09 1.11442e+09 1.21492e+09 6.79264e+08 1.57167e+09 2.11183e+09 1.99162e+09 3.27881e+08 1.64318e+09 1.65716e+08 7.0961e+08 1.81126e+09 1.18288e+09 8.6496e+07 1.37622e+09 1.89695e+09 3.04582e+08 9.07213e+08 1.64386e+09 3.03287e+08 2.45393e+08 1.01828e+09 5.67499e+08 1.38112e+09 1.49958e+09 6.79119e+08 6.71135e+08 3.4465e+08 3.06791e+08 1.11348e+09 1
1.49544e+09 8.04115e+07 1.32557e+09 2.72252e+07 1.65208e+09 1.28991e+09 2.01885e+09 1.97996e+09 7.85607e+08 3.70802e+07 5.42091e+08 4.49385e+08 1.21996e+09 6.28587e+08 1.82561e+09 9.69432e+08 9.33169e+08 5.85336e+08 4.65809e+08 1.23646e+09 8.30729e+08 1.48409e+09 1.80395e+09 6.43632e+07 8.36188e+08 3.3559e+08 7.35498e+08 1.18084e+09 6.42381e+08 1.84898e+09 1.29149e+09 2.13783e+09 2
4.6957e+08 1.75673e+07 1.43399e+09 1.75948e+09 2.03642e+09 1.26647e+09 3.97603e+08 2.0735e+09 1.80856e+09 8.46989e+08 1.14598e+09 2.89662e+08 5.25111e+08 2.11541e+09 1.22283e+09 1.11045e+09 4.33735e+08 3.11803e+08 1.94118e+09 1.91782e+09 2.11576e+09 2.00554e+09 6.06527e+08 3.03863e+08 5.93553e+08 1.78737e+09 9.46244e+08 2.95045e+08 9.31368e+08 9.36586e+08 7.69476e+07 1.40094e+09 1
1.51093e+09 1.01293e+09 8.43085e+08 6.29918e+08 1.41054e+09 7.69097e+08 2.90993e+08 1.10043e+08 1.91507e+09 5.80654e+08 6.35154e+08 1.883e+09 1.80348e+09 1.7456e+09 1.69249e+08 2.11529e+09 1.53929e+09 2.08707e+09 2.08356e+09 1.39735e+09 5.46116e+08 2.3994e+08 1.9909e+09 1.85998e+08 1.18618e+09 1.38461e+08 1.11737e+09 2.12277e+09 2.15408e+08 3.70821e+08 9.29438e+08 1.72634e+09 3
1.77252e+09 2.08777e+08 6.4681e+08 3.94136e+08 4.99769e+08 7.56853e+08 1.61726e+08 1.08042e+09 1.39201e+09 2.04472e+09 7.36425e+08 9.90124e+08 6.64904e+07 7.04229e+08 3.81932e+08 6.07897e+06 6.40306e+08 1.77928e+09 5.52195e+08 8.80246e+08 1.62269e+09 7.38193e+08 2.06643e+09 1.76115e+09 1.85556e+09 2.04171e+09 1.97656e+09 7.8897e+07 8.23669e+08 1.55542e+09 1.46265e+09 4.48709e+08 3
2.10946e+09 8.42845e+08 1.16484e+08 7.18832e+08 1.00457e+09 1.19691e+09 2.11084e+09 9.01812e+08 1.93333e+09 9.53479e+08 9.68303e+08 4.90078e+08 1.33541e+09 9.74382e+08 1.13038e+09 9.67206e+08 1.52658e+09 2.01063e+09 4.42417e+08 1.17286e+08 1.92958e+09 5.6088e+07 1.97285e+09 1.82381e+09 2.03265e+09 2.05174e+09 4.99992e+08 1.44059e+09 1.36691e+09 9.48701e+08 1.0573e+09 1.32889e+09 0
1.17379e+09 2.04772e+09 6.48634e+08 2.23212e+08 2.01108e+09 1.55045e+09 9.06181e+06 8.17074e+08 3.71266e+08 4.9914e+08 5.00171e+06 1.34565e+09 1.62952e+09 9.72208e+08 7.2474e+08 1.49267e+09 1.41462e+09 8.42026e+08 1.27476e+09 1.47071e+09 6.67388e+08 9.51086e+08 1.35588e+09 5.71647e+08 1.45108e+09 6.48985e+08 1.93856e+09 2.52297e+08 1.70629e+09 1.11997e+09 2.04384e+09 7.32594e+08 3
5.44994e+08 9.55806e+08 8.83799e+08 2.09544e+09 9.64868e+08 1.70087e+09 3.19222e+08 1.46401e+09 1.70588e+09 1.66487e+09 9.46049e+08 5.30599e+08 2.42126e+08 2.91237e+08 1.94522e+09 1.08415e+09 1.566e+09 1.26845e+09 1.75154e+09 3.69602e+08 4.76848e+08 1.75703e+08 1.82068e+09 1.12583e+09 2.11426e+09 2.07298e+09 6.8464e+08 1.08674e+09 1.96934e+09 1.41723e+09 2.10695e+09 3.66847e+08 0
8.43263e+08 3.14804e+08 1.19042e+09 3.96653e+08 6.34026e+08 5.06949e+08 2.10253e+09 1.51411e+08 1.453e+09 4.85643e+08 3.93537e+08 1.74423e+09 2.83383e+08 1.47769e+09 1.16275e+09 1.55184e+09 1.08174e+09 1.53235e+09 2.02868e+09 1.25745e+09 1.20555e+09 1.00703e+09 1.22422e+09 1.13104e+09 1.69167e+09 1.63483e+08 9.52898e+08 9.61424e+08 1.22947e+08 1.31974e+09 1.18698e+09 9.66209e+08 3
2.29921e+08 1.36286e+09 1.21091e+08 7.3687e+08 1.31791e+09 2.72502e+08 4.23841e+07 1.80355e+09 6.66039e+08 1.78662e+09 2.08693e+09 2.14373e+09 8.01886e+08 1.49128e+09 1.07799e+09 1.86755e+08 1.37248e+09 1.87951e+08 1.39231e+09 2.32035e+08 1.41218e+09 3.75866e+08 1.92371e+09 1.57566e+09 1.32876e+09 7.37649e+08 1.69861e+09 5.01026e+08 1.92463e+09 5.17332e+08 2.13557e+09 7.0665e+06 3
1.09181e+08 7.43936e+08 1.05062e+09 3.81683e+08 7.8632e+08 7.06682e+08 1.04772e+09 4.25455e+08 6.46131e+08 1.04396e+09 1.22734e+09 2.13742e+09 2.12195e+09 1.4141e+09 1.36242e+09 1.6242e+08 6.58918e+08 1.59445e+09 1.5746e+09 1.03478e+09 1.37068e+09 1.00277e+09 2.16065e+08 2.10833e+09 5.53894e+08 7.17091e+08 1.88547e+09 1.07123e+09 7.05182e+08 1.89254e+09 8.03936e+08 8.14363e+08 3
1.85455e+09 1.19605e+09 1.27531e+09 4.1375e+08 9.62832e+07 1.70077e+09 1.05988e+09 1.14025e+09 7.80625e+08 1.04981e+09 1.11472e+09 4.72378e+07 2.64745e+08 1.27714e+09 7.06156e+08 1.8592e+09 7.0425e+08 1.74094e+09 1.08239e+09 1.70702e+09 1.95701e+09 1.04323e+09 1.13432e+08 5.26614e+08 7.81224e+08 1.18466e+09 1.2318e+09 5.26279e+08 1.98859e+09 2.04616e+09 1.01527e+09 1.69566e+09 0
1.431e+08 2.10941e+09 1.191e+09 1.84387e+09 1.02181e+09 1.83767e+08 4.77009e+08 2.07162e+09 1.29848e+09 5.24247e+08 1.88882e+08 4.28137e+08 1.2304e+09 2.04808e+09 1.13239e+09 8.2386e+08 9.82986e+08 6.91924e+08 6.33382e+08 2.02622e+09 8.05356e+08 1.16e+09 6.59961e+08 1.99001e+09 2.44308e+08 1.18624e+09 1.83112e+09 1.42982e+08 5.40279e+07 1.3793e+09 1.2377e+09 1.97128e+08 1
2.81221e+08 2.041e+09 2.15552e+08 4.64989e+08 3.70521e+08 1.39689e+08 1.76347e+09 8.94767e+08 3.28571e+08 4.41261e+07 2.12517e+09 2.29166e+08 1.17651e+09 8.01546e+08 1.21215e+09 1.86844e+09 1.43493e+09 1.09089e+09 5.2631e+08 4.47441e+08 1.75085e+09 3.68839e+08 6.91749e+08 7.89607e+08 5.24785e+07 8.34731e+08 8.43635e+08 1.43178e+09 2.07243e+09 1.04076e+09 6.25523e+08 2.0617e+08 3
8.41075e+08 6.71159e+08 1.30479e+09 9.80764e+08 2.87147e+08 5.20787e+07 1.30934e+09 3.31273e+08 2.97651e+07 1.5385e+09 1.50779e+09 8.31311e+08 6.0317e+08 1.22874e+09 1.18756e+08 1.69406e+09 1.75505e+09 5.66197e+08 1.29743e+09 2.12389e+09 1.25795e+09 2.08703e+09 2.88842e+07 2.09268e+09 7.83185e+08 1.46066e+09 2.01763e+09 1.82395e+09 2.08619e+09 7.63117e+07 6.10738e+08 7.79777e+08 1
1.91553e+09 1.76054e+09 1.03462e+09 1.96761e+09 9.22393e+08 1.36589e+09 1.99738e+09 3.13411e+08 7.26194e+08 6.81205e+08 9.16581e+08 1.95493e+09 7.99961e+08 4.63157e+08 1.5625e+09 1.36616e+09 1.76058e+09 1.53891e+09 4.76621e+08 1.70013e+09 1.56779e+09 4.21813e+08 3.35835e+08 8.8097e+08 2.91955e+08 1.22988e+07 8.19672e+08 3.68267e+08 6.23037e+08 1.59945e+09 1.11574e+09 3.91086e+08 2
2.8709e+06 2.11214e+08 2.1349e+09 1.36876e+09 6.11076e+07 3.00827e+08 2.09496e+09 7.42312e+08 1.21741e+09 1.90241e+09 1.54227e+09 1.68057e+09 1.31742e+09 7.60948e+08 1.29367e+09 7.08845e+08 1.23757e+09 8.46317e+08 1.29152e+08 1.65938e+09 1.18215e+09 1.01012e+09 1.95134e+09 1.19445e+09 1.82979e+09 1.7212e+08 1.81749e+09 1.28176e+09 1.28786e+09 6.109e+07 3.46782e+08 1.29073e+09 2
3.34198e+08 5.12006e+08 3.33412e+08 6.35025e+08 4.59478e+08 1.07572e+09 1.85243e+09 2.14401e+08 4.70514e+08 1.38552e+09 1.53182e+09 1.23146e+09 5.31698e+08 9.31857e+07 3.21546e+08 1.37802e+09 2.22338e+08 1.98093e+09 4.12683e+08 1.23246e+09 1.78478e+09 1.60713e+09 9.14769e+08 1.9569e+09 1.27714e+09 4.90443e+07 1.09727e+09 1.33823e+09 3.95826e+08 2.40519e+08 1.61053e+09 7.30024e+08 2
1.94394e+09 1.36505e+09 1.212e+09 8.72184e+08 1.07e+09 1.4264e+09 1.3427e+09 3.08032e+08 8.10745e+08 4.26675e+08 8.39731e+08 9.0393e+08 7.48221e+08 7.02619e+07 1.12627e+09 5.81665e+08 4.82945e+08 2.11244e+08 2.18963e+08 2.09008e+09 1.12601e+09 2.83801e+07 1.21973e+09 1.17506e+09 1.12565e+09 4.10475e+08 1.57088e+09 1.36617e+09 2.02101e+09 1.53425e+08 2.1187e+09 1.81747e+09 1
1.18322e+09 5.42167e+08 4.40991e+08 4.62139e+08 1.88487e+09 7.49023e+08 1.27288e+09 1.64057e+08 1.58875e+09 2.9331e+07 9.12278e+08 1.65902e+09 1.1556e+09 1.49394e+09 2.14196e+09 1.36684e+09 1.71291e+09 2.08455e+09 3.45373e+08 1.74129e+09 1.1568e+09 1.52043e+09 7.19457e+08 1.56728e+09 9.4383e+08 2.08563e+09 1.4408e+09 1.09725e+09 2.05685e+09 1.11079e+09 4.68246e+08 1.09258e+09 3
9.09236e+08 1.55472e+09 1.39033e+09 1.65826e+09 6.80121e+08 1.55439e+09 1.09953e+09 7.09452e+08 3.19186e+08 6.1106e+08 1.86505e+09 1.81313e+09 6.05537e+08 1.08441e+09 1.37855e+09 5.42608e+08 1.42978e+09 9.72355e+08 1.69941e+09 8.02729e+08 1.69181e+09 1.11921e+09 1.74656e+09 1.62996e+09 4.12525e+08 6.96331e+08 1.53932e+09 1.52331e+09 1.16458e+09 4.84419e+08 1.02878e+09 2.07381e+09 1
2.7163e+08 1.58459e+09 5.71776e+08 1.82602e+09 5.36634e+08 1.28123e+09 2.14521e+09 1.14769e+09 9.98795e+08 1.81085e+09 1.75323e+09 2.08321e+09 1.04192e+09 1.48356e+08 1.3655e+09 2.01428e+09 1.84777e+09 2.07501e+07 1.55861e+09 8.1949e+08 1.76731e+09 1.04108e+09 1.23201e+09 3.16157e+08 4.32921e+08 6.07841e+08 1.48073e+09 9.1734e+08 1.63662e+09 1.40706e+09 8.08995e+08 1.90825e+09 0
1.38077e+09 1.58679e+09 1.3808e+09 5.14515e+08 1.58451e+09 3.81013e+08 1.51331e+09 1.24788e+09 2.13424e+09 1.44903e+09 1.42318e+08 1.35116e+08 6.67052e+08 9.11161e+06 1.98288e+09 6.87802e+08 1.56772e+09 6.54889e+08 3.07628e+08 4.61316e+08 1.8869e+09 6.23786e+08 8.94237e+08 3.47262e+08 2.10452e+09 1.81158e+09 1.98388e+09 1.3641e+09 4.73088e+08 1.74465e+09 6.07844e+07 1.85386e+09 0
1.44159e+09 2.2089e+08 6.20978e+08 1.8226e+09 1.7342e+09 1.86886e+09 1.80936e+09 1.03575e+09 2.01118e+09 1.94448e+09 1.7028e+09 2.02029e+09 1.77988e+09 2.43119e+08 1.44052e+09 2.87282e+08 5.50747e+08 1.90184e+09 2.67027e+07 1.17453e+09 6.48591e+08 3.73964e+08 1.13157e+09 3.12684e+08 2.10362e+08 3.48184e+08 7.85772e+08 1.95501e+09 4.08969e+08 4.92147e+08 9.91478e+08 1.85056e+09 2
1.61246e+09 1.52567e+09 2.99754e+08 1.33383e+09 1.18755e+09 1.3355e+09 1.19752e+09 9.84542e+08 8.90819e+08 1.07033e+09 6.16935e+08 1.13394e+09 3.63364e+08 9.04217e+08 1.68469e+09 1.17719e+08 9.3092e+08 7.11734e+08 7.6631e+08 1.30488e+09 1.8433e+09 1.07899e+09 1.51525e+09 4.40038e+07 1.86477e+09 1.32277e+09 4.52973e+08 2.09429e+08 1.66767e+08 1.56045e+08 9.22466e+08 1.77922e+09 2
1.22222e+09 9.65568e+08 7.21783e+08 4.1024e+08 1.5607e+07 1.70632e+09 1.30106e+09 1.08593e+09 1.75776e+08 2.87513e+08 1.4493e+09 1.07999e+09 1.9722e+09 1.56702e+09 2.01091e+09 5.36449e+08 1.85842e+08 1.16831e+09 2.32268e+08 1.26484e+09 5.36076e+08 2.76272e+08 9.82118e+08 1.85885e+09 7.29245e+08 1.19155e+09 2.02562e+09 8.8529e+08 2.11401e+09 1.65735e+09 4.19523e+08 1.18875e+09 2
1.14131e+09 1.59899e+09 4.91046e+08 7.00147e+08 7.52565e+08 1.57698e+09 8.75923e+08 1.04008e+09 8.78793e+08 1.95592e+09 8.64793e+08 2.98325e+08 1.81935e+09 1.40124e+09 4.84168e+08 8.40176e+08 1.63351e+09 1.749e+09 1.37625e+09 1.90978e+09 5.83638e+08 1.08762e+09 4.91544e+08 1.77519e+09 9.65748e+08 1.37683e+09 1.74172e+09 4.75619e+08 1.79636e+09 7.82983e+08 9.51057e+08 7.90178e+08 0
1.4421e+09 1.49033e+09 9.87055e+08 8.71598e+08 2.18765e+08 2.02713e+09 1.75039e+09 2.71977e+07 7.44443e+08 2.04872e+09 1.84654e+09 2.14569e+09 3.85399e+08 5.39236e+08 1.63171e+09 2.1344e+09 1.91549e+09 1.39401e+09 5.70558e+08 8.55621e+08 1.88556e+09 1.9826e+08 1.82137e+09 1.1149e+09 1.93998e+09 1.49504e+08 7.63778e+08 5.75475e+08 1.10056e+09 1.55396e+09 8.09964e+08 3.9518e+08 0
1.79702e+09 1.26678e+09 1.11556e+09 1.67667e+09 8.69685e+08 1.14276e+09 2.73629e+08 7.70917e+08 8.4182e+08 2.71831e+08 1.15632e+09 1.38106e+09 1.90354e+09 1.14324e+09 1.14906e+09 1.15007e+09 1.71379e+09 2.00468e+09 8.88142e+08 1.91205e+09 1.67857e+09 2.00305e+09 1.70455e+09 1.82807e+09 6.19341e+08 1.32536e+08 7.81148e+08 2.58137e+07 9.425e+08 1.17633e+09 9.22611e+08 5.92036e+08 3
2.03817e+09 1.21221e+08 1.16531e+09 1.03345e+09 3.9485e+08 1.93622e+09 1.87527e+09 6.66681e+08 9.45057e+08 1.10884e+09 4.2274e+08 2.08829e+09 1.10418e+08 1.57281e+09 1.6546e+09 2.1151e+09 3.1347e+08 1.41917e+09 1.64618e+09 1.69033e+08 9.76234e+08 1.32677e+09 7.88375e+08 1.10877e+09 2.10791e+09 8.14188e+08 2.05127e+09 1.13676e+09 1.7368e+09 4.95823e+08 1.43238e+09 1.62749e+09 2
4.50205e+08 5.13456e+08 1.01189e+09 2.38946e+08 2.41242e+08 1.67858e+09 1.184e+09 1.35008e+09 2.10132e+09 1.12481e+09 1.4605e+09 1.52664e+09 6.31931e+08 1.42812e+09 1.84011e+09 2.0511e+09 9.26814e+08 2.00915e+09 8.79854e+08 1.06097e+08 6.50036e+08 1.98863e+09 6.65275e+07 1.46422e+09 1.89241e+09 1.20329e+09 1.05354e+09 2.40752e+08 4.88184e+08 5.33547e+08 8.57796e+08 9.38389e+08 2
1.86969e+09 1.17733e+09 1.28824e+09 1.40078e+09 2.13853e+08 4.90846e+08 1.35461e+09 1.33867e+09 1.95135e+09 7.33772e+08 1.9706e+09 1.23198e+09 4.264e+08 1.87422e+09 1.13115e+07 2.88061e+08 6.06587e+08 1.17408e+08 9.38097e+08 4.47728e+08 1.83936e+08 2.54838e+08 1.92657e+08 1.38722e+09 1.30838e+09 4.33408e+08 1.87541e+09 1.84193e+09 1.2912e+09 6.66311e+08 7.41444e+08 1.01341e+09 0
2.02969e+09 2.6671e+08 2.0575e+09 3.73051e+08 1.62132e+09 1.24868e+09 1.76916e+08 2.07612e+08 1.07179e+09 1.4089e+09 6.34012e+08 7.98525e+08 1.42021e+09 9.22073e+08 1.40511e+09 1.53762e+09 1.86017e+09 1.85284e+09 1.72155e+09 2.11501e+09 2.0455e+09 9.61291e+08 1.2759e+09 3.31421e+08 6.89213e+08 9.70346e+08 1.62263e+09 1.35552e+09 1.71179e+09 4.88554e+08 1.05169e+09 1.594e+09 3
9.61701e+08 1.96705e+09 2.29103e+08 6.28978e+07 2.14396e+09 4.36715e+08 1.13469e+09 1.40538e+09 1.07073e+09 1.93322e+09 6.78102e+08 1.9928e+09 1.19084e+09 6.82348e+07 1.70549e+09 8.96199e+08 1.78979e+09 1.67301e+09 7.94212e+08 6.03595e+08 8.01433e+08 1.12563e+09 1.29281e+09 1.77178e+09 6.00775e+08 5.00849e+08 1.33609e+09 1.08933e+09 1.55254e+09 7.82598e+08 1.84459e+09 3.66753e+08 3
2.0737e+09 4.29651e+08 5.98641e+08 3.62927e+08 1.56434e+09 2.00402e+09 1.43365e+09 1.35007e+09 5.34635e+08 1.27897e+09 3.93432e+08 6.0287e+08 8.36974e+08 1.28963e+09 2.45174e+08 3.62502e+08 2.08384e+09 8.48769e+08 1.16394e+09 1.06199e+09 2.14158e+09 7.88231e+08 1.66277e+09 4.94943e+08 2.12432e+09 6.04613e+08 2.04748e+09 7.59431e+08 3.01721e+08 2.66748e+08 1.36159e+09 2.27933e+08 3
1.96023e+09 5.9086e+08 1.13256e+08 1.81677e+09 2.02451e+09 1.46333e+09 2.03919e+08 1.156e+09 1.85676e+09 8.06789e+08 1.99297e+09 9.98907e+08 1.05196e+09 2.07993e+08 9.35266e+08 1.90073e+09 1.37193e+09 1.99726e+09 1.89483e+09 1.26754e+07 1.51254e+09 2.42286e+08 2.13699e+09 2.11716e+09 1.42281e+08 7.48939e+08 2.71393e+08 4.09028e+08 2.11053e+09 4.99327e+08 1.10543e+09 1.92328e+09 0
1.21868e+09 1.59257e+09 9.67218e+08 5.34527e+08 1.79648e+09 2.12322e+09 2.43804e+08 4.5579e+08 1.96871e+09 1.24271e+09 1.50775e+09 2.92182e+07 3.04937e+07 1.261e+09 1.40115e+09 2.02775e+09 1.00835e+09 1.41382e+09 1.39281e+09 1.25063e+09 1.40333e+09 1.36248e+09 1.39291e+09 4.78561e+06 1.63388e+09 1.80194e+09 2.11532e+09 2.1332e+09 7.59883e+08 1.89111e+09 1.07591e+09 1.97857e+09 1
2.04312e+09 3.6561e+08 9.85197e+08 2.01886e+09 6.09413e+08 1.44099e+09 1.84008e+09 1.85212e+09 8.01257e+08 1.8693e+09 1.88262e+09 2.06226e+09 1.12297e+09 1.76289e+09 9.23121e+08 3.89304e+08 1.00821e+09 2.62684e+07 1.79263e+09 2.23214e+08 1.41918e+09 1.79742e+09 1.85709e+09 1.07364e+09 1.76525e+09 1.84281e+09 1.83352e+09 1.50888e+09 7.71233e+08 1.6646e+09 6.97597e+08 6.66874e+08 2
1.68279e+09 5.38249e+08 4.92142e+08 9.76297e+08 2.3085e+08 1.96782e+08 1.77755e+09 2.10015e+09 2.0794e+09 1.69233e+09 1.07563e+09 1.6948e+09 4.67966e+08 1.46494e+09 5.55534e+08 4.94234e+08 1.11009e+09 7.78748e+08 1.91341e+09 7.60025e+08 4.88355e+08 8.39568e+08 3.77795e+08 1.83682e+08 5.25604e+08 1.88668e+09 9.54915e+08 4.27234e+07 4.36792e+08 1.62179e+09 2.07294e+09 2.11959e+09 1
4.17594e+08 9.48399e+08 2.43405e+08 6.14376e+08 5.78469e+08 1.96074e+08 5.46293e+08 1.23314e+08 1.27171e+09 9.36126e+07 5.9128e+08 5.89164e+08 6.49147e+08 1.08551e+09 1.69925e+09 1.4279e+09 8.51445e+08 3.11795e+08 1.91625e+09 1.69101e+09 6.89589e+08 2.09993e+09 6.91333e+07 4.28784e+08 9.07364e+08 1.11857e+08 8.65577e+08 3.81669e+08 3.73087e+07 8.37679e+08 3.94223e+08 4.54902e+08 3
6.37628e+08 1.06928e+09 2.17064e+08 8.33702e+08 1.61557e+09 3.40378e+08 2.10541e+09 1.70918e+09 9.31658e+08 5.47091e+08 2.10847e+08 2.01717e+09 9.88606e+07 1.63874e+09 7.21133e+08 4.10655e+08 1.40751e+09 2.64662e+08 1.10024e+09 1.35996e+09 3.33796e+08 1.52903e+09 1.19838e+08 4.45652e+08 2.47122e+08 5.01507e+08 4.82961e+08 1.0848e+09 8.9573e+08 9.37864e+08 7.23396e+08 1.53336e+09 3
9.4046e+08 2.19576e+08 1.47523e+09 1.28084e+09 1.77503e+08 1.03693e+09 6.50128e+07 7.24594e+08 1.24778e+09 2.08219e+09 8.23454e+08 7.39037e+08 6.55835e+08 1.23411e+09 2.14655e+09 9.20497e+08 1.8687e+08 1.35902e+09 1.25429e+09 1.7159e+09 1.47886e+09 1.69995e+09 1.96302e+09 1.98037e+09 3.54226e+07 9.00339e+08 7.28613e+08 9.73286e+08 1.62373e+09 1.14487e+08 8.32945e+08 4.16711e+08 1
1.60691e+08 1.69755e+09 5.11566e+08 1.19762e+09 1.76256e+09 1.23616e+09 2.97916e+08 1.69726e+09 2.05961e+09 1.03695e+09 2.05615e+08 1.14624e+09 1.03602e+09 1.12611e+09 1.33311e+09 2.47554e+08 2.32921e+08 9.01525e+08 1.72641e+09 1.93287e+09 7.17062e+08 1.5593e+09 1.96829e+09 1.6174e+09 1.40427e+08 7.94091e+08 1.09365e+09 2.54914e+08 1.62704e+09 1.51036e+09 5.88977e+08 1.78773e+09 0
1.10054e+09 8.37865e+08 6.75508e+08 1.89218e+08 1.13578e+09 2.25288e+08 1.01348e+08 2.5251e+07 4.30903e+08 1.24759e+09 1.06127e+09 1.55701e+09 4.33213e+08 1.30882e+09 1.78994e+09 1.33474e+09 8.87752e+08 1.57532e+09 2.0518e+09 2.99566e+08 1.39612e+09 1.52172e+09 4.39993e+08 4.27322e+07 4.67886e+08 6.94908e+08 1.66977e+09 1.97825e+09 1.28388e+09 1.31001e+09 8.91194e+08 2.36944e+08 1
1.5667e+09 4.26162e+08 1.13618e+09 1.79199e+09 5.2751e+08 1.16143e+09 7.5409e+07 1.7751e+09 7.52099e+07 1.63242e+09 6.08269e+07 1.38403e+09 1.27488e+09 1.39557e+09 1.243e+08 7.02712e+08 1.29988e+09 4.23867e+08 2.09884e+09 6.74116e+08 8.6386e+08 2.14157e+09 1.142e+09 1.55877e+09 1.66385e+09 9.72767e+08 6.95169e+08 8.26382e+08 1.86396e+09 9.32112e+08 8.26775e+08 1.28318e+09 0
1.96295e+09 9.27686e+08 1.88578e+09 9.76893e+08 1.0031e+09 1.5134e+09 1.0521e+09 4.88036e+08 1.57422e+09 2.88651e+08 1.76291e+09 8.22306e+08 4.12951e+08 3.18141e+08 2.12219e+09 8.36818e+08 2.69493e+08 6.4882e+08 1.70068e+09 2.63578e+08 1.79082e+09 1.11196e+09 1.92743e+09 6.16106e+08 1.80713e+09 6.06329e+08 3.32584e+08 5.9176e+08 1.4331e+09 1.61576e+09 1.95003e+09 1.24857e+09 3
1.68833e+09 7.79814e+07 1.39906e+09 1.05425e+09 1.13008e+09 1.8871e+09 4.80989e+08 1.41874e+09 1.50253e+09 1.3033e+09 1.83169e+09 1.82067e+09 1.278e+09 5.21021e+08 2.09016e+09 1.92682e+09 7.42159e+07 2.06255e+08 1.57016e+09 1.18618e+09 2.13369e+09 3.87807e+07 8.45826e+08 5.92532e+08 3.71365e+08 1.43759e+09 2.02564e+09 1.98713e+09 1.24014e+09 1.12672e+09 2.35613e+08 7.80987e+08 1
1.63468e+09 1.83524e+09 1.87307e+08 1.37429e+09 1.68741e+08 1.60604e+09 7.29333e+08 1.47204e+09 1.29025e+09 4.02517e+08 6.02552e+08 1.81127e+09 3.45194e+08 3.81888e+08 1.88548e+09 5.51449e+08 1.95205e+09 9.24178e+08 5.37651e+08 1.99083e+09 1.77e+09 1.13018e+09 2.14708e+08 1.06011e+09 1.00834e+09 5.43539e+07 1.52759e+08 2.13506e+09 2.89967e+08 9.33746e+08 1.19228e+09 1.92464e+09 1
1.37959e+09 1.15145e+09 7.9024e+08 8.38148e+08 1.88078e+09 1.14793e+08 2.12839e+09 1.35815e+08 7.17345e+08 1.79218e+09 4.81009e+08 1.09923e+09 1.53018e+09 1.03246e+09 9.03795e+08 3.0687e+08 1.57011e+09 7.47138e+08 2.07687e+09 5.52808e+08 9.61847e+08 9.89495e+08 1.56114e+09 1.0162e+09 1.14225e+09 1.54872e+09 1.30617e+09 2.076e+09 5.93518e+08 1.08333e+09 5.50014e+08 1.97311e+09 0
1.34025e+09 6.63771e+08 1.96807e+09 1.45505e+09 6.4468e+08 2.10389e+09 2.49075e+07 2.89373e+08 4.37412e+08 1.12414e+09 1.81955e+09 1.46987e+09 2.02794e+09 2.12642e+09 8.92494e+08 6.2759e+08 2.05581e+09 1.4453e+09 1.58944e+09 8.97819e+08 8.58962e+08 4.58154e+08 2.04007e+09 2.60198e+08 1.76432e+09 1.96859e+09 8.53716e+08 7.00163e+08 3.71119e+08 6.7934e+08 7.87454e+08 1.71137e+09 1
6.08042e+08 1.01894e+09 1.98779e+09 5.64445e+08 1.04384e+09 1.29681e+08 1.00186e+09 2.04995e+07 1.94923e+09 3.24242e+08 2.04843e+09 1.92816e+09 1.21674e+09 5.28541e+08 1.83649e+09 5.14554e+08 2.11798e+09 5.86824e+08 1.37352e+09 4.28648e+08 4.79412e+08 1.63371e+09 4.54858e+07 3.00517e+08 3.39947e+08 7.45649e+08 6.71636e+08 1.01929e+09 1.5331e+09 2.35525e+08 2.14913e+08 2.14114e+09 2
5.52211e+07 5.58106e+08 1.5082e+08 1.84902e+08 1.55996e+09 1.71319e+08 2.13413e+09 1.8842e+09 7.22703e+07 1.91481e+09 9.53456e+08 6.00812e+08 1.60382e+09 1.46801e+09 5.71306e+08 4.31575e+07 6.94042e+08 9.99954e+08 5.2257e+08 1.80273e+08 1.04544e+09 8.23087e+08 5.20219e+08 1.79109e+09 1.49472e+09 1.53951e+09 1.17671e+09 1.73025e+09 1.75442e+09 1.17037e+09 8.37224e+08 1.80964e+09 2
9.88044e+08 1.99454e+09 1.14095e+09 1.15936e+09 1.98119e+09 8.77673e+08 1.23163e+09 1.74852e+09 1.83113e+09 1.83245e+09 1.20485e+09 1.15165e+09 2.56267e+08 1.24801e+09 1.8457e+09 1.25622e+09 1.77058e+09 2.02597e+09 1.54178e+08 4.46184e+08 3.98705e+08 1.94527e+09 1.94091e+09 1.93821e+09 9.74492e+08 1.52367e+09 1.54515e+09 2.14486e+09 2.13411e+08 1.2073e+09 1.72585e+09 1.20146e+09 2
7.19321e+08 2.13335e+08 8.88068e+08 1.59699e+09 1.44497e+09 4.89103e+08 1.28064e+09 1.12993e+09 1.69396e+09 2.84809e+08 1.3862e+09 7.94482e+08 2.13051e+09 4.94936e+08 4.17579e+08 2.00899e+09 6.49114e+08 8.63762e+08 2.60214e+08 4.46897e+08 6.57185e+08 5.09409e+07 1.42139e+09 3.3372e+07 1.59609e+09 1.41877e+09 2.46783e+08 6.55907e+08 9.97134e+08 1.44824e+09 1.71027e+09 1.71646e+09 1
4.50852e+08 1.16597e+09 9.59058e+08 9.39955e+08 2.9912e+08 2.08899e+09 4.86427e+08 5.83929e+08 1.3277e+09 1.28091e+09 5.66951e+08 1.82264e+09 1.69849e+09 4.2846e+08 3.24269e+08 4.14767e+08 6.88673e+08 7.71166e+08 1.07195e+09 7.39614e+08 4.50715e+07 1.10532e+09 1.88218e+08 1.46384e+09 1.35211e+09 8.44124e+08 3.13489e+08 6.52862e+08 4.06908e+08 2.02994e+09 1.66952e+08 8.5776e+08 1
1.12601e+09 1.79772e+09 1.34755e+09 1.06752e+09 1.36659e+08 1.93147e+09 2.47734e+08 1.41757e+09 3.50942e+08 2.07037e+09 9.68573e+08 7.79401e+08 2.47158e+08 1.38334e+09 1.46807e+09 1.01832e+09 3.07809e+08 6.02051e+07 1.0634e+09 1.41313e+09 2.48423e+08 3.7975e+08 6.17757e+08 1.09255e+09 6.93238e+08 1.27062e+09 1.49946e+09 5.75698e+08 1.43757e+09 2.09732e+08 1.62412e+09 4.16098e+08 0
8.24186e+08 1.48361e+09 2.14411e+09 6.08176e+08 1.73135e+09 1.41419e+09 9.59118e+08 1.65424e+09 2.35281e+08 1.73852e+09 1.90139e+09 1.61862e+09 1.05911e+09 7.72235e+08 1.92643e+09 1.11932e+09 1.83563e+09 1.19208e+09 1.36774e+09 6.78971e+07 1.80984e+09 3.12802e+08 7.61135e+08 9.32972e+08 1.81226e+09 1.33683e+09 2.2306e+08 2.02199e+09 8.13474e+08 6.39157e+08 1.88195e+09 1.63766e+09 1
